{"learner":{"attributes":{"scikit_learn":"{\"_estimator_type\": \"regressor\"}"},"feature_names":[],"feature_types":[],"gradient_booster":{"model":{"gbtree_model_param":{"num_parallel_tree":"1","num_trees":"100"},"iteration_indptr":[0,1,2,3,4,5,6,7,8,9,10,11,12,13,14,15,16,17,18,19,20,21,22,23,24,25,26,27,28,29,30,31,32,33,34,35,36,37,38,39,40,41,42,43,44,45,46,47,48,49,50,51,52,53,54,55,56,57,58,59,60,61,62,63,64,65,66,67,68,69,70,71,72,73,74,75,76,77,78,79,80,81,82,83,84,85,86,87,88,89,90,91,92,93,94,95,96,97,98,99,100],"tree_info":[0,0,0,0,0,0,0,0,0,0,0,0,0,0,0,0,0,0,0,0,0,0,0,0,0,0,0,0,0,0,0,0,0,0,0,0,0,0,0,0,0,0,0,0,0,0,0,0,0,0,0,0,0,0,0,0,0,0,0,0,0,0,0,0,0,0,0,0,0,0,0,0,0,0,0,0,0,0,0,0,0,0,0,0,0,0,0,0,0,0,0,0,0,0,0,0,0,0,0,0],"trees":[{"base_weights":[2.4852456E-8,3.520487E-2,-3.731713E-1,4.904772E-2,-2.6817663E-2,-1.3923673E-1,-2.535147E-1,5.3971067E-2,-5.0993217E-3,1.2672247E-2,-2.037364E-1,-1.2879829E-2,-1.0270092E-1,4.236798E-2,6.783592E-2,3.4098443E-2,-1.2167275E-1,3.0184811E-2,-5.4437574E-3,-1.1111276E-1,-7.6683834E-2,5.669337E-3,4.7957264E-2,7.6356605E-2,4.296869E-2,5.0285816E-2,8.414899E-3,-1.0443186E-2,-1.6797729E-1,1.0474942E-2,-9.843965E-3,5.2026403E-3,-4.0552758E-2,-1.491319E-2,-4.064319E-2,1.862799E-2,9.8266555E-3,2.4537152E-2,1.686079E-2,1.6231785E-2,1.9801832E-3,4.896808E-3,1.7297326E-2,1.0425162E-2,-6.0073393E-3,-1.0584891E-2,-6.500489E-2,1.8501073E-3,-6.279892E-3,-2.8542518E-3,5.8024153E-3,-1.592319E-2,-4.35319E-3],"categories":[],"categories_nodes":[],"categories_segments":[],"categories_sizes":[],"default_left":[0,0,0,0,0,0,0,0,0,0,0,0,0,0,0,0,0,0,0,0,0,0,0,0,0,0,0,0,0,0,0,0,0,0,0,0,0,0,0,0,0,0,0,0,0,0,0,0,0,0,0,0,0],"id":0,"left_children":[1,3,5,7,9,-1,11,13,15,17,19,-1,-1,21,23,25,27,29,31,33,-1,-1,35,37,39,41,43,-1,45,-1,47,49,51,-1,-1,-1,-1,-1,-1,-1,-1,-1,-1,-1,-1,-1,-1,-1,-1,-1,-1,-1,-1],"loss_changes":[3.809857E0,2.2883609E-1,1.5441084E-1,5.8124065E-2,3.4492052E-1,0E0,2.2845769E-1,2.9140115E-2,9.09678E-2,1.3171883E-2,1.4842987E-2,0E0,0E0,1.3654858E-2,1.5576929E-2,5.8130864E-3,1.42631605E-2,4.321169E-3,8.060453E-3,7.455088E-4,0E0,0E0,1.7091542E-2,2.5215745E-3,9.768885E-3,1.3122372E-3,5.938642E-3,0E0,1.174368E-2,0E0,6.6173205E-4,3.7213303E-3,8.606436E-4,0E0,0E0,0E0,0E0,0E0,0E0,0E0,0E0,0E0,0E0,0E0,0E0,0E0,0E0,0E0,0E0,0E0,0E0,0E0,0E0],"parents":[2147483647,0,0,1,1,2,2,3,3,4,4,6,6,7,7,8,8,9,9,10,10,13,13,14,14,15,15,16,16,17,17,18,18,19,19,22,22,23,23,24,24,25,25,26,26,28,28,30,30,31,31,32,32],"right_children":[2,4,6,8,10,-1,12,14,16,18,20,-1,-1,22,24,26,28,30,32,34,-1,-1,36,38,40,42,44,-1,46,-1,48,50,52,-1,-1,-1,-1,-1,-1,-1,-1,-1,-1,-1,-1,-1,-1,-1,-1,-1,-1,-1,-1],"split_conditions":[1E-1,1.8738175E-2,1E0,1E-2,2.848036E-3,-1.3923673E-1,1.519911E-6,6.5793324E-4,3.5111918E-3,4.3287612E-2,4.3287612E-2,-1.2879829E-2,-1.0270092E-1,2.3101296E-5,2.3101296E-4,2.848036E-4,1E0,8.1113086E-4,2.3101296E-4,1E0,-7.6683834E-2,5.669337E-3,1E0,8.111308E-3,8.111308E-3,2.3101296E-5,1E0,-1.0443186E-2,8.111308E-3,1.0474942E-2,1E0,1E0,1E0,-1.491319E-2,-4.064319E-2,1.862799E-2,9.8266555E-3,2.4537152E-2,1.686079E-2,1.6231785E-2,1.9801832E-3,4.896808E-3,1.7297326E-2,1.0425162E-2,-6.0073393E-3,-1.0584891E-2,-6.500489E-2,1.8501073E-3,-6.279892E-3,-2.8542518E-3,5.8024153E-3,-1.592319E-2,-4.35319E-3],"split_indices":[0,0,1,2,2,0,2,0,0,0,0,0,0,0,2,0,1,2,2,1,0,0,1,0,0,0,1,0,0,0,1,1,1,0,0,0,0,0,0,0,0,0,0,0,0,0,0,0,0,0,0,0,0],"split_type":[0,0,0,0,0,0,0,0,0,0,0,0,0,0,0,0,0,0,0,0,0,0,0,0,0,0,0,0,0,0,0,0,0,0,0,0,0,0,0,0,0,0,0,0,0,0,0,0,0,0,0,0,0],"sum_hessian":[2.88E2,2.64E2,2.4E1,2.16E2,4.8E1,1.2E1,1.2E1,1.98E2,1.8E1,4E1,8E0,4E0,8E0,1.1E2,8.8E1,1.4E1,4E0,2E1,2E1,4E0,4E0,2.2E1,8.8E1,6.4E1,2.4E1,8E0,6E0,2E0,2E0,1.8E1,2E0,1.6E1,4E0,2E0,2E0,4.4E1,4.4E1,4.8E1,1.6E1,1.8E1,6E0,2E0,6E0,3E0,3E0,1E0,1E0,1E0,1E0,8E0,8E0,2E0,2E0],"tree_param":{"num_deleted":"0","num_feature":"3","num_nodes":"53","size_leaf_vector":"1"}},{"base_weights":[-1.2595947E-3,2.423129E-2,-2.7141258E-1,3.4322213E-2,-2.5864819E-2,-1.0067885E-1,-1.863511E-1,3.8221695E-2,-4.6357852E-3,1.9449657E-2,-1.3890427E-1,-3.2628883E-2,-7.5314E-2,1.3333045E-2,4.0898155E-2,3.8152689E-3,-3.2442212E-2,3.467438E-2,3.0808344E-3,-6.923316E-2,-5.661958E-2,-1.1074372E-2,-2.3229183E-3,2.8321901E-3,4.8040086E-3,4.318512E-2,2.1417249E-2,-4.5984844E-3,7.478392E-3,-1.273855E-2,-1.1608521E-2,4.577003E-2,1.9726025E-2,-2.2887254E-2,1.2831573E-2,3.5901863E-5,-2.9084386E-2,1.0559769E-2,1.51913585E-2,7.4978587E-3,-2.5102138E-3,-4.6058693E-3,2.043856E-3,7.308126E-5,-5.296916E-3,2.610195E-3,1.65355E-2,9.509576E-3,-4.435587E-3,9.521497E-3,-2.0965124E-2,6.9536553E-3,-2.5079513E-3,9.20308E-3,-9.1869235E-3],"categories":[],"categories_nodes":[],"categories_segments":[],"categories_sizes":[],"default_left":[0,0,0,0,0,0,0,0,0,0,0,0,0,0,0,0,0,0,0,0,0,0,0,0,0,0,0,0,0,0,0,0,0,0,0,0,0,0,0,0,0,0,0,0,0,0,0,0,0,0,0,0,0,0,0],"id":1,"left_children":[1,3,5,7,9,-1,11,13,15,17,19,21,-1,23,25,27,29,31,33,35,-1,-1,-1,-1,-1,37,39,41,-1,-1,43,45,47,49,51,53,-1,-1,-1,-1,-1,-1,-1,-1,-1,-1,-1,-1,-1,-1,-1,-1,-1,-1,-1],"loss_changes":[1.9967575E0,1.3484943E-1,7.395017E-2,3.3750623E-2,2.3320617E-1,0E0,1.210956E-1,1.2844026E-2,5.0586415E-3,8.117129E-3,3.2063633E-2,2.4743285E-4,0E0,6.7914836E-5,7.139027E-3,3.1344614E-3,5.5080885E-4,1.9167885E-3,4.598216E-3,1.3441928E-2,0E0,0E0,0E0,0E0,0E0,7.799804E-3,2.4455888E-3,1.6999862E-3,0E0,0E0,2.1934131E-4,2.6392564E-3,4.187372E-3,1.5054043E-2,3.0443254E-3,3.75769E-3,0E0,0E0,0E0,0E0,0E0,0E0,0E0,0E0,0E0,0E0,0E0,0E0,0E0,0E0,0E0,0E0,0E0,0E0,0E0],"parents":[2147483647,0,0,1,1,2,2,3,3,4,4,6,6,7,7,8,8,9,9,10,10,11,11,13,13,14,14,15,15,16,16,17,17,18,18,19,19,25,25,26,26,27,27,30,30,31,31,32,32,33,33,34,34,35,35],"right_children":[2,4,6,8,10,-1,12,14,16,18,20,22,-1,24,26,28,30,32,34,36,-1,-1,-1,-1,-1,38,40,42,-1,-1,44,46,48,50,52,54,-1,-1,-1,-1,-1,-1,-1,-1,-1,-1,-1,-1,-1,-1,-1,-1,-1,-1,-1],"split_conditions":[1E-1,2.848036E-3,1E0,4.3287612E-2,8.111308E-3,-1.0067885E-1,1.519911E-6,2.3101296E-5,2.3101296E-4,2.848036E-4,1E-2,4.3287613E-7,-7.5314E-2,1E0,1.8738175E-2,1.8738174E-5,1E0,1E0,6.5793324E-4,1.8738175E-2,-5.661958E-2,-1.1074372E-2,-2.3229183E-3,2.8321901E-3,4.8040086E-3,6.5793324E-4,8.1113086E-4,1E0,7.478392E-3,-1.273855E-2,8.1113086E-4,2.3101296E-5,1.2328467E-4,1E0,3.5111918E-3,1E0,-2.9084386E-2,1.0559769E-2,1.51913585E-2,7.4978587E-3,-2.5102138E-3,-4.6058693E-3,2.043856E-3,7.308126E-5,-5.296916E-3,2.610195E-3,1.65355E-2,9.509576E-3,-4.435587E-3,9.521497E-3,-2.0965124E-2,6.9536553E-3,-2.5079513E-3,9.20308E-3,-9.1869235E-3],"split_indices":[0,2,1,0,0,0,2,0,2,0,2,2,0,1,0,2,1,1,0,0,0,0,0,0,0,0,2,1,0,0,2,0,0,1,0,1,0,0,0,0,0,0,0,0,0,0,0,0,0,0,0,0,0,0,0],"split_type":[0,0,0,0,0,0,0,0,0,0,0,0,0,0,0,0,0,0,0,0,0,0,0,0,0,0,0,0,0,0,0,0,0,0,0,0,0,0,0,0,0,0,0,0,0,0,0,0,0,0,0,0,0,0,0],"sum_hessian":[2.88E2,2.64E2,2.4E1,2.2E2,4.4E1,1.2E1,1.2E1,2E2,2E1,3.2E1,1.2E1,4E0,8E0,2E1,1.8E2,1.6E1,4E0,1.6E1,1.6E1,6E0,6E0,3E0,1E0,1E1,1E1,1.6E2,2E1,1.2E1,4E0,2E0,2E0,8E0,8E0,4E0,1.2E1,2E0,4E0,8E1,8E1,1.8E1,2E0,6E0,6E0,1E0,1E0,2E0,6E0,6E0,2E0,2E0,2E0,8E0,4E0,1E0,1E0],"tree_param":{"num_deleted":"0","num_feature":"3","num_nodes":"55","size_leaf_vector":"1"}},{"base_weights":[-1.6863215E-3,1.6799109E-2,-1.9756442E-1,2.2128118E-2,-3.5244502E-2,-2.4266185E-1,-1.3726974E-1,2.6946088E-2,-2.0314013E-3,-1.1525542E-2,-6.1602507E-2,-8.684581E-2,-1.6117172E-1,-2.551968E-2,-1.8410091E-1,9.696765E-3,2.8798517E-2,1.4136625E-2,-6.1088454E-2,1.1067422E-3,-1.7166935E-2,2.3062447E-2,-6.409759E-2,-8.58264E-3,-1.9744814E-3,-1.1840919E-1,-7.098398E-2,2.059779E-3,3.4938229E-3,3.1749293E-2,1.7948331E-2,2.569675E-2,1.744933E-3,1.0689223E-2,-3.6194533E-2,-7.981944E-3,1.0084754E-2,-5.2848984E-2,-1.9340118E-3,7.4309404E-3,1.2148998E-2,6.5549063E-3,-4.353408E-3,1.0249891E-2,4.3116016E-3,-5.4929424E-3,2.7972208E-3,8.704764E-3,-3.3601522E-3,-4.2264555E-3,2.8257968E-4,1.5182964E-3,4.9065473E-3,1.9717349E-2,-2.0587653E-2],"categories":[],"categories_nodes":[],"categories_segments":[],"categories_sizes":[],"default_left":[0,0,0,0,0,0,0,0,0,0,0,0,0,0,0,0,0,0,0,0,0,0,0,0,0,0,0,0,0,0,0,0,0,0,0,0,0,0,0,0,0,0,0,0,0,0,0,0,0,0,0,0,0,0,0],"id":2,"left_children":[1,3,5,7,9,11,13,15,17,19,-1,-1,21,23,25,27,29,31,33,35,-1,-1,-1,-1,-1,37,-1,-1,-1,39,41,43,45,47,-1,49,51,-1,53,-1,-1,-1,-1,-1,-1,-1,-1,-1,-1,-1,-1,-1,-1,-1,-1],"loss_changes":[1.0497564E0,7.427521E-2,3.4668207E-2,2.8107107E-2,9.8496534E-2,2.9472709E-3,6.333582E-2,6.1433166E-3,4.0011857E-2,1.3340419E-2,0E0,0E0,1.0388525E-1,1.0421802E-4,3.0294359E-3,3.5920413E-5,5.225137E-3,4.682394E-3,3.9765336E-2,1.6308642E-3,0E0,0E0,0E0,0E0,0E0,4.0020794E-2,0E0,0E0,0E0,7.6052696E-3,5.5091754E-3,1.1395263E-3,2.7546813E-3,2.3308205E-3,0E0,5.5818347E-4,2.3223716E-4,0E0,1.8047119E-2,0E0,0E0,0E0,0E0,0E0,0E0,0E0,0E0,0E0,0E0,0E0,0E0,0E0,0E0,0E0,0E0],"parents":[2147483647,0,0,1,1,2,2,3,3,4,4,5,5,6,6,7,7,8,8,9,9,12,12,13,13,14,14,15,15,16,16,17,17,18,18,19,19,25,25,29,29,30,30,31,31,32,32,33,33,35,35,36,36,38,38],"right_children":[2,4,6,8,10,12,14,16,18,20,-1,-1,22,24,26,28,30,32,34,36,-1,-1,-1,-1,-1,38,-1,-1,-1,40,42,44,46,48,-1,50,52,-1,54,-1,-1,-1,-1,-1,-1,-1,-1,-1,-1,-1,-1,-1,-1,-1,-1],"split_conditions":[1E-1,4.3287612E-2,1E0,2.848036E-3,1E-2,1.8738174E-5,1.519911E-6,2.3101296E-5,8.111308E-3,8.1113086E-4,-6.1602507E-2,-8.684581E-2,6.579332E-5,4.3287613E-7,8.1113086E-4,1E0,8.111308E-3,2.848036E-4,1E0,1E0,-1.7166935E-2,2.3062447E-2,-6.409759E-2,-8.58264E-3,-1.9744814E-3,6.579332E-5,-7.098398E-2,2.059779E-3,3.4938229E-3,6.5793324E-4,8.1113086E-4,1E0,6.5793324E-4,1.8738175E-2,-3.6194533E-2,5.3366994E-6,1.8738174E-5,-5.2848984E-2,2.3101296E-4,7.4309404E-3,1.2148998E-2,6.5549063E-3,-4.353408E-3,1.0249891E-2,4.3116016E-3,-5.4929424E-3,2.7972208E-3,8.704764E-3,-3.3601522E-3,-4.2264555E-3,2.8257968E-4,1.5182964E-3,4.9065473E-3,1.9717349E-2,-2.0587653E-2],"split_indices":[0,0,1,2,2,2,2,0,0,2,0,0,2,2,2,1,0,0,1,1,0,0,0,0,0,2,0,0,0,0,2,1,0,0,0,2,2,0,2,0,0,0,0,0,0,0,0,0,0,0,0,0,0,0,0],"split_type":[0,0,0,0,0,0,0,0,0,0,0,0,0,0,0,0,0,0,0,0,0,0,0,0,0,0,0,0,0,0,0,0,0,0,0,0,0,0,0,0,0,0,0,0,0,0,0,0,0,0,0,0,0,0,0],"sum_hessian":[2.88E2,2.64E2,2.4E1,2.4E2,2.4E1,1.2E1,1.2E1,2E2,4E1,2.2E1,2E0,6E0,6E0,4E0,8E0,2E1,1.8E2,3.2E1,8E0,1.8E1,4E0,1E0,5E0,3E0,1E0,5E0,3E0,1E1,1E1,1.4E2,4E1,1.6E1,1.6E1,4E0,4E0,9E0,9E0,3E0,2E0,8E1,6E1,3.6E1,4E0,8E0,8E0,4E0,1.2E1,2E0,2E0,5E0,4E0,6E0,3E0,1E0,1E0],"tree_param":{"num_deleted":"0","num_feature":"3","num_nodes":"55","size_leaf_vector":"1"}},{"base_weights":[-2.3260168E-3,1.1503018E-2,-1.4882074E-1,1.5342894E-2,-2.9566241E-2,-1.7970029E-1,-1.0649346E-1,1.9411974E-2,-2.992434E-3,1.5567692E-2,-1.01504326E-1,-6.4514026E-2,-1.1868237E-1,-1.9975197E-2,-1.4272654E-1,1.4800304E-2,2.4945498E-2,3.8988837E-3,-5.890275E-2,2.656591E-2,2.6235133E-3,-6.0102694E-2,-4.928201E-2,1.9603081E-2,-4.807319E-2,-6.6515435E-3,-1.6783118E-3,-9.1839634E-2,-5.5012584E-2,2.199848E-2,3.7541217E-3,1.663622E-2,3.2700427E-2,6.4625787E-3,-1.5852237E-2,-2.3246357E-2,-2.2477468E-2,3.22099E-2,-1.9413024E-3,1.522156E-2,-1.3779923E-2,-1.6223237E-2,-8.8956475E-2,-4.0957958E-2,-1.643906E-3,1.974054E-3,8.817027E-3,6.0926736E-3,-3.8891674E-3,5.518107E-3,2.2687814E-3,1.1730393E-2,3.5518676E-3,3.5039196E-3,2.715873E-4,-1.137495E-3,-6.788624E-3,3.1376482E-4,-1.0774626E-2,2.3728372E-3,1.2104455E-2,5.3885314E-3,6.3910784E-4,-1.1061014E-2,8.323565E-3,-9.316806E-3,-2.7809144E-4,-3.358173E-2,-3.0012936E-3,1.6759748E-2,-1.7499506E-2],"categories":[],"categories_nodes":[],"categories_segments":[],"categories_sizes":[],"default_left":[0,0,0,0,0,0,0,0,0,0,0,0,0,0,0,0,0,0,0,0,0,0,0,0,0,0,0,0,0,0,0,0,0,0,0,0,0,0,0,0,0,0,0,0,0,0,0,0,0,0,0,0,0,0,0,0,0,0,0,0,0,0,0,0,0,0,0,0,0,0,0],"id":3,"left_children":[1,3,5,7,9,11,13,15,17,19,21,-1,23,25,27,29,31,33,35,37,39,41,-1,-1,-1,-1,-1,43,-1,45,47,49,51,53,55,57,-1,59,-1,61,63,65,67,-1,69,-1,-1,-1,-1,-1,-1,-1,-1,-1,-1,-1,-1,-1,-1,-1,-1,-1,-1,-1,-1,-1,-1,-1,-1,-1,-1],"loss_changes":[5.871914E-1,4.2244367E-2,1.3539255E-2,1.818781E-2,7.6257706E-2,2.5157034E-3,3.790173E-2,4.709035E-3,1.7567964E-2,2.0657473E-3,1.3515398E-2,0E0,6.400981E-2,3.390829E-5,1.7752796E-3,8.743292E-3,5.1909573E-3,2.1785162E-3,1.1147279E-3,1.7001107E-3,1.8629619E-3,7.419456E-3,0E0,0E0,0E0,0E0,0E0,2.3958959E-2,0E0,7.442329E-3,1.2717625E-2,5.784929E-4,5.545821E-3,1.0621754E-3,3.2284297E-4,9.6084306E-4,0E0,1.0652156E-3,0E0,1.4109828E-4,4.858249E-3,8.787564E-4,6.1382353E-3,0E0,1.3039044E-2,0E0,0E0,0E0,0E0,0E0,0E0,0E0,0E0,0E0,0E0,0E0,0E0,0E0,0E0,0E0,0E0,0E0,0E0,0E0,0E0,0E0,0E0,0E0,0E0,0E0,0E0],"parents":[2147483647,0,0,1,1,2,2,3,3,4,4,5,5,6,6,7,7,8,8,9,9,10,10,12,12,13,13,14,14,15,15,16,16,17,17,18,18,19,19,20,20,21,21,27,27,29,29,30,30,31,31,32,32,33,33,34,34,35,35,37,37,39,39,40,40,41,41,42,42,44,44],"right_children":[2,4,6,8,10,12,14,16,18,20,22,-1,24,26,28,30,32,34,36,38,40,42,-1,-1,-1,-1,-1,44,-1,46,48,50,52,54,56,58,-1,60,-1,62,64,66,68,-1,70,-1,-1,-1,-1,-1,-1,-1,-1,-1,-1,-1,-1,-1,-1,-1,-1,-1,-1,-1,-1,-1,-1,-1,-1,-1,-1],"split_conditions":[1E-1,1E-2,1E0,1.8738175E-2,3.5111918E-3,1.8738174E-5,1.519911E-6,6.5793324E-4,2.848036E-3,1E0,4.3287612E-2,-6.4514026E-2,6.579332E-5,4.3287613E-7,8.1113086E-4,1.2328467E-4,1E0,8.1113086E-4,1E0,1.5199111E-3,2.848036E-4,1E0,-4.928201E-2,1.9603081E-2,-4.807319E-2,-6.6515435E-3,-1.6783118E-3,6.579332E-5,-5.5012584E-2,2.3101296E-5,1E0,8.1113086E-4,8.111308E-3,4.3287612E-2,4.3287612E-2,4.3287612E-2,-2.2477468E-2,5.336699E-5,-1.9413024E-3,1.2328467E-4,1.5199111E-3,8.111308E-3,1.8738175E-2,-4.0957958E-2,2.3101296E-4,1.974054E-3,8.817027E-3,6.0926736E-3,-3.8891674E-3,5.518107E-3,2.2687814E-3,1.1730393E-2,3.5518676E-3,3.5039196E-3,2.715873E-4,-1.137495E-3,-6.788624E-3,3.1376482E-4,-1.0774626E-2,2.3728372E-3,1.2104455E-2,5.3885314E-3,6.3910784E-4,-1.1061014E-2,8.323565E-3,-9.316806E-3,-2.7809144E-4,-3.358173E-2,-3.0012936E-3,1.6759748E-2,-1.7499506E-2],"split_indices":[0,2,1,0,0,2,2,0,2,1,0,0,2,2,2,0,1,2,1,0,0,1,0,0,0,0,0,2,0,0,1,2,0,0,0,0,0,0,0,0,0,0,0,0,2,0,0,0,0,0,0,0,0,0,0,0,0,0,0,0,0,0,0,0,0,0,0,0,0,0,0],"split_type":[0,0,0,0,0,0,0,0,0,0,0,0,0,0,0,0,0,0,0,0,0,0,0,0,0,0,0,0,0,0,0,0,0,0,0,0,0,0,0,0,0,0,0,0,0,0,0,0,0,0,0,0,0,0,0,0,0,0,0,0,0,0,0,0,0,0,0,0,0,0,0],"sum_hessian":[2.88E2,2.64E2,2.4E1,2.42E2,2.2E1,1.2E1,1.2E1,1.98E2,4.4E1,1.4E1,8E0,6E0,6E0,4E0,8E0,1.1E2,8.8E1,4E1,4E0,7E0,7E0,6E0,2E0,1E0,5E0,3E0,1E0,5E0,3E0,6.6E1,4.4E1,4.4E1,4.4E1,3.6E1,4E0,2E0,2E0,6E0,1E0,4E0,3E0,3E0,3E0,3E0,2E0,2.2E1,4.4E1,2.2E1,2.2E1,3.6E1,8E0,3.3E1,1.1E1,1.8E1,1.8E1,2E0,2E0,1E0,1E0,2E0,4E0,3E0,1E0,2E0,1E0,1E0,2E0,2E0,1E0,1E0,1E0],"tree_param":{"num_deleted":"0","num_feature":"3","num_nodes":"71","size_leaf_vector":"1"}},{"base_weights":[-2.5925045E-3,7.747749E-3,-1.1209549E-1,1.21469395E-2,-1.4029338E-2,-1.3294281E-1,-8.2625434E-2,1.3564528E-2,-1.9998353E-3,7.3172865E-3,-6.713774E-2,-4.7924697E-2,-8.714481E-2,-2.7947327E-2,-3.7649978E-2,1.4591936E-2,4.063322E-3,2.7843993E-3,-1.7866265E-2,1.5415869E-2,-1.2117239E-3,-3.1048195E-2,-9.3636185E-2,1.666262E-2,-3.605489E-2,-6.401453E-2,2.8268388E-2,5.0959773E-3,1.5609305E-2,1.2919593E-2,-1.5494875E-2,-2.7636106E-3,4.9957037E-3,-7.8507075E-3,-1.0824264E-3,2.1487607E-2,-3.453827E-3,1.4741318E-2,-1.1253503E-2,7.2535477E-3,-4.7819603E-2,-5.2239444E-2,-3.9425608E-2,-1.5648628E-2,-4.587661E-2,9.386534E-4,1.966054E-3,6.202409E-3,4.203196E-3,1.0372003E-3,6.9719097E-3,-5.9618503E-3,-9.099961E-4,3.1196417E-3,-2.9306991E-3,1.3210095E-3,8.577403E-3,4.6526794E-3,-6.3795927E-3,7.996917E-4,5.711539E-3,-8.861587E-3,4.97891E-3,6.176582E-3,-2.9124857E-3,-5.9278226E-3,-1.798198E-2,-2.2246838E-4,-2.5897255E-2,-5.154951E-3,-1.4265687E-3],"categories":[],"categories_nodes":[],"categories_segments":[],"categories_sizes":[],"default_left":[0,0,0,0,0,0,0,0,0,0,0,0,0,0,0,0,0,0,0,0,0,0,0,0,0,0,0,0,0,0,0,0,0,0,0,0,0,0,0,0,0,0,0,0,0,0,0,0,0,0,0,0,0,0,0,0,0,0,0,0,0,0,0,0,0,0,0,0,0,0,0],"id":4,"left_children":[1,3,5,7,9,11,13,15,17,19,21,-1,23,25,-1,27,29,31,33,35,37,39,41,-1,-1,43,-1,45,47,49,51,53,-1,-1,-1,55,57,59,61,63,65,67,-1,69,-1,-1,-1,-1,-1,-1,-1,-1,-1,-1,-1,-1,-1,-1,-1,-1,-1,-1,-1,-1,-1,-1,-1,-1,-1,-1,-1],"loss_changes":[3.280999E-1,2.5557825E-2,4.374832E-3,4.4591315E-3,5.1507097E-2,2.0384043E-3,2.696845E-2,1.9027926E-3,1.64383E-3,2.2980855E-3,9.524889E-3,0E0,3.9673988E-2,3.687761E-2,0E0,1.6690791E-3,3.8376541E-3,1.3539921E-3,4.9749075E-4,2.0219362E-3,2.8892395E-3,4.8434795E-3,4.0832646E-3,0E0,0E0,2.3407532E-2,0E0,3.397127E-5,1.0302775E-3,1.384425E-3,3.2161246E-4,1.3002872E-3,0E0,0E0,0E0,1.4518066E-3,2.018576E-3,3.12487E-4,6.0918536E-3,8.7844126E-4,5.161166E-4,8.712444E-3,0E0,1.8720748E-6,0E0,0E0,0E0,0E0,0E0,0E0,0E0,0E0,0E0,0E0,0E0,0E0,0E0,0E0,0E0,0E0,0E0,0E0,0E0,0E0,0E0,0E0,0E0,0E0,0E0,0E0,0E0],"parents":[2147483647,0,0,1,1,2,2,3,3,4,4,5,5,6,6,7,7,8,8,9,9,10,10,12,12,13,13,15,15,16,16,17,17,18,18,19,19,20,20,21,21,22,22,25,25,27,27,28,28,29,29,30,30,31,31,35,35,36,36,37,37,38,38,39,39,40,40,41,41,43,43],"right_children":[2,4,6,8,10,12,14,16,18,20,22,-1,24,26,-1,28,30,32,34,36,38,40,42,-1,-1,44,-1,46,48,50,52,54,-1,-1,-1,56,58,60,62,64,66,68,-1,70,-1,-1,-1,-1,-1,-1,-1,-1,-1,-1,-1,-1,-1,-1,-1,-1,-1,-1,-1,-1,-1,-1,-1,-1,-1,-1,-1],"split_conditions":[1E-1,2.848036E-3,1E0,4.3287612E-2,8.111308E-3,1.8738174E-5,1.8738174E-5,8.1113086E-4,2.3101296E-4,1E0,1E-2,-4.7924697E-2,6.579332E-5,5.3366994E-6,-3.7649978E-2,2.3101296E-5,3.5111918E-3,1.8738174E-5,1E0,1.5199111E-3,1.2328467E-4,1.8738175E-2,4.3287612E-2,1.666262E-2,-3.605489E-2,1.519911E-6,2.8268388E-2,1E0,1.2328467E-4,2.848036E-4,1.8738175E-2,1.2328468E-7,4.9957037E-3,-7.8507075E-3,-1.0824264E-3,5.336699E-5,1E-2,2.3101296E-5,1.5199111E-3,1E0,1E0,1E0,-3.9425608E-2,4.3287613E-7,-4.587661E-2,9.386534E-4,1.966054E-3,6.202409E-3,4.203196E-3,1.0372003E-3,6.9719097E-3,-5.9618503E-3,-9.099961E-4,3.1196417E-3,-2.9306991E-3,1.3210095E-3,8.577403E-3,4.6526794E-3,-6.3795927E-3,7.996917E-4,5.711539E-3,-8.861587E-3,4.97891E-3,6.176582E-3,-2.9124857E-3,-5.9278226E-3,-1.798198E-2,-2.2246838E-4,-2.5897255E-2,-5.154951E-3,-1.4265687E-3],"split_indices":[0,2,1,0,0,2,2,2,2,1,2,0,2,2,0,0,0,2,1,0,0,0,0,0,0,2,0,1,0,0,0,2,0,0,0,0,2,0,0,1,1,1,0,2,0,0,0,0,0,0,0,0,0,0,0,0,0,0,0,0,0,0,0,0,0,0,0,0,0,0,0],"split_type":[0,0,0,0,0,0,0,0,0,0,0,0,0,0,0,0,0,0,0,0,0,0,0,0,0,0,0,0,0,0,0,0,0,0,0,0,0,0,0,0,0,0,0,0,0,0,0,0,0,0,0,0,0,0,0,0,0,0,0,0,0,0,0,0,0,0,0,0,0,0,0],"sum_hessian":[2.88E2,2.64E2,2.4E1,2.2E2,4.4E1,1.2E1,1.2E1,2E2,2E1,3.2E1,1.2E1,6E0,6E0,6E0,6E0,1.8E2,2E1,1.6E1,4E0,1.6E1,1.6E1,6E0,6E0,1E0,5E0,5E0,1E0,1.8E1,1.62E2,1.4E1,6E0,1.2E1,4E0,2E0,2E0,1.2E1,4E0,6E0,1E1,2E0,4E0,4E0,2E0,4E0,1E0,9E0,9E0,3.6E1,1.26E2,8E0,6E0,4E0,2E0,4E0,8E0,4E0,8E0,2E0,2E0,2E0,4E0,6E0,4E0,1E0,1E0,2E0,2E0,2E0,2E0,3E0,1E0],"tree_param":{"num_deleted":"0","num_feature":"3","num_nodes":"71","size_leaf_vector":"1"}},{"base_weights":[-2.4855097E-3,5.179303E-3,-8.363311E-2,7.4768034E-3,-1.9319473E-2,-7.0112824E-2,-3.7107497E-2,9.876287E-3,-3.300394E-3,1.0539861E-2,-6.693842E-2,-7.755475E-2,3.902912E-4,6.4605335E-3,1.40254125E-2,1.0429432E-3,-3.825568E-2,1.6341627E-2,3.4206137E-3,-4.1005854E-2,-3.1540483E-2,-3.345968E-2,-3.5821766E-2,2.80763E-2,-2.790067E-2,1.1394422E-2,-1.0290451E-3,7.876312E-3,1.9862838E-2,3.4032501E-3,-7.7273976E-3,-1.580754E-2,-1.4385578E-2,1.93363E-2,-6.931633E-4,-2.1175828E-3,6.3281986E-3,-1.2048855E-2,-5.9711386E-2,-5.366571E-2,2.3702672E-2,1.0118817E-3,4.5723245E-3,3.02928E-3,-3.6332847E-3,4.0877224E-3,1.6118132E-3,9.104351E-3,3.078278E-3,-5.7382975E-4,2.5557226E-3,1.1510969E-4,-4.2879046E-3,1.1558712E-3,-8.269264E-3,-2.4251641E-4,6.8485443E-3,3.3565091E-3,-7.07649E-3,-6.9623445E-3,-1.7797947E-4,-2.4773547E-2,1.3334871E-3,-6.9056395E-3,-4.0229112E-2,1.9893283E-2,-9.227081E-3],"categories":[],"categories_nodes":[],"categories_segments":[],"categories_sizes":[],"default_left":[0,0,0,0,0,0,0,0,0,0,0,0,0,0,0,0,0,0,0,0,0,0,0,0,0,0,0,0,0,0,0,0,0,0,0,0,0,0,0,0,0,0,0,0,0,0,0,0,0,0,0,0,0,0,0,0,0,0,0,0,0,0,0,0,0,0,0],"id":5,"left_children":[1,3,5,7,9,11,-1,13,15,17,19,21,23,25,27,29,31,33,35,37,-1,-1,39,-1,-1,41,43,45,47,49,51,53,-1,55,-1,57,-1,59,61,63,65,-1,-1,-1,-1,-1,-1,-1,-1,-1,-1,-1,-1,-1,-1,-1,-1,-1,-1,-1,-1,-1,-1,-1,-1,-1,-1],"loss_changes":[1.801857E-1,1.5060222E-2,4.8677176E-3,6.3165035E-3,3.340853E-2,1.1048526E-2,0E0,2.7296953E-3,6.8719145E-3,5.6366494E-4,4.603658E-3,2.2946402E-2,3.4815673E-2,4.1134795E-3,3.0381996E-3,8.750268E-4,3.303117E-4,4.915346E-4,8.276975E-4,3.072138E-3,0E0,0E0,1.1893527E-2,0E0,0E0,2.015939E-3,5.67099E-3,5.7453546E-4,4.2190254E-3,9.1375643E-4,4.8477342E-4,7.996265E-4,0E0,5.108963E-4,0E0,2.263732E-3,0E0,4.975614E-4,6.235338E-3,1.663302E-2,9.000811E-3,0E0,0E0,0E0,0E0,0E0,0E0,0E0,0E0,0E0,0E0,0E0,0E0,0E0,0E0,0E0,0E0,0E0,0E0,0E0,0E0,0E0,0E0,0E0,0E0,0E0,0E0],"parents":[2147483647,0,0,1,1,2,2,3,3,4,4,5,5,7,7,8,8,9,9,10,10,11,11,12,12,13,13,14,14,15,15,16,16,17,17,18,18,19,19,22,22,25,25,26,26,27,27,28,28,29,29,30,30,31,31,33,33,35,35,37,37,38,38,39,39,40,40],"right_children":[2,4,6,8,10,12,-1,14,16,18,20,22,24,26,28,30,32,34,36,38,-1,-1,40,-1,-1,42,44,46,48,50,52,54,-1,56,-1,58,-1,60,62,64,66,-1,-1,-1,-1,-1,-1,-1,-1,-1,-1,-1,-1,-1,-1,-1,-1,-1,-1,-1,-1,-1,-1,-1,-1,-1,-1],"split_conditions":[1E-1,1E-2,2.848036E-3,1.8738175E-2,3.5111918E-3,8.1113086E-4,-3.7107497E-2,6.5793324E-4,2.848036E-3,1E0,4.3287612E-2,1E0,1E0,1.2328467E-4,1E0,2.3101296E-4,1E0,1.5199111E-3,1.5199111E-3,1E0,-3.1540483E-2,-3.345968E-2,6.579332E-5,2.80763E-2,-2.790067E-2,2.3101296E-5,1E0,4.3287613E-7,5.3366994E-6,1E0,4.3287612E-2,4.3287612E-2,-1.4385578E-2,2.3101296E-5,-6.931633E-4,2.848036E-4,6.3281986E-3,8.111308E-3,1.8738175E-2,1.8738174E-5,2.3101296E-4,1.0118817E-3,4.5723245E-3,3.02928E-3,-3.6332847E-3,4.0877224E-3,1.6118132E-3,9.104351E-3,3.078278E-3,-5.7382975E-4,2.5557226E-3,1.1510969E-4,-4.2879046E-3,1.1558712E-3,-8.269264E-3,-2.4251641E-4,6.8485443E-3,3.3565091E-3,-7.07649E-3,-6.9623445E-3,-1.7797947E-4,-2.4773547E-2,1.3334871E-3,-6.9056395E-3,-4.0229112E-2,1.9893283E-2,-9.227081E-3],"split_indices":[0,2,2,0,0,2,0,0,2,1,0,1,1,0,1,2,1,0,0,1,0,0,2,0,0,0,1,2,2,1,0,0,0,0,0,0,0,0,0,2,2,0,0,0,0,0,0,0,0,0,0,0,0,0,0,0,0,0,0,0,0,0,0,0,0,0,0],"split_type":[0,0,0,0,0,0,0,0,0,0,0,0,0,0,0,0,0,0,0,0,0,0,0,0,0,0,0,0,0,0,0,0,0,0,0,0,0,0,0,0,0,0,0,0,0,0,0,0,0,0,0,0,0,0,0,0,0,0,0,0,0,0,0,0,0,0,0],"sum_hessian":[2.88E2,2.64E2,2.4E1,2.42E2,2.2E1,2E1,4E0,1.98E2,4.4E1,1.4E1,8E0,1.8E1,2E0,1.1E2,8.8E1,4E1,4E0,7E0,7E0,6E0,2E0,9E0,9E0,1E0,1E0,6.6E1,4.4E1,4.4E1,4.4E1,3.2E1,8E0,2E0,2E0,6E0,1E0,6E0,1E0,3E0,3E0,7E0,2E0,2.2E1,4.4E1,2.2E1,2.2E1,1.2E1,3.2E1,2E1,2.4E1,1.6E1,1.6E1,4E0,4E0,1E0,1E0,1E0,5E0,4E0,2E0,1E0,2E0,2E0,1E0,6E0,1E0,1E0,1E0],"tree_param":{"num_deleted":"0","num_feature":"3","num_nodes":"67","size_leaf_vector":"1"}},{"base_weights":[-2.2979565E-3,3.4201136E-3,-6.281758E-2,7.184074E-3,-6.57803E-3,-5.4314148E-2,-3.2121416E-2,4.7248146E-3,1.1161969E-2,-6.374708E-4,-6.2497947E-2,-7.380196E-2,-3.3646453E-2,8.2167955E-3,-5.739502E-4,4.1017644E-3,1.79205E-2,3.3734993E-3,-1.7557923E-2,-3.703236E-2,-8.410795E-2,-5.041707E-2,-3.5806794E-2,2.0729018E-2,-1.3625207E-2,2.1925045E-3,1.1122724E-2,8.970852E-3,-1.0095794E-2,5.2623223E-3,-6.7884177E-3,2.3069387E-2,6.6402922E-3,7.675569E-3,-2.0473426E-4,-5.7097794E-3,-2.2189345E-2,-4.746119E-4,-6.124598E-2,-3.081179E-2,-7.036789E-3,-2.5201468E-2,-6.745839E-3,-1.5735917E-2,2.5063975E-2,8.594309E-4,-3.2085303E-4,3.7571527E-3,2.7830093E-3,5.6079244E-3,-4.3243263E-4,-7.3348446E-4,-8.826037E-3,6.097854E-4,2.0155767E-3,1.2299598E-3,-5.9179906E-3,7.980959E-3,4.1493457E-3,2.7983184E-3,-5.2151084E-4,3.9816226E-4,4.0300507E-3,9.1260823E-4,-1.0316101E-3,-4.2355303E-3,1.3806403E-3,-2.6586163E-3,-9.3236305E-3,4.0305913E-3,-4.244167E-3,-2.8694158E-2,1.1334658E-3,-3.8125457E-3,-6.234169E-4],"categories":[],"categories_nodes":[],"categories_segments":[],"categories_sizes":[],"default_left":[0,0,0,0,0,0,0,0,0,0,0,0,0,0,0,0,0,0,0,0,0,0,0,0,0,0,0,0,0,0,0,0,0,0,0,0,0,0,0,0,0,0,0,0,0,0,0,0,0,0,0,0,0,0,0,0,0,0,0,0,0,0,0,0,0,0,0,0,0,0,0,0,0,0,0],"id":6,"left_children":[1,3,5,7,9,11,-1,13,15,17,19,21,23,25,27,29,31,33,35,37,39,41,-1,43,-1,45,47,49,51,53,55,57,59,61,63,65,67,69,71,-1,-1,-1,73,-1,-1,-1,-1,-1,-1,-1,-1,-1,-1,-1,-1,-1,-1,-1,-1,-1,-1,-1,-1,-1,-1,-1,-1,-1,-1,-1,-1,-1,-1,-1,-1],"loss_changes":[1.00224875E-1,1.0019901E-2,3.5922378E-3,1.8353183E-3,2.4210438E-2,6.7804977E-3,0E0,2.2436017E-3,3.4098057E-3,4.60635E-3,7.3746406E-4,5.7004504E-3,9.26209E-3,1.253563E-3,4.5438893E-3,5.033542E-4,1.9957917E-3,8.4823096E-4,5.8666244E-4,4.396911E-3,9.749532E-4,1.2634711E-2,0E0,1.817363E-2,0E0,5.788736E-5,1.0559335E-5,2.5577126E-3,3.6242553E-3,1.4625624E-4,6.4437644E-4,4.4820178E-4,3.089375E-4,8.960068E-4,3.35958E-4,4.985215E-4,7.908256E-4,7.6062675E-4,7.0721097E-3,0E0,0E0,0E0,1.12752736E-4,0E0,0E0,0E0,0E0,0E0,0E0,0E0,0E0,0E0,0E0,0E0,0E0,0E0,0E0,0E0,0E0,0E0,0E0,0E0,0E0,0E0,0E0,0E0,0E0,0E0,0E0,0E0,0E0,0E0,0E0,0E0,0E0],"parents":[2147483647,0,0,1,1,2,2,3,3,4,4,5,5,7,7,8,8,9,9,10,10,11,11,12,12,13,13,14,14,15,15,16,16,17,17,18,18,19,19,20,20,21,21,23,23,25,25,26,26,27,27,28,28,29,29,30,30,31,31,32,32,33,33,34,34,35,35,36,36,37,37,38,38,42,42],"right_children":[2,4,6,8,10,12,-1,14,16,18,20,22,24,26,28,30,32,34,36,38,40,42,-1,44,-1,46,48,50,52,54,56,58,60,62,64,66,68,70,72,-1,-1,-1,74,-1,-1,-1,-1,-1,-1,-1,-1,-1,-1,-1,-1,-1,-1,-1,-1,-1,-1,-1,-1,-1,-1,-1,-1,-1,-1,-1,-1,-1,-1,-1,-1],"split_conditions":[1E-1,8.111308E-3,1E-2,6.5793324E-4,1E-2,5.3366994E-6,-3.2121416E-2,1.2328467E-4,1E0,8.1113086E-4,4.3287612E-2,1.519911E-6,1.8738174E-5,2.3101296E-5,1E0,1E-2,3.5111918E-3,1.519911E-6,1.8738175E-2,1E0,1E0,1E0,-3.5806794E-2,1E0,-1.3625207E-2,2.848036E-3,1E0,2.848036E-4,8.1113086E-4,1.5199111E-3,3.5111918E-3,2.3101296E-4,8.1113086E-4,1E0,1E0,2.848036E-3,2.848036E-3,1.8738175E-2,1.8738175E-2,-3.081179E-2,-7.036789E-3,-2.5201468E-2,3.5111917E-8,-1.5735917E-2,2.5063975E-2,8.594309E-4,-3.2085303E-4,3.7571527E-3,2.7830093E-3,5.6079244E-3,-4.3243263E-4,-7.3348446E-4,-8.826037E-3,6.097854E-4,2.0155767E-3,1.2299598E-3,-5.9179906E-3,7.980959E-3,4.1493457E-3,2.7983184E-3,-5.2151084E-4,3.9816226E-4,4.0300507E-3,9.1260823E-4,-1.0316101E-3,-4.2355303E-3,1.3806403E-3,-2.6586163E-3,-9.3236305E-3,4.0305913E-3,-4.244167E-3,-2.8694158E-2,1.1334658E-3,-3.8125457E-3,-6.234169E-4],"split_indices":[0,0,2,0,2,2,0,0,1,2,0,2,2,0,1,2,0,2,0,1,1,1,0,1,0,2,1,0,2,0,0,2,2,1,1,2,2,0,0,0,0,0,2,0,0,0,0,0,0,0,0,0,0,0,0,0,0,0,0,0,0,0,0,0,0,0,0,0,0,0,0,0,0,0,0],"split_type":[0,0,0,0,0,0,0,0,0,0,0,0,0,0,0,0,0,0,0,0,0,0,0,0,0,0,0,0,0,0,0,0,0,0,0,0,0,0,0,0,0,0,0,0,0,0,0,0,0,0,0,0,0,0,0,0,0,0,0,0,0,0,0,0,0,0,0,0,0,0,0,0,0,0,0],"sum_hessian":[2.88E2,2.64E2,2.4E1,1.92E2,7.2E1,2.2E1,2E0,1.2E2,7.2E1,6.6E1,6E0,1E1,1.2E1,7.2E1,4.8E1,3.6E1,3.6E1,5.4E1,1.2E1,4E0,2E0,8E0,2E0,2E0,1E1,2.4E1,4.8E1,2.4E1,2.4E1,3.3E1,3E0,2.4E1,1.2E1,2.4E1,3E1,4E0,8E0,2E0,2E0,1E0,1E0,4E0,4E0,1E0,1E0,2E1,4E0,2.4E1,2.4E1,1.2E1,1.2E1,1.8E1,6E0,1.1E1,2.2E1,2E0,1E0,1.6E1,8E0,9E0,3E0,1.2E1,1.2E1,1.5E1,1.5E1,2E0,2E0,4E0,4E0,1E0,1E0,1E0,1E0,1E0,3E0],"tree_param":{"num_deleted":"0","num_feature":"3","num_nodes":"75","size_leaf_vector":"1"}},{"base_weights":[-2.1724943E-3,2.1634703E-3,-4.804682E-2,5.106773E-3,-5.6477753E-3,-3.9173115E-2,-2.2712104E-2,3.3296382E-3,7.982479E-3,-6.033551E-4,-5.3123258E-2,-5.7610843E-2,-1.7174195E-2,-3.55196E-3,4.7274986E-3,2.8154706E-3,1.2933746E-2,2.4398079E-3,-1.3431863E-2,-3.1477503E-2,-7.149176E-2,-3.8584996E-2,-2.8645432E-2,1.7619668E-2,-2.6863907E-2,4.986272E-3,-1.54903E-2,6.6154962E-3,2.7468053E-3,3.7608235E-3,-5.923897E-3,1.6633801E-2,4.82335E-3,8.268209E-3,6.209931E-4,-4.5678257E-3,-1.68639E-2,-4.034241E-4,-5.205908E-2,-2.6190022E-2,-5.9812726E-3,-1.9153114E-2,-5.609286E-3,-1.337553E-2,2.130438E-2,5.8701993E-3,-5.422523E-2,4.7929288E-4,1.8944443E-3,6.6658616E-4,-9.031349E-3,1.853943E-4,3.139478E-3,1.8128844E-3,-1.452357E-3,4.4208617E-4,1.4371898E-3,2.2496404E-3,-3.869319E-3,6.5420917E-3,3.5193672E-3,2.0427722E-3,-4.0416422E-4,1.4590042E-3,3.14757E-3,6.782616E-4,-7.772517E-4,-3.3884288E-3,1.1045159E-3,-1.9904943E-3,-7.1160113E-3,3.4260035E-3,-3.6075443E-3,-2.4390036E-2,9.6344954E-4,-3.2406629E-3,-4.831508E-4,-1.0752995E-2,2.5908638E-2,-3.2150965E-2,-4.258979E-3],"categories":[],"categories_nodes":[],"categories_segments":[],"categories_sizes":[],"default_left":[0,0,0,0,0,0,0,0,0,0,0,0,0,0,0,0,0,0,0,0,0,0,0,0,0,0,0,0,0,0,0,0,0,0,0,0,0,0,0,0,0,0,0,0,0,0,0,0,0,0,0,0,0,0,0,0,0,0,0,0,0,0,0,0,0,0,0,0,0,0,0,0,0,0,0,0,0,0,0,0,0],"id":7,"left_children":[1,3,5,7,9,11,-1,13,15,17,19,21,23,25,27,29,31,33,35,37,39,41,-1,43,45,47,49,51,53,55,57,59,61,63,65,67,69,71,73,-1,-1,-1,75,-1,-1,77,79,-1,-1,-1,-1,-1,-1,-1,-1,-1,-1,-1,-1,-1,-1,-1,-1,-1,-1,-1,-1,-1,-1,-1,-1,-1,-1,-1,-1,-1,-1,-1,-1,-1,-1],"loss_changes":[5.758878E-2,6.12142E-3,3.1705275E-3,9.597512E-4,1.7450446E-2,7.528387E-3,0E0,1.1807529E-3,1.8311618E-3,2.6484004E-3,5.328208E-4,4.2421445E-3,4.1819E-3,2.2178176E-3,3.5952264E-4,3.2796487E-4,1.0300991E-3,5.7790865E-4,3.1845062E-4,3.1767655E-3,7.044021E-4,7.138199E-3,0E0,1.3130451E-2,8.379149E-3,4.843634E-5,2.3965437E-3,1.1709703E-3,1.3048217E-3,7.302346E-5,4.7114812E-4,3.7822453E-4,1.684764E-4,4.7401758E-5,2.3233923E-4,3.1905502E-4,4.7379592E-4,5.495534E-4,5.1096026E-3,0E0,0E0,0E0,8.642989E-5,0E0,0E0,1.9883508E-2,9.075063E-3,0E0,0E0,0E0,0E0,0E0,0E0,0E0,0E0,0E0,0E0,0E0,0E0,0E0,0E0,0E0,0E0,0E0,0E0,0E0,0E0,0E0,0E0,0E0,0E0,0E0,0E0,0E0,0E0,0E0,0E0,0E0,0E0,0E0,0E0],"parents":[2147483647,0,0,1,1,2,2,3,3,4,4,5,5,7,7,8,8,9,9,10,10,11,11,12,12,13,13,14,14,15,15,16,16,17,17,18,18,19,19,20,20,21,21,23,23,24,24,25,25,26,26,27,27,28,28,29,29,30,30,31,31,32,32,33,33,34,34,35,35,36,36,37,37,38,38,42,42,45,45,46,46],"right_children":[2,4,6,8,10,12,-1,14,16,18,20,22,24,26,28,30,32,34,36,38,40,42,-1,44,46,48,50,52,54,56,58,60,62,64,66,68,70,72,74,-1,-1,-1,76,-1,-1,78,80,-1,-1,-1,-1,-1,-1,-1,-1,-1,-1,-1,-1,-1,-1,-1,-1,-1,-1,-1,-1,-1,-1,-1,-1,-1,-1,-1,-1,-1,-1,-1,-1,-1,-1],"split_conditions":[1E-1,8.111308E-3,2.848036E-3,6.5793324E-4,1E-2,5.3366994E-6,-2.2712104E-2,1.2328468E-7,1E0,8.1113086E-4,4.3287612E-2,1.519911E-6,1.8738174E-5,1.2328467E-4,1E0,1E-2,3.5111918E-3,1.2328468E-7,1.8738175E-2,1E0,1E0,1E0,-2.8645432E-2,1E0,1E0,2.3101296E-5,1E0,5.336699E-5,8.1113086E-4,1.5199111E-3,1.5199111E-3,5.3366994E-6,8.1113086E-4,3.5111917E-8,4.3287612E-2,2.848036E-3,1E0,1.8738175E-2,1.8738175E-2,-2.6190022E-2,-5.9812726E-3,-1.9153114E-2,3.5111917E-8,-1.337553E-2,2.130438E-2,8.1113086E-4,6.579332E-5,4.7929288E-4,1.8944443E-3,6.6658616E-4,-9.031349E-3,1.853943E-4,3.139478E-3,1.8128844E-3,-1.452357E-3,4.4208617E-4,1.4371898E-3,2.2496404E-3,-3.869319E-3,6.5420917E-3,3.5193672E-3,2.0427722E-3,-4.0416422E-4,1.4590042E-3,3.14757E-3,6.782616E-4,-7.772517E-4,-3.3884288E-3,1.1045159E-3,-1.9904943E-3,-7.1160113E-3,3.4260035E-3,-3.6075443E-3,-2.4390036E-2,9.6344954E-4,-3.2406629E-3,-4.831508E-4,-1.0752995E-2,2.5908638E-2,-3.2150965E-2,-4.258979E-3],"split_indices":[0,0,2,0,2,2,0,2,1,2,0,2,2,0,1,2,0,2,0,1,1,1,0,1,1,0,1,0,2,0,0,2,2,2,0,2,1,0,0,0,0,0,2,0,0,2,2,0,0,0,0,0,0,0,0,0,0,0,0,0,0,0,0,0,0,0,0,0,0,0,0,0,0,0,0,0,0,0,0,0,0],"split_type":[0,0,0,0,0,0,0,0,0,0,0,0,0,0,0,0,0,0,0,0,0,0,0,0,0,0,0,0,0,0,0,0,0,0,0,0,0,0,0,0,0,0,0,0,0,0,0,0,0,0,0,0,0,0,0,0,0,0,0,0,0,0,0,0,0,0,0,0,0,0,0,0,0,0,0,0,0,0,0,0,0],"sum_hessian":[2.88E2,2.64E2,2.4E1,1.92E2,7.2E1,2E1,4E0,1.2E2,7.2E1,6.6E1,6E0,1E1,1E1,2E1,1E2,3.6E1,3.6E1,5.4E1,1.2E1,4E0,2E0,8E0,2E0,2E0,8E0,1.2E1,8E0,5E1,5E1,3.3E1,3E0,2.4E1,1.2E1,1.2E1,4.2E1,4E0,8E0,2E0,2E0,1E0,1E0,4E0,4E0,1E0,1E0,4E0,4E0,4E0,8E0,4E0,4E0,2E1,3E1,3.5E1,1.5E1,1.1E1,2.2E1,1E0,2E0,1E1,1.4E1,9E0,3E0,6E0,6E0,2.8E1,1.4E1,2E0,2E0,4E0,4E0,1E0,1E0,1E0,1E0,1E0,3E0,3E0,1E0,1E0,3E0],"tree_param":{"num_deleted":"0","num_feature":"3","num_nodes":"81","size_leaf_vector":"1"}},{"base_weights":[-2.0071354E-3,1.3144037E-3,-3.7135165E-2,3.6247666E-3,-4.8118215E-3,-3.1166611E-2,-2.1154711E-2,2.3116972E-3,5.7515698E-3,-5.2506843E-4,-4.515477E-2,-4.5011442E-2,-1.7054323E-2,4.7915373E-3,-1.4299362E-3,1.9778449E-3,9.369847E-3,1.7898332E-3,-1.0278493E-2,-2.6755873E-2,-6.0768005E-2,-2.9551378E-2,-7.638782E-2,1.9895318E-3,-3.3661846E-2,1.0721374E-3,6.591404E-3,3.8683796E-3,-6.6710543E-3,2.6878505E-3,-4.551664E-3,1.2046128E-2,3.5023964E-3,6.142112E-3,4.3240396E-4,-3.6542774E-3,-1.2816559E-2,-3.4290552E-4,-4.4250216E-2,-2.2261519E-2,-5.0840825E-3,-1.4556364E-2,-4.6712635E-3,-6.083084E-3,-2.8291436E-2,-1.3805522E-2,1.7287202E-2,-5.5363137E-2,-1.3908701E-2,-5.9042988E-5,6.775838E-4,1.5854602E-3,2.9408936E-3,-2.9013222E-4,4.932194E-3,-4.8259324E-3,9.772471E-4,3.0152165E-4,1.1890384E-3,1.145935E-3,-4.449901E-3,4.7578863E-3,2.5339471E-3,1.4912242E-3,-3.1322392E-4,1.0838321E-3,2.3382017E-3,4.8180553E-4,-5.596233E-4,-2.7107478E-3,8.836091E-4,-9.27769E-4,-5.993173E-3,2.9121013E-3,-3.0664087E-3,-2.073153E-2,8.189321E-4,-2.7545663E-3,-3.7444086E-4,7.6464727E-3,-1.9753022E-2,-6.1463984E-3,1.959192E-2,-1.9753022E-2,-5.1603913E-3,3.0735738E-3,-1.0027925E-2],"categories":[],"categories_nodes":[],"categories_segments":[],"categories_sizes":[],"default_left":[0,0,0,0,0,0,0,0,0,0,0,0,0,0,0,0,0,0,0,0,0,0,0,0,0,0,0,0,0,0,0,0,0,0,0,0,0,0,0,0,0,0,0,0,0,0,0,0,0,0,0,0,0,0,0,0,0,0,0,0,0,0,0,0,0,0,0,0,0,0,0,0,0,0,0,0,0,0,0,0,0,0,0,0,0,0,0],"id":8,"left_children":[1,3,5,7,9,11,-1,13,15,17,19,21,23,25,27,29,31,33,35,37,39,41,43,45,47,49,51,53,55,57,59,61,63,65,67,69,71,73,75,-1,-1,-1,77,-1,-1,79,81,83,85,-1,-1,-1,-1,-1,-1,-1,-1,-1,-1,-1,-1,-1,-1,-1,-1,-1,-1,-1,-1,-1,-1,-1,-1,-1,-1,-1,-1,-1,-1,-1,-1,-1,-1,-1,-1,-1,-1],"loss_changes":[3.376908E-2,3.7681994E-3,2.7831048E-3,5.2568386E-4,1.2600928E-2,3.7261508E-3,0E0,1.1295686E-3,9.78238E-4,1.5311374E-3,3.8496405E-4,3.078524E-3,4.1784975E-3,4.8162602E-4,1.3864922E-3,1.8376575E-4,5.388183E-4,3.2227923E-4,1.7172971E-4,2.2952138E-3,5.0893053E-4,4.0210905E-3,1.1037961E-3,1.9300516E-3,2.2306526E-3,3.8083883E-5,1.5379861E-4,1.5357258E-3,2.3894284E-3,6.89998E-5,4.0093763E-4,2.0922162E-4,9.197557E-5,2.6158581E-5,1.1895607E-4,2.0419522E-4,5.6489324E-4,3.970516E-4,3.6916872E-3,0E0,0E0,0E0,6.5741944E-5,0E0,0E0,9.857289E-3,8.593734E-3,6.7245215E-5,2.699611E-3,0E0,0E0,0E0,0E0,0E0,0E0,0E0,0E0,0E0,0E0,0E0,0E0,0E0,0E0,0E0,0E0,0E0,0E0,0E0,0E0,0E0,0E0,0E0,0E0,0E0,0E0,0E0,0E0,0E0,0E0,0E0,0E0,0E0,0E0,0E0,0E0,0E0,0E0],"parents":[2147483647,0,0,1,1,2,2,3,3,4,4,5,5,7,7,8,8,9,9,10,10,11,11,12,12,13,13,14,14,15,15,16,16,17,17,18,18,19,19,20,20,21,21,22,22,23,23,24,24,25,25,26,26,27,27,28,28,29,29,30,30,31,31,32,32,33,33,34,34,35,35,36,36,37,37,38,38,42,42,45,45,46,46,47,47,48,48],"right_children":[2,4,6,8,10,12,-1,14,16,18,20,22,24,26,28,30,32,34,36,38,40,42,44,46,48,50,52,54,56,58,60,62,64,66,68,70,72,74,76,-1,-1,-1,78,-1,-1,80,82,84,86,-1,-1,-1,-1,-1,-1,-1,-1,-1,-1,-1,-1,-1,-1,-1,-1,-1,-1,-1,-1,-1,-1,-1,-1,-1,-1,-1,-1,-1,-1,-1,-1,-1,-1,-1,-1,-1,-1],"split_conditions":[1E-1,8.111308E-3,1E-2,6.5793324E-4,1E-2,5.3366994E-6,-2.1154711E-2,1.2328467E-4,1E0,8.1113086E-4,4.3287612E-2,1.519911E-6,2.3101296E-4,2.3101296E-5,1E0,1E-2,3.5111918E-3,1.2328468E-7,1.8738175E-2,1E0,1E0,1E0,1E0,1E0,8.1113086E-4,1E0,8.1113086E-4,8.1113086E-4,2.848036E-4,5.3366994E-6,3.5111918E-3,5.3366994E-6,8.1113086E-4,3.5111917E-8,4.3287612E-2,2.848036E-3,2.848036E-3,1.8738175E-2,1.8738175E-2,-2.2261519E-2,-5.0840825E-3,-1.4556364E-2,3.5111917E-8,-6.083084E-3,-2.8291436E-2,6.579332E-5,6.579332E-5,1E0,1E0,-5.9042988E-5,6.775838E-4,1.5854602E-3,2.9408936E-3,-2.9013222E-4,4.932194E-3,-4.8259324E-3,9.772471E-4,3.0152165E-4,1.1890384E-3,1.145935E-3,-4.449901E-3,4.7578863E-3,2.5339471E-3,1.4912242E-3,-3.1322392E-4,1.0838321E-3,2.3382017E-3,4.8180553E-4,-5.596233E-4,-2.7107478E-3,8.836091E-4,-9.27769E-4,-5.993173E-3,2.9121013E-3,-3.0664087E-3,-2.073153E-2,8.189321E-4,-2.7545663E-3,-3.7444086E-4,7.6464727E-3,-1.9753022E-2,-6.1463984E-3,1.959192E-2,-1.9753022E-2,-5.1603913E-3,3.0735738E-3,-1.0027925E-2],"split_indices":[0,0,2,0,2,2,0,0,1,2,0,2,2,0,1,2,0,2,0,1,1,1,1,1,2,1,2,2,0,2,0,2,2,2,0,2,2,0,0,0,0,0,2,0,0,2,2,1,1,0,0,0,0,0,0,0,0,0,0,0,0,0,0,0,0,0,0,0,0,0,0,0,0,0,0,0,0,0,0,0,0,0,0,0,0,0,0],"split_type":[0,0,0,0,0,0,0,0,0,0,0,0,0,0,0,0,0,0,0,0,0,0,0,0,0,0,0,0,0,0,0,0,0,0,0,0,0,0,0,0,0,0,0,0,0,0,0,0,0,0,0,0,0,0,0,0,0,0,0,0,0,0,0,0,0,0,0,0,0,0,0,0,0,0,0,0,0,0,0,0,0,0,0,0,0,0,0],"sum_hessian":[2.88E2,2.64E2,2.4E1,1.92E2,7.2E1,2.2E1,2E0,1.2E2,7.2E1,6.6E1,6E0,1E1,1.2E1,7.2E1,4.8E1,3.6E1,3.6E1,5.4E1,1.2E1,4E0,2E0,8E0,2E0,6E0,6E0,2.4E1,4.8E1,2.4E1,2.4E1,3.3E1,3E0,2.4E1,1.2E1,1.2E1,4.2E1,4E0,8E0,2E0,2E0,1E0,1E0,4E0,4E0,1E0,1E0,3E0,3E0,2E0,4E0,1.2E1,1.2E1,3.6E1,1.2E1,1.8E1,6E0,1.2E1,1.2E1,1.5E1,1.8E1,2E0,1E0,1E1,1.4E1,9E0,3E0,6E0,6E0,2.8E1,1.4E1,2E0,2E0,4E0,4E0,1E0,1E0,1E0,1E0,1E0,3E0,2E0,1E0,2E0,1E0,1E0,1E0,2E0,2E0],"tree_param":{"num_deleted":"0","num_feature":"3","num_nodes":"87","size_leaf_vector":"1"}},{"base_weights":[-1.9031445E-3,7.6830207E-4,-3.0144352E-2,1.7628688E-3,-9.772916E-3,-2.5407441E-2,-1.6923767E-2,2.857689E-3,-1.1557292E-3,2.5819857E-3,-3.8381547E-2,-3.6240727E-2,-1.4286397E-2,2.1429688E-3,7.5500347E-3,4.17288E-3,-3.1983384E-3,8.804779E-3,-3.9276946E-3,-2.2742484E-2,-5.1652804E-2,-2.2651007E-2,-6.492965E-2,1.583953E-3,-2.8115833E-2,2.8346083E-3,-9.5983E-4,3.3835878E-3,1.0494718E-2,7.279941E-4,1.7120487E-3,1.9640088E-4,-6.465144E-3,2.6239952E-4,3.3623918E-3,-1.1796534E-2,5.7646207E-6,-2.914667E-4,-3.7612673E-2,-1.892229E-2,-4.3214727E-3,-1.1062837E-2,-3.895688E-3,-5.170621E-3,-2.4047721E-2,-1.2690503E-2,1.5462421E-2,-4.7058668E-2,-1.1126963E-2,-2.2926205E-4,1.0307757E-3,-7.908118E-4,2.2839548E-3,2.2028388E-4,1.6406894E-3,5.0210953E-3,1.758214E-3,-3.1361284E-4,6.958097E-4,1.1275992E-3,-5.8335434E-3,-7.806869E-3,-7.845958E-4,-1.7695427E-4,2.9503406E-4,2.7316064E-3,-8.040047E-3,1.8546904E-3,-3.0871155E-3,2.4752857E-3,-2.6064457E-3,-1.7621798E-2,6.9609587E-4,-2.3413808E-3,-2.9019266E-4,6.117178E-3,-1.679007E-2,1.9030685E-2,-6.5021547E-3,-1.679007E-2,-4.386333E-3,2.4588592E-3,-8.022342E-3],"categories":[],"categories_nodes":[],"categories_segments":[],"categories_sizes":[],"default_left":[0,0,0,0,0,0,0,0,0,0,0,0,0,0,0,0,0,0,0,0,0,0,0,0,0,0,0,0,0,0,0,0,0,0,0,0,0,0,0,0,0,0,0,0,0,0,0,0,0,0,0,0,0,0,0,0,0,0,0,0,0,0,0,0,0,0,0,0,0,0,0,0,0,0,0,0,0,0,0,0,0,0,0],"id":9,"left_children":[1,3,5,7,9,11,-1,13,15,17,19,21,23,25,27,29,31,33,35,37,39,41,43,45,47,49,51,53,55,57,-1,59,61,63,-1,65,67,69,71,-1,-1,-1,73,-1,-1,75,77,79,81,-1,-1,-1,-1,-1,-1,-1,-1,-1,-1,-1,-1,-1,-1,-1,-1,-1,-1,-1,-1,-1,-1,-1,-1,-1,-1,-1,-1,-1,-1,-1,-1,-1,-1],"loss_changes":[2.182673E-2,2.795474E-3,1.6774535E-3,7.797703E-4,8.228607E-3,2.2532325E-3,0E0,5.77428E-4,7.425922E-4,7.2322506E-4,2.7813856E-4,2.8178962E-3,2.8977485E-3,3.3535354E-4,2.4667417E-4,9.624672E-5,5.446775E-4,1.8182001E-4,2.7863384E-4,1.6582911E-3,3.6770012E-4,2.2575115E-3,7.974934E-4,1.582979E-3,1.729101E-3,2.7745462E-4,4.3680333E-4,5.675711E-5,2.7795637E-4,2.2179247E-5,0E0,1.8222962E-3,1.8142901E-3,2.4236151E-6,0E0,1.1848371E-3,5.0878E-4,2.868695E-4,2.667246E-3,0E0,0E0,0E0,4.968445E-5,0E0,0E0,6.86772E-3,8.501075E-3,4.8585236E-5,1.7277517E-3,0E0,0E0,0E0,0E0,0E0,0E0,0E0,0E0,0E0,0E0,0E0,0E0,0E0,0E0,0E0,0E0,0E0,0E0,0E0,0E0,0E0,0E0,0E0,0E0,0E0,0E0,0E0,0E0,0E0,0E0,0E0,0E0,0E0,0E0],"parents":[2147483647,0,0,1,1,2,2,3,3,4,4,5,5,7,7,8,8,9,9,10,10,11,11,12,12,13,13,14,14,15,15,16,16,17,17,18,18,19,19,20,20,21,21,22,22,23,23,24,24,25,25,26,26,27,27,28,28,29,29,31,31,32,32,33,33,35,35,36,36,37,37,38,38,42,42,45,45,46,46,47,47,48,48],"right_children":[2,4,6,8,10,12,-1,14,16,18,20,22,24,26,28,30,32,34,36,38,40,42,44,46,48,50,52,54,56,58,-1,60,62,64,-1,66,68,70,72,-1,-1,-1,74,-1,-1,76,78,80,82,-1,-1,-1,-1,-1,-1,-1,-1,-1,-1,-1,-1,-1,-1,-1,-1,-1,-1,-1,-1,-1,-1,-1,-1,-1,-1,-1,-1,-1,-1,-1,-1,-1,-1],"split_conditions":[1E-1,1E-2,1E-2,2.3101296E-4,8.111308E-3,5.3366994E-6,-1.6923767E-2,6.579332E-5,1.2328467E-4,2.848036E-4,4.3287612E-2,1.519911E-6,2.3101296E-4,1.8738175E-2,6.5793324E-4,2.3101296E-5,1E0,2.3101296E-5,6.5793324E-4,1E0,1E0,1E0,1E0,1E0,8.1113086E-4,3.5111917E-8,1.8738174E-5,1E0,3.5111918E-3,1E0,1.7120487E-3,4.3287612E-2,2.848036E-4,1E0,3.3623918E-3,1E0,3.5111918E-3,1.8738175E-2,1.8738175E-2,-1.892229E-2,-4.3214727E-3,-1.1062837E-2,3.5111917E-8,-5.170621E-3,-2.4047721E-2,6.579332E-5,1.8738174E-5,1E0,1E0,-2.2926205E-4,1.0307757E-3,-7.908118E-4,2.2839548E-3,2.2028388E-4,1.6406894E-3,5.0210953E-3,1.758214E-3,-3.1361284E-4,6.958097E-4,1.1275992E-3,-5.8335434E-3,-7.806869E-3,-7.845958E-4,-1.7695427E-4,2.9503406E-4,2.7316064E-3,-8.040047E-3,1.8546904E-3,-3.0871155E-3,2.4752857E-3,-2.6064457E-3,-1.7621798E-2,6.9609587E-4,-2.3413808E-3,-2.9019266E-4,6.117178E-3,-1.679007E-2,1.9030685E-2,-6.5021547E-3,-1.679007E-2,-4.386333E-3,2.4588592E-3,-8.022342E-3],"split_indices":[0,2,2,2,0,2,0,2,0,0,0,2,2,0,0,0,1,0,0,1,1,1,1,1,2,2,2,1,0,1,0,0,0,1,0,1,0,0,0,0,0,0,2,0,0,2,2,1,1,0,0,0,0,0,0,0,0,0,0,0,0,0,0,0,0,0,0,0,0,0,0,0,0,0,0,0,0,0,0,0,0,0,0],"split_type":[0,0,0,0,0,0,0,0,0,0,0,0,0,0,0,0,0,0,0,0,0,0,0,0,0,0,0,0,0,0,0,0,0,0,0,0,0,0,0,0,0,0,0,0,0,0,0,0,0,0,0,0,0,0,0,0,0,0,0,0,0,0,0,0,0,0,0,0,0,0,0,0,0,0,0,0,0,0,0,0,0,0,0],"sum_hessian":[2.88E2,2.64E2,2.4E1,2.42E2,2.2E1,2.2E1,2E0,1.76E2,6.6E1,1.6E1,6E0,1E1,1.2E1,1.54E2,2.2E1,1.8E1,4.8E1,8E0,8E0,4E0,2E0,8E0,2E0,6E0,6E0,1.26E2,2.8E1,1E1,1.2E1,6E0,1.2E1,2.4E1,2.4E1,2E0,6E0,2E0,6E0,2E0,2E0,1E0,1E0,4E0,4E0,1E0,1E0,3E0,3E0,2E0,4E0,1.8E1,1.08E2,2.4E1,4E0,5E0,5E0,4E0,8E0,3E0,3E0,2.1E1,3E0,3E0,2.1E1,1E0,1E0,1E0,1E0,4E0,2E0,1E0,1E0,1E0,1E0,1E0,3E0,2E0,1E0,1E0,2E0,1E0,1E0,2E0,2E0],"tree_param":{"num_deleted":"0","num_feature":"3","num_nodes":"83","size_leaf_vector":"1"}},{"base_weights":[-1.7763287E-3,3.7316186E-4,-2.4489874E-2,1.2328936E-3,-8.726315E-3,-1.967786E-2,-3.9802358E-2,2.0621463E-3,-9.762204E-4,1.6273506E-3,-3.262431E-2,-2.9269662E-2,-8.297164E-3,-5.033915E-2,-1.5998112E-2,1.5148651E-3,5.6606866E-3,7.874479E-4,-5.473248E-3,6.550047E-3,-3.4761627E-3,-1.9331113E-2,-4.3904874E-2,-1.73773E-2,-5.5190194E-2,1.3738573E-3,-2.017716E-2,-1.8241843E-2,-4.4107744E-3,8.698592E-3,-1.5897743E-2,2.1713849E-3,-1.382139E-4,2.5376894E-3,7.867785E-3,3.0312568E-3,-6.1319146E-4,-5.866319E-4,-9.812539E-3,3.1861237E-3,3.664756E-3,-1.0027051E-2,-1.7204454E-4,-2.4773678E-4,-3.1970784E-2,-1.6083945E-2,-3.6732496E-3,-8.407759E-3,-3.2532811E-3,-4.3950267E-3,-2.0440562E-2,-1.1551574E-2,1.3955824E-2,1.5379809E-2,-4.900841E-2,8.4420026E-4,-1.177919E-3,7.570267E-4,-9.900741E-4,1.6520919E-4,1.23052E-3,3.8160325E-3,1.2893558E-3,1.6926017E-4,1.2379496E-3,-1.8643882E-3,2.9392148E-4,2.3320096E-3,-4.520991E-3,-3.1324627E-4,-6.8112244E-3,6.691218E-5,1.2980247E-3,2.3218633E-3,-6.834036E-3,1.4095581E-3,-2.4696947E-3,2.1039965E-3,-2.2154779E-3,-1.4978531E-2,5.9167744E-4,-1.9901723E-3,-2.2489429E-4,4.8937434E-3,-1.427156E-2,-6.1699725E-3,1.7628454E-2,-1.427156E-2,2.1192474E-2,-3.7283825E-3,-1.8325403E-2],"categories":[],"categories_nodes":[],"categories_segments":[],"categories_sizes":[],"default_left":[0,0,0,0,0,0,0,0,0,0,0,0,0,0,0,0,0,0,0,0,0,0,0,0,0,0,0,0,0,0,0,0,0,0,0,0,0,0,0,0,0,0,0,0,0,0,0,0,0,0,0,0,0,0,0,0,0,0,0,0,0,0,0,0,0,0,0,0,0,0,0,0,0,0,0,0,0,0,0,0,0,0,0,0,0,0,0,0,0,0,0],"id":10,"left_children":[1,3,5,7,9,11,13,15,17,19,21,23,25,27,29,31,33,35,37,39,41,43,45,47,49,51,53,-1,-1,-1,-1,55,57,59,61,63,65,67,69,71,-1,73,75,77,79,-1,-1,-1,81,-1,-1,83,85,87,89,-1,-1,-1,-1,-1,-1,-1,-1,-1,-1,-1,-1,-1,-1,-1,-1,-1,-1,-1,-1,-1,-1,-1,-1,-1,-1,-1,-1,-1,-1,-1,-1,-1,-1,-1,-1],"loss_changes":[1.4118856E-2,2.0838822E-3,1.0588737E-3,4.4716816E-4,5.744024E-3,2.0495337E-3,4.487699E-4,3.400111E-4,5.357047E-4,4.4986082E-4,2.0095333E-4,2.4317624E-3,1.2915293E-3,2.2501592E-4,6.5300413E-3,1.6851834E-4,1.3856759E-4,1.5585433E-4,3.9712823E-4,1.326128E-4,1.9307909E-4,1.1981179E-3,2.656649E-4,1.262428E-3,5.761897E-4,1.2996031E-3,5.879499E-3,0E0,0E0,0E0,0E0,4.460059E-4,3.8705606E-4,3.1926364E-5,1.705229E-4,4.901024E-5,2.826922E-4,1.327951E-3,1.1066733E-3,2.269334E-5,0E0,8.5604354E-4,3.1348664E-4,2.0726348E-4,1.9270836E-3,0E0,0E0,0E0,3.7346148E-5,0E0,0E0,4.7906996E-3,7.3957215E-3,1.3797014E-2,5.661091E-4,0E0,0E0,0E0,0E0,0E0,0E0,0E0,0E0,0E0,0E0,0E0,0E0,0E0,0E0,0E0,0E0,0E0,0E0,0E0,0E0,0E0,0E0,0E0,0E0,0E0,0E0,0E0,0E0,0E0,0E0,0E0,0E0,0E0,0E0,0E0,0E0],"parents":[2147483647,0,0,1,1,2,2,3,3,4,4,5,5,6,6,7,7,8,8,9,9,10,10,11,11,12,12,13,13,14,14,15,15,16,16,17,17,18,18,19,19,20,20,21,21,22,22,23,23,24,24,25,25,26,26,31,31,32,32,33,33,34,34,35,35,36,36,37,37,38,38,39,39,41,41,42,42,43,43,44,44,48,48,51,51,52,52,53,53,54,54],"right_children":[2,4,6,8,10,12,14,16,18,20,22,24,26,28,30,32,34,36,38,40,42,44,46,48,50,52,54,-1,-1,-1,-1,56,58,60,62,64,66,68,70,72,-1,74,76,78,80,-1,-1,-1,82,-1,-1,84,86,88,90,-1,-1,-1,-1,-1,-1,-1,-1,-1,-1,-1,-1,-1,-1,-1,-1,-1,-1,-1,-1,-1,-1,-1,-1,-1,-1,-1,-1,-1,-1,-1,-1,-1,-1,-1,-1],"split_conditions":[1E-1,1E-2,2.848036E-3,2.3101296E-4,8.111308E-3,5.3366994E-6,1E0,6.579332E-5,8.111308E-3,2.848036E-4,4.3287612E-2,1.519911E-6,2.3101296E-4,1E-2,1E-2,5.3366994E-6,6.5793324E-4,1.2328467E-4,1E0,1.2328467E-4,6.5793324E-4,1E0,1E0,1E0,1E0,1E0,1E0,-1.8241843E-2,-4.4107744E-3,8.698592E-3,-1.5897743E-2,4.3287612E-2,1.5199111E-3,1E0,3.5111918E-3,2.3101296E-5,2.848036E-4,4.3287612E-2,2.848036E-3,2.3101296E-5,3.664756E-3,1E0,3.5111918E-3,1.8738175E-2,1.8738175E-2,-1.6083945E-2,-3.6732496E-3,-8.407759E-3,3.5111917E-8,-4.3950267E-3,-2.0440562E-2,6.579332E-5,6.579332E-5,8.1113086E-4,8.1113086E-4,8.4420026E-4,-1.177919E-3,7.570267E-4,-9.900741E-4,1.6520919E-4,1.23052E-3,3.8160325E-3,1.2893558E-3,1.6926017E-4,1.2379496E-3,-1.8643882E-3,2.9392148E-4,2.3320096E-3,-4.520991E-3,-3.1324627E-4,-6.8112244E-3,6.691218E-5,1.2980247E-3,2.3218633E-3,-6.834036E-3,1.4095581E-3,-2.4696947E-3,2.1039965E-3,-2.2154779E-3,-1.4978531E-2,5.9167744E-4,-1.9901723E-3,-2.2489429E-4,4.8937434E-3,-1.427156E-2,-6.1699725E-3,1.7628454E-2,-1.427156E-2,2.1192474E-2,-3.7283825E-3,-1.8325403E-2],"split_indices":[0,2,2,2,0,2,1,2,0,0,0,2,2,2,2,2,0,0,1,0,0,1,1,1,1,1,1,0,0,0,0,0,0,1,0,0,0,0,2,0,0,1,0,0,0,0,0,0,2,0,0,2,2,2,2,0,0,0,0,0,0,0,0,0,0,0,0,0,0,0,0,0,0,0,0,0,0,0,0,0,0,0,0,0,0,0,0,0,0,0,0],"split_type":[0,0,0,0,0,0,0,0,0,0,0,0,0,0,0,0,0,0,0,0,0,0,0,0,0,0,0,0,0,0,0,0,0,0,0,0,0,0,0,0,0,0,0,0,0,0,0,0,0,0,0,0,0,0,0,0,0,0,0,0,0,0,0,0,0,0,0,0,0,0,0,0,0,0,0,0,0,0,0,0,0,0,0,0,0,0,0,0,0,0,0],"sum_hessian":[2.88E2,2.64E2,2.4E1,2.42E2,2.2E1,2E1,4E0,1.76E2,6.6E1,1.6E1,6E0,1E1,1E1,2E0,2E0,1.54E2,2.2E1,4.8E1,1.8E1,8E0,8E0,4E0,2E0,8E0,2E0,6E0,4E0,1E0,1E0,1E0,1E0,1.1E2,4.4E1,1E1,1.2E1,1.8E1,3E1,9E0,9E0,6E0,2E0,2E0,6E0,2E0,2E0,1E0,1E0,4E0,4E0,1E0,1E0,3E0,3E0,2E0,2E0,1E2,1E1,2.4E1,2E1,5E0,5E0,4E0,8E0,6E0,1.2E1,6E0,2.4E1,6E0,3E0,6E0,3E0,2E0,4E0,1E0,1E0,4E0,2E0,1E0,1E0,1E0,1E0,1E0,3E0,2E0,1E0,2E0,1E0,1E0,1E0,1E0,1E0],"tree_param":{"num_deleted":"0","num_feature":"3","num_nodes":"91","size_leaf_vector":"1"}},{"base_weights":[-1.6472389E-3,1.16540185E-4,-2.0277407E-2,8.484556E-4,-7.6213717E-3,-1.6084531E-2,-3.3832002E-2,1.4770398E-3,-8.2479615E-4,1.1072404E-3,-2.7730662E-2,-2.3712255E-2,-6.994577E-3,-4.278828E-2,-1.359839E-2,1.3283594E-4,2.584292E-3,5.4788834E-4,-4.321467E-3,5.143894E-3,-3.05244E-3,-1.6431442E-2,-3.7319142E-2,-1.3344424E-2,-4.6911668E-2,1.2589395E-3,-1.7150585E-2,-1.5505568E-2,-3.7491585E-3,7.3938044E-3,-1.351308E-2,-4.1984264E-3,1.6217486E-3,5.1786704E-4,4.5979763E-3,2.1959513E-3,-4.7988852E-4,-6.295472E-4,-7.58124E-3,2.425279E-3,2.9318098E-3,-8.522987E-3,-2.7185678E-4,-2.1056335E-4,-2.7175173E-2,-1.3671354E-2,-3.1222613E-3,-6.389897E-3,-2.7203083E-3,-3.735773E-3,-1.7374478E-2,-1.04305595E-2,1.2633704E-2,1.3072841E-2,-4.165715E-2,4.35881E-4,-3.5685042E-3,1.6655333E-3,2.2268893E-4,6.339799E-4,-7.828643E-4,4.186404E-3,7.2957616E-4,9.4909075E-4,2.5534631E-5,-1.3849778E-3,2.0927524E-4,1.7323443E-3,-3.5037631E-3,-4.20592E-3,1.6744294E-3,5.385876E-5,1.2194128E-3,1.9735873E-3,-5.808932E-3,1.0712708E-3,-1.975751E-3,1.7883987E-3,-1.8831522E-3,-1.2731751E-2,5.0292315E-4,-1.6916425E-3,-1.7429442E-4,-1.416781E-2,5.272982E-3,1.7101578E-2,-6.34757E-3,-1.2130826E-2,1.8013604E-2,-3.169124E-3,-1.55765945E-2],"categories":[],"categories_nodes":[],"categories_segments":[],"categories_sizes":[],"default_left":[0,0,0,0,0,0,0,0,0,0,0,0,0,0,0,0,0,0,0,0,0,0,0,0,0,0,0,0,0,0,0,0,0,0,0,0,0,0,0,0,0,0,0,0,0,0,0,0,0,0,0,0,0,0,0,0,0,0,0,0,0,0,0,0,0,0,0,0,0,0,0,0,0,0,0,0,0,0,0,0,0,0,0,0,0,0,0,0,0,0,0],"id":11,"left_children":[1,3,5,7,9,11,13,15,17,19,21,23,25,27,29,31,33,35,37,39,41,43,45,47,49,51,53,-1,-1,-1,-1,55,57,59,61,63,65,67,69,71,-1,73,75,77,79,-1,-1,-1,81,-1,-1,83,85,87,89,-1,-1,-1,-1,-1,-1,-1,-1,-1,-1,-1,-1,-1,-1,-1,-1,-1,-1,-1,-1,-1,-1,-1,-1,-1,-1,-1,-1,-1,-1,-1,-1,-1,-1,-1,-1],"loss_changes":[9.498759E-3,1.5072931E-3,8.766446E-4,2.5680067E-4,4.067807E-3,1.2901919E-3,3.242381E-4,2.630987E-4,3.2395602E-4,3.0115162E-4,1.4518946E-4,2.0197951E-3,9.436421E-4,1.62574E-4,4.717955E-3,5.2916736E-4,4.0124828E-4,8.405201E-5,2.2388884E-4,8.955391E-5,1.3458478E-4,8.656415E-4,1.9194232E-4,7.0271373E-4,4.1629653E-4,1.0625337E-3,4.247939E-3,0E0,0E0,0E0,0E0,9.307031E-4,2.0671154E-4,2.4999894E-4,9.591533E-4,3.8540573E-5,1.54217E-4,7.7506487E-4,9.2572765E-4,2.5042511E-5,0E0,6.184923E-4,1.933591E-4,1.497477E-4,1.3923172E-3,0E0,0E0,0E0,2.7942082E-5,0E0,0E0,4.952221E-3,7.203812E-3,9.968343E-3,4.0901452E-4,0E0,0E0,0E0,0E0,0E0,0E0,0E0,0E0,0E0,0E0,0E0,0E0,0E0,0E0,0E0,0E0,0E0,0E0,0E0,0E0,0E0,0E0,0E0,0E0,0E0,0E0,0E0,0E0,0E0,0E0,0E0,0E0,0E0,0E0,0E0,0E0],"parents":[2147483647,0,0,1,1,2,2,3,3,4,4,5,5,6,6,7,7,8,8,9,9,10,10,11,11,12,12,13,13,14,14,15,15,16,16,17,17,18,18,19,19,20,20,21,21,22,22,23,23,24,24,25,25,26,26,31,31,32,32,33,33,34,34,35,35,36,36,37,37,38,38,39,39,41,41,42,42,43,43,44,44,48,48,51,51,52,52,53,53,54,54],"right_children":[2,4,6,8,10,12,14,16,18,20,22,24,26,28,30,32,34,36,38,40,42,44,46,48,50,52,54,-1,-1,-1,-1,56,58,60,62,64,66,68,70,72,-1,74,76,78,80,-1,-1,-1,82,-1,-1,84,86,88,90,-1,-1,-1,-1,-1,-1,-1,-1,-1,-1,-1,-1,-1,-1,-1,-1,-1,-1,-1,-1,-1,-1,-1,-1,-1,-1,-1,-1,-1,-1,-1,-1,-1,-1,-1,-1],"split_conditions":[1E-1,1E-2,2.848036E-3,2.3101296E-4,8.111308E-3,5.3366994E-6,1E0,6.5793324E-4,8.111308E-3,2.848036E-4,4.3287612E-2,1.519911E-6,2.3101296E-4,1E-2,1E-2,1.2328468E-7,1E0,1.2328467E-4,1E0,1.2328467E-4,6.5793324E-4,1E0,1E0,1E0,1E0,1E0,1E0,-1.5505568E-2,-3.7491585E-3,7.3938044E-3,-1.351308E-2,1.2328467E-4,4.3287613E-7,1.8738175E-2,1.5199111E-3,2.848036E-3,2.848036E-4,4.3287612E-2,4.3287612E-2,1E0,2.9318098E-3,1E0,3.5111918E-3,1.8738175E-2,1.8738175E-2,-1.3671354E-2,-3.1222613E-3,-6.389897E-3,3.5111917E-8,-3.735773E-3,-1.7374478E-2,1.8738174E-5,1.8738174E-5,8.1113086E-4,8.1113086E-4,4.35881E-4,-3.5685042E-3,1.6655333E-3,2.2268893E-4,6.339799E-4,-7.828643E-4,4.186404E-3,7.2957616E-4,9.4909075E-4,2.5534631E-5,-1.3849778E-3,2.0927524E-4,1.7323443E-3,-3.5037631E-3,-4.20592E-3,1.6744294E-3,5.385876E-5,1.2194128E-3,1.9735873E-3,-5.808932E-3,1.0712708E-3,-1.975751E-3,1.7883987E-3,-1.8831522E-3,-1.2731751E-2,5.0292315E-4,-1.6916425E-3,-1.7429442E-4,-1.416781E-2,5.272982E-3,1.7101578E-2,-6.34757E-3,-1.2130826E-2,1.8013604E-2,-3.169124E-3,-1.55765945E-2],"split_indices":[0,2,2,2,0,2,1,0,0,0,0,2,2,2,2,2,1,0,1,0,0,1,1,1,1,1,1,0,0,0,0,0,2,0,0,2,0,0,0,1,0,1,0,0,0,0,0,0,2,0,0,2,2,2,2,0,0,0,0,0,0,0,0,0,0,0,0,0,0,0,0,0,0,0,0,0,0,0,0,0,0,0,0,0,0,0,0,0,0,0,0],"split_type":[0,0,0,0,0,0,0,0,0,0,0,0,0,0,0,0,0,0,0,0,0,0,0,0,0,0,0,0,0,0,0,0,0,0,0,0,0,0,0,0,0,0,0,0,0,0,0,0,0,0,0,0,0,0,0,0,0,0,0,0,0,0,0,0,0,0,0,0,0,0,0,0,0,0,0,0,0,0,0,0,0,0,0,0,0,0,0,0,0,0,0],"sum_hessian":[2.88E2,2.64E2,2.4E1,2.42E2,2.2E1,2E1,4E0,1.76E2,6.6E1,1.6E1,6E0,1E1,1E1,2E0,2E0,8E1,9.6E1,4.8E1,1.8E1,8E0,8E0,4E0,2E0,8E0,2E0,6E0,4E0,1E0,1E0,1E0,1E0,2E1,6E1,4.8E1,4.8E1,1.8E1,3E1,9E0,9E0,6E0,2E0,2E0,6E0,2E0,2E0,1E0,1E0,4E0,4E0,1E0,1E0,3E0,3E0,2E0,2E0,1.2E1,8E0,1E1,5E1,3.2E1,1.6E1,8E0,4E1,1.2E1,6E0,6E0,2.4E1,6E0,3E0,6E0,3E0,3E0,3E0,1E0,1E0,4E0,2E0,1E0,1E0,1E0,1E0,1E0,3E0,1E0,2E0,1E0,2E0,1E0,1E0,1E0,1E0],"tree_param":{"num_deleted":"0","num_feature":"3","num_nodes":"91","size_leaf_vector":"1"}},{"base_weights":[-1.486545E-3,-3.4011424E-5,-1.682394E-2,5.898888E-4,-6.624174E-3,-1.3181546E-2,-2.8757203E-2,1.0538395E-3,-6.445762E-4,7.436135E-4,-2.3571061E-2,-1.5295905E-2,4.6032467E-3,-3.6370035E-2,-1.1558634E-2,6.446627E-4,3.7655158E-3,3.794237E-4,-3.251493E-3,4.067951E-3,-2.6633474E-3,-1.3966724E-2,-3.1721268E-2,-2.0894982E-2,-8.167239E-3,1.5311565E-2,-1.3240104E-2,-1.3179733E-2,-3.186784E-3,6.2847333E-3,-1.1486119E-2,1.1402857E-3,-5.9219997E-4,1.6796241E-3,5.537614E-3,1.5884732E-3,-3.738461E-4,-6.1783195E-4,-5.5600046E-3,1.8795899E-3,2.345443E-3,-7.2445273E-3,-3.1950645E-4,-1.7897288E-4,-2.30989E-2,-1.1620651E-2,-2.6539208E-3,-6.757914E-3,-1.548865E-2,-2.1244526E-2,2.9427936E-2,-2.4709254E-4,6.774973E-4,5.058483E-4,-8.534439E-4,2.1987612E-4,1.8140048E-3,-2.4846554E-4,2.6472174E-3,-3.9155144E-5,7.17568E-4,-5.6484126E-4,5.580934E-4,1.286883E-3,-2.7154193E-3,3.4479413E-4,-4.7733933E-3,4.1735173E-5,9.4504957E-4,1.6775519E-3,-4.937589E-3,-1.2890339E-3,1.121293E-3,1.5201421E-3,-1.6006798E-3,-1.0821987E-2,4.2748154E-4,-7.816814E-3,1.9249352E-2,-5.5429223E-4,-2.3553409E-2,1.5936328E-2,-2.693756E-3],"categories":[],"categories_nodes":[],"categories_segments":[],"categories_sizes":[],"default_left":[0,0,0,0,0,0,0,0,0,0,0,0,0,0,0,0,0,0,0,0,0,0,0,0,0,0,0,0,0,0,0,0,0,0,0,0,0,0,0,0,0,0,0,0,0,0,0,0,0,0,0,0,0,0,0,0,0,0,0,0,0,0,0,0,0,0,0,0,0,0,0,0,0,0,0,0,0,0,0,0,0,0,0],"id":12,"left_children":[1,3,5,7,9,11,13,15,17,19,21,23,25,27,29,31,33,35,37,39,41,43,45,47,49,-1,-1,-1,-1,-1,-1,51,53,55,57,59,61,63,65,67,-1,69,71,73,75,-1,-1,77,-1,79,81,-1,-1,-1,-1,-1,-1,-1,-1,-1,-1,-1,-1,-1,-1,-1,-1,-1,-1,-1,-1,-1,-1,-1,-1,-1,-1,-1,-1,-1,-1,-1,-1],"loss_changes":[6.437793E-3,1.0934825E-3,7.0757605E-4,1.3985287E-4,2.8893321E-3,8.600834E-4,2.3426209E-4,1.939637E-4,1.8008903E-4,2.0337447E-4,1.0489905E-4,5.877102E-4,9.041861E-3,1.174598E-4,3.4087228E-3,9.569301E-5,7.5716205E-5,4.522013E-5,1.1208176E-4,5.916605E-5,9.432333E-5,6.254267E-4,1.3867929E-4,3.9959624E-3,5.541611E-3,0E0,0E0,0E0,0E0,0E0,0E0,2.455879E-4,2.3574878E-4,4.517999E-5,2.5835962E-4,2.6552534E-5,1.0801134E-4,4.5269929E-4,7.127892E-4,1.5041571E-5,0E0,4.4686085E-4,1.2901459E-4,1.0819296E-4,1.0059476E-3,0E0,0E0,1.2621235E-2,0E0,8.741325E-3,3.2069415E-3,0E0,0E0,0E0,0E0,0E0,0E0,0E0,0E0,0E0,0E0,0E0,0E0,0E0,0E0,0E0,0E0,0E0,0E0,0E0,0E0,0E0,0E0,0E0,0E0,0E0,0E0,0E0,0E0,0E0,0E0,0E0,0E0],"parents":[2147483647,0,0,1,1,2,2,3,3,4,4,5,5,6,6,7,7,8,8,9,9,10,10,11,11,12,12,13,13,14,14,15,15,16,16,17,17,18,18,19,19,20,20,21,21,22,22,23,23,24,24,31,31,32,32,33,33,34,34,35,35,36,36,37,37,38,38,39,39,41,41,42,42,43,43,44,44,47,47,49,49,50,50],"right_children":[2,4,6,8,10,12,14,16,18,20,22,24,26,28,30,32,34,36,38,40,42,44,46,48,50,-1,-1,-1,-1,-1,-1,52,54,56,58,60,62,64,66,68,-1,70,72,74,76,-1,-1,78,-1,80,82,-1,-1,-1,-1,-1,-1,-1,-1,-1,-1,-1,-1,-1,-1,-1,-1,-1,-1,-1,-1,-1,-1,-1,-1,-1,-1,-1,-1,-1,-1,-1,-1],"split_conditions":[1E-1,1E-2,2.848036E-3,2.3101296E-4,8.111308E-3,8.1113086E-4,1E0,6.579332E-5,8.111308E-3,2.848036E-4,4.3287612E-2,1E0,1E0,1E-2,1E-2,5.3366994E-6,1E0,1.2328467E-4,1E0,1.2328467E-4,6.5793324E-4,1E0,1E0,6.579332E-5,6.579332E-5,1.5311565E-2,-1.3240104E-2,-1.3179733E-2,-3.186784E-3,6.2847333E-3,-1.1486119E-2,2.848036E-4,1E0,4.3287612E-2,2.848036E-4,2.3101296E-5,1.5199111E-3,4.3287612E-2,2.848036E-3,1E0,2.345443E-3,1E0,1E0,1.8738175E-2,1.8738175E-2,-1.1620651E-2,-2.6539208E-3,1.8738174E-5,-1.548865E-2,1.8738174E-5,2.3101296E-4,-2.4709254E-4,6.774973E-4,5.058483E-4,-8.534439E-4,2.1987612E-4,1.8140048E-3,-2.4846554E-4,2.6472174E-3,-3.9155144E-5,7.17568E-4,-5.6484126E-4,5.580934E-4,1.286883E-3,-2.7154193E-3,3.4479413E-4,-4.7733933E-3,4.1735173E-5,9.4504957E-4,1.6775519E-3,-4.937589E-3,-1.2890339E-3,1.121293E-3,1.5201421E-3,-1.6006798E-3,-1.0821987E-2,4.2748154E-4,-7.816814E-3,1.9249352E-2,-5.5429223E-4,-2.3553409E-2,1.5936328E-2,-2.693756E-3],"split_indices":[0,2,2,2,0,2,1,2,0,0,0,1,1,2,2,2,1,0,1,0,0,1,1,2,2,0,0,0,0,0,0,0,1,0,0,0,0,0,2,1,0,1,1,0,0,0,0,2,0,2,2,0,0,0,0,0,0,0,0,0,0,0,0,0,0,0,0,0,0,0,0,0,0,0,0,0,0,0,0,0,0,0,0],"split_type":[0,0,0,0,0,0,0,0,0,0,0,0,0,0,0,0,0,0,0,0,0,0,0,0,0,0,0,0,0,0,0,0,0,0,0,0,0,0,0,0,0,0,0,0,0,0,0,0,0,0,0,0,0,0,0,0,0,0,0,0,0,0,0,0,0,0,0,0,0,0,0,0,0,0,0,0,0,0,0,0,0,0,0],"sum_hessian":[2.88E2,2.64E2,2.4E1,2.42E2,2.2E1,2E1,4E0,1.76E2,6.6E1,1.6E1,6E0,1.8E1,2E0,2E0,2E0,1.54E2,2.2E1,4.8E1,1.8E1,8E0,8E0,4E0,2E0,9E0,9E0,1E0,1E0,1E0,1E0,1E0,1E0,1.1E2,4.4E1,1.1E1,1.1E1,1.8E1,3E1,9E0,9E0,6E0,2E0,2E0,6E0,2E0,2E0,1E0,1E0,7E0,2E0,7E0,2E0,4E1,7E1,2.2E1,2.2E1,1E1,1E0,4E0,7E0,6E0,1.2E1,1.8E1,1.2E1,6E0,3E0,6E0,3E0,3E0,3E0,1E0,1E0,3E0,3E0,1E0,1E0,1E0,1E0,6E0,1E0,6E0,1E0,1E0,1E0],"tree_param":{"num_deleted":"0","num_feature":"3","num_nodes":"83","size_leaf_vector":"1"}},{"base_weights":[-1.2479698E-3,-1.2010004E-4,-1.315347E-2,4.1015563E-4,-5.717145E-3,-9.838982E-3,-2.4443626E-2,7.6318864E-4,-5.286056E-4,5.149105E-4,-2.0035401E-2,-1.5463188E-2,-3.3203221E-3,-3.0914532E-2,-9.824845E-3,4.5178668E-4,2.828585E-3,4.7022797E-4,-2.2254551E-3,3.2178229E-3,-2.2452143E-3,-1.1871716E-2,-2.6963076E-2,-6.5379376E-3,-3.7084546E-2,2.8936437E-3,-1.135581E-2,-1.1202773E-2,-2.7087675E-3,5.3420216E-3,-9.763202E-3,8.020696E-4,-4.2228433E-4,2.1814392E-3,1.9247235E-3,1.962898E-3,-2.4469495E-3,-4.675851E-3,2.6503438E-3,-1.7247797E-4,4.383598E-3,-6.157855E-3,-2.4762325E-4,-1.5213092E-4,-1.9634062E-2,-9.877552E-3,-2.2558318E-3,-2.9802867E-3,-1.8339992E-3,-2.0028849E-3,-1.46851605E-2,-8.511066E-3,1.3574943E-2,1.1170946E-2,-3.0097296E-2,3.7707874E-4,-1.034185E-3,-3.463844E-4,1.7001844E-3,9.925215E-4,-6.2595966E-4,-1.1880398E-4,1.4689909E-3,2.6399296E-4,-1.9124586E-3,-2.9349686E-3,2.8531952E-4,3.744103E-3,-2.3129173E-3,7.1529864E-4,1.8763543E-3,1.425916E-3,-4.196951E-3,8.342922E-4,-1.5638233E-3,1.2921185E-3,-1.3605774E-3,-9.198688E-3,3.6335888E-4,-1.354757E-3,-1.0371208E-5,-1.0870114E-2,3.8423159E-3,1.4619484E-2,-4.316345E-3,-7.987903E-3,1.301483E-2,-2.2896947E-3,-1.1254089E-2],"categories":[],"categories_nodes":[],"categories_segments":[],"categories_sizes":[],"default_left":[0,0,0,0,0,0,0,0,0,0,0,0,0,0,0,0,0,0,0,0,0,0,0,0,0,0,0,0,0,0,0,0,0,0,0,0,0,0,0,0,0,0,0,0,0,0,0,0,0,0,0,0,0,0,0,0,0,0,0,0,0,0,0,0,0,0,0,0,0,0,0,0,0,0,0,0,0,0,0,0,0,0,0,0,0,0,0,0,0],"id":13,"left_children":[1,3,5,7,9,11,13,15,17,19,21,23,25,27,29,31,33,35,37,39,41,43,45,47,49,51,53,-1,-1,-1,-1,55,57,59,-1,61,63,65,67,-1,69,71,73,75,77,-1,-1,-1,79,-1,-1,81,83,85,87,-1,-1,-1,-1,-1,-1,-1,-1,-1,-1,-1,-1,-1,-1,-1,-1,-1,-1,-1,-1,-1,-1,-1,-1,-1,-1,-1,-1,-1,-1,-1,-1,-1,-1],"loss_changes":[3.8790696E-3,7.88829E-4,6.950265E-4,8.093695E-5,2.0626565E-3,7.185652E-4,1.6925344E-4,1.1256291E-4,1.1460277E-4,1.340511E-4,7.57894E-5,1.8802795E-3,5.821143E-4,8.4864674E-5,2.4628018E-3,4.779539E-5,3.9396997E-5,1.9204161E-4,3.1108357E-4,4.2313695E-5,6.881788E-5,4.5187038E-4,1.0019587E-4,1.2556658E-4,7.5566536E-4,9.682571E-4,2.4471395E-3,0E0,0E0,0E0,0E0,2.188803E-4,2.0722432E-4,1.0791009E-4,0E0,2.0263155E-4,2.0162782E-4,4.9786386E-4,1.012775E-3,0E0,1.1270429E-5,3.228565E-4,1.1975796E-4,7.816924E-5,7.267969E-4,0E0,0E0,0E0,2.3972934E-5,0E0,0E0,2.8281237E-3,4.6334513E-3,4.8076827E-3,2.1350756E-4,0E0,0E0,0E0,0E0,0E0,0E0,0E0,0E0,0E0,0E0,0E0,0E0,0E0,0E0,0E0,0E0,0E0,0E0,0E0,0E0,0E0,0E0,0E0,0E0,0E0,0E0,0E0,0E0,0E0,0E0,0E0,0E0,0E0,0E0],"parents":[2147483647,0,0,1,1,2,2,3,3,4,4,5,5,6,6,7,7,8,8,9,9,10,10,11,11,12,12,13,13,14,14,15,15,16,16,17,17,18,18,19,19,20,20,21,21,22,22,23,23,24,24,25,25,26,26,31,31,32,32,33,33,35,35,36,36,37,37,38,38,40,40,41,41,42,42,43,43,44,44,48,48,51,51,52,52,53,53,54,54],"right_children":[2,4,6,8,10,12,14,16,18,20,22,24,26,28,30,32,34,36,38,40,42,44,46,48,50,52,54,-1,-1,-1,-1,56,58,60,-1,62,64,66,68,-1,70,72,74,76,78,-1,-1,-1,80,-1,-1,82,84,86,88,-1,-1,-1,-1,-1,-1,-1,-1,-1,-1,-1,-1,-1,-1,-1,-1,-1,-1,-1,-1,-1,-1,-1,-1,-1,-1,-1,-1,-1,-1,-1,-1,-1,-1],"split_conditions":[1E-1,1E-2,2.848036E-3,2.3101296E-4,8.111308E-3,5.3366994E-6,1E0,6.579332E-5,3.5111918E-3,2.848036E-4,4.3287612E-2,1.519911E-6,2.3101296E-4,1E-2,1E-2,5.3366994E-6,4.3287612E-2,2.848036E-3,2.848036E-3,2.3101296E-5,6.5793324E-4,1E0,1E0,1E0,1E0,1E0,1E0,-1.1202773E-2,-2.7087675E-3,5.3420216E-3,-9.763202E-3,4.3287612E-2,4.3287612E-2,8.111308E-3,1.9247235E-3,2.848036E-4,2.848036E-4,1.8738175E-2,1.8738175E-2,-1.7247797E-4,1.2328467E-4,1E0,3.5111918E-3,1.8738175E-2,1.8738175E-2,-9.877552E-3,-2.2558318E-3,-2.9802867E-3,3.5111917E-8,-2.0028849E-3,-1.46851605E-2,1.8738174E-5,1.8738174E-5,8.1113086E-4,8.1113086E-4,3.7707874E-4,-1.034185E-3,-3.463844E-4,1.7001844E-3,9.925215E-4,-6.2595966E-4,-1.1880398E-4,1.4689909E-3,2.6399296E-4,-1.9124586E-3,-2.9349686E-3,2.8531952E-4,3.744103E-3,-2.3129173E-3,7.1529864E-4,1.8763543E-3,1.425916E-3,-4.196951E-3,8.342922E-4,-1.5638233E-3,1.2921185E-3,-1.3605774E-3,-9.198688E-3,3.6335888E-4,-1.354757E-3,-1.0371208E-5,-1.0870114E-2,3.8423159E-3,1.4619484E-2,-4.316345E-3,-7.987903E-3,1.301483E-2,-2.2896947E-3,-1.1254089E-2],"split_indices":[0,2,2,2,0,2,1,2,0,0,0,2,2,2,2,2,0,2,2,0,0,1,1,1,1,1,1,0,0,0,0,0,0,0,0,0,0,0,0,0,0,1,0,0,0,0,0,0,2,0,0,2,2,2,2,0,0,0,0,0,0,0,0,0,0,0,0,0,0,0,0,0,0,0,0,0,0,0,0,0,0,0,0,0,0,0,0,0,0],"split_type":[0,0,0,0,0,0,0,0,0,0,0,0,0,0,0,0,0,0,0,0,0,0,0,0,0,0,0,0,0,0,0,0,0,0,0,0,0,0,0,0,0,0,0,0,0,0,0,0,0,0,0,0,0,0,0,0,0,0,0,0,0,0,0,0,0,0,0,0,0,0,0,0,0,0,0,0,0,0,0,0,0,0,0,0,0,0,0,0,0],"sum_hessian":[2.88E2,2.64E2,2.4E1,2.42E2,2.2E1,2E1,4E0,1.76E2,6.6E1,1.6E1,6E0,1E1,1E1,2E0,2E0,1.54E2,2.2E1,4.2E1,2.4E1,8E0,8E0,4E0,2E0,8E0,2E0,6E0,4E0,1E0,1E0,1E0,1E0,1.1E2,4.4E1,2E1,2E0,2.8E1,1.4E1,1.6E1,8E0,2E0,6E0,2E0,6E0,2E0,2E0,1E0,1E0,4E0,4E0,1E0,1E0,3E0,3E0,2E0,2E0,1E2,1E1,4E1,4E0,1.6E1,4E0,1.6E1,1.2E1,8E0,6E0,8E0,8E0,4E0,4E0,4E0,2E0,1E0,1E0,4E0,2E0,1E0,1E0,1E0,1E0,1E0,3E0,1E0,2E0,1E0,2E0,1E0,1E0,1E0,1E0],"tree_param":{"num_deleted":"0","num_feature":"3","num_nodes":"89","size_leaf_vector":"1"}},{"base_weights":[-1.099372E-3,-1.6198136E-4,-1.0991738E-2,2.9316655E-4,-4.963675E-3,-8.138479E-3,-2.0777082E-2,5.511194E-4,-3.926665E-4,2.9682764E-4,-1.7030086E-2,-1.2736366E-2,-2.8007294E-3,-2.6277356E-2,-8.351115E-3,-1.4482457E-4,1.1265868E-3,2.361755E-4,-1.9937502E-3,2.52127E-3,-1.9605954E-3,-1.009095E-2,-2.2918617E-2,-5.0593815E-3,-3.1521864E-2,2.493454E-3,-9.65244E-3,-9.522358E-3,-2.302453E-3,4.540721E-3,-8.298723E-3,-3.3879394E-3,9.7403175E-4,3.7107158E-3,2.261784E-4,-2.1932737E-4,1.5144394E-3,-1.4290214E-5,-3.7738353E-3,1.0972278E-3,1.5010834E-3,-5.234182E-3,-2.7754478E-4,-1.2930234E-4,-1.6688948E-2,-8.3959205E-3,-1.9174577E-3,-2.2650184E-3,-1.5568256E-3,-1.7024517E-3,-1.2482388E-2,-7.714696E-3,1.20782405E-2,9.495306E-3,-2.5582707E-2,7.567487E-4,-2.6971141E-3,1.125424E-3,1.06767E-4,4.6537718E-4,1.3907043E-3,-5.133304E-4,6.4720353E-4,4.2027642E-4,-9.954957E-4,-1.1285841E-3,3.2127143E-3,-1.2414056E-3,2.1617422E-3,-2.6085787E-3,1.734636E-3,-6.2012674E-5,6.380573E-4,1.2120277E-3,-3.5674097E-3,-1.0068611E-3,8.6115004E-4,1.0983021E-3,-1.1564881E-3,-7.818883E-3,3.0885637E-4,-1.1515439E-3,-8.037687E-6,4.3640025E-3,-1.1174822E-2,-4.6309233E-3,1.419333E-2,-6.7897183E-3,1.1062606E-2,-1.9462422E-3,-9.5659755E-3],"categories":[],"categories_nodes":[],"categories_segments":[],"categories_sizes":[],"default_left":[0,0,0,0,0,0,0,0,0,0,0,0,0,0,0,0,0,0,0,0,0,0,0,0,0,0,0,0,0,0,0,0,0,0,0,0,0,0,0,0,0,0,0,0,0,0,0,0,0,0,0,0,0,0,0,0,0,0,0,0,0,0,0,0,0,0,0,0,0,0,0,0,0,0,0,0,0,0,0,0,0,0,0,0,0,0,0,0,0,0,0],"id":14,"left_children":[1,3,5,7,9,11,13,15,17,19,21,23,25,27,29,31,33,35,37,39,41,43,45,47,49,51,53,-1,-1,-1,-1,55,57,59,61,63,65,67,69,71,-1,73,75,77,79,-1,-1,-1,81,-1,-1,83,85,87,89,-1,-1,-1,-1,-1,-1,-1,-1,-1,-1,-1,-1,-1,-1,-1,-1,-1,-1,-1,-1,-1,-1,-1,-1,-1,-1,-1,-1,-1,-1,-1,-1,-1,-1,-1,-1],"loss_changes":[2.67812E-3,5.806076E-4,5.2890927E-4,4.320616E-5,1.4649889E-3,4.7971855E-4,1.2228568E-4,7.1050425E-5,6.79284E-5,9.0308815E-5,5.4758508E-5,1.4268949E-3,4.2308425E-4,6.131455E-5,1.7793752E-3,2.972149E-4,2.2485755E-4,2.8862547E-5,6.68946E-5,2.6324524E-5,4.8133792E-5,3.2647682E-4,7.2391354E-5,6.6759574E-5,5.4596807E-4,7.7808055E-4,1.7680589E-3,0E0,0E0,0E0,0E0,7.180483E-4,1.0339066E-4,4.2744476E-5,2.7679975E-4,1.9043079E-4,6.7097286E-4,3.2755494E-4,5.2056636E-4,9.837645E-6,0E0,2.3326385E-4,7.7476274E-5,5.6477216E-5,5.251108E-4,0E0,0E0,0E0,1.7352191E-5,0E0,0E0,3.1717874E-3,4.6079927E-3,3.4735512E-3,1.5425868E-4,0E0,0E0,0E0,0E0,0E0,0E0,0E0,0E0,0E0,0E0,0E0,0E0,0E0,0E0,0E0,0E0,0E0,0E0,0E0,0E0,0E0,0E0,0E0,0E0,0E0,0E0,0E0,0E0,0E0,0E0,0E0,0E0,0E0,0E0,0E0,0E0],"parents":[2147483647,0,0,1,1,2,2,3,3,4,4,5,5,6,6,7,7,8,8,9,9,10,10,11,11,12,12,13,13,14,14,15,15,16,16,17,17,18,18,19,19,20,20,21,21,22,22,23,23,24,24,25,25,26,26,31,31,32,32,33,33,34,34,35,35,36,36,37,37,38,38,39,39,41,41,42,42,43,43,44,44,48,48,51,51,52,52,53,53,54,54],"right_children":[2,4,6,8,10,12,14,16,18,20,22,24,26,28,30,32,34,36,38,40,42,44,46,48,50,52,54,-1,-1,-1,-1,56,58,60,62,64,66,68,70,72,-1,74,76,78,80,-1,-1,-1,82,-1,-1,84,86,88,90,-1,-1,-1,-1,-1,-1,-1,-1,-1,-1,-1,-1,-1,-1,-1,-1,-1,-1,-1,-1,-1,-1,-1,-1,-1,-1,-1,-1,-1,-1,-1,-1,-1,-1,-1,-1],"split_conditions":[1E-1,1E-2,2.848036E-3,2.3101296E-4,8.111308E-3,5.3366994E-6,1E0,6.5793324E-4,8.111308E-3,2.848036E-4,4.3287612E-2,1.519911E-6,2.3101296E-4,1E-2,1E-2,1.2328468E-7,1.2328468E-7,1.5199111E-3,1E0,1.2328467E-4,6.5793324E-4,1E0,1E0,1E0,1E0,1E0,1E0,-9.522358E-3,-2.302453E-3,4.540721E-3,-8.298723E-3,1E0,4.3287613E-7,3.5111918E-3,1E0,2.848036E-3,2.848036E-3,2.848036E-3,4.3287612E-2,1E0,1.5010834E-3,1E0,1E0,1.8738175E-2,1.8738175E-2,-8.3959205E-3,-1.9174577E-3,-2.2650184E-3,3.5111917E-8,-1.7024517E-3,-1.2482388E-2,6.579332E-5,6.579332E-5,8.1113086E-4,8.1113086E-4,7.567487E-4,-2.6971141E-3,1.125424E-3,1.06767E-4,4.6537718E-4,1.3907043E-3,-5.133304E-4,6.4720353E-4,4.2027642E-4,-9.954957E-4,-1.1285841E-3,3.2127143E-3,-1.2414056E-3,2.1617422E-3,-2.6085787E-3,1.734636E-3,-6.2012674E-5,6.380573E-4,1.2120277E-3,-3.5674097E-3,-1.0068611E-3,8.6115004E-4,1.0983021E-3,-1.1564881E-3,-7.818883E-3,3.0885637E-4,-1.1515439E-3,-8.037687E-6,4.3640025E-3,-1.1174822E-2,-4.6309233E-3,1.419333E-2,-6.7897183E-3,1.1062606E-2,-1.9462422E-3,-9.5659755E-3],"split_indices":[0,2,2,2,0,2,1,0,0,0,0,2,2,2,2,2,2,0,1,0,0,1,1,1,1,1,1,0,0,0,0,1,2,0,1,2,2,2,0,1,0,1,1,0,0,0,0,0,2,0,0,2,2,2,2,0,0,0,0,0,0,0,0,0,0,0,0,0,0,0,0,0,0,0,0,0,0,0,0,0,0,0,0,0,0,0,0,0,0,0,0],"split_type":[0,0,0,0,0,0,0,0,0,0,0,0,0,0,0,0,0,0,0,0,0,0,0,0,0,0,0,0,0,0,0,0,0,0,0,0,0,0,0,0,0,0,0,0,0,0,0,0,0,0,0,0,0,0,0,0,0,0,0,0,0,0,0,0,0,0,0,0,0,0,0,0,0,0,0,0,0,0,0,0,0,0,0,0,0,0,0,0,0,0,0],"sum_hessian":[2.88E2,2.64E2,2.4E1,2.42E2,2.2E1,2E1,4E0,1.76E2,6.6E1,1.6E1,6E0,1E1,1E1,2E0,2E0,8E1,9.6E1,4.8E1,1.8E1,8E0,8E0,4E0,2E0,8E0,2E0,6E0,4E0,1E0,1E0,1E0,1E0,2E1,6E1,2.4E1,7.2E1,3.6E1,1.2E1,9E0,9E0,6E0,2E0,2E0,6E0,2E0,2E0,1E0,1E0,4E0,4E0,1E0,1E0,3E0,3E0,2E0,2E0,1E1,1E1,1E1,5E1,8E0,1.6E1,3.6E1,3.6E1,2.4E1,1.2E1,8E0,4E0,6E0,3E0,6E0,3E0,3E0,3E0,1E0,1E0,3E0,3E0,1E0,1E0,1E0,1E0,1E0,3E0,2E0,1E0,2E0,1E0,1E0,1E0,1E0,1E0],"tree_param":{"num_deleted":"0","num_feature":"3","num_nodes":"91","size_leaf_vector":"1"}},{"base_weights":[-9.534599E-4,-1.7175298E-4,-9.201415E-3,2.1689861E-4,-4.270474E-3,-6.74918E-3,-1.7660517E-2,4.0316072E-4,-6.1161385E-4,1.8282849E-4,-1.4475569E-2,-1.0516309E-2,-2.3684895E-3,-2.2335751E-2,-7.098444E-3,-1.6920441E-3,6.2087196E-4,1.2741148E-4,-6.5492988E-3,1.0315299E-3,-4.1216216E-3,-8.577302E-3,-1.9480824E-2,-3.922072E-3,-2.6793584E-2,7.1711116E-3,-5.285191E-3,-8.094003E-3,-1.957085E-3,3.859614E-3,-7.053914E-3,1.6721546E-3,-4.8870384E-3,1.447854E-3,6.1325525E-5,-2.406881E-3,3.8468172E-3,1.5675724E-3,-1.2483071E-2,1.7512303E-4,4.398783E-3,-2.073571E-3,2.1884144E-4,-1.09891094E-4,-1.4185612E-2,-7.1365316E-3,-1.6298399E-3,-1.7214132E-3,-1.3216853E-3,-1.4470842E-3,-1.0610029E-2,-9.894197E-3,1.3121197E-2,1.2352476E-2,-2.1865819E-2,-5.1011146E-5,1.8081844E-3,1.2493194E-3,-2.3011342E-3,1.3832413E-4,2.5241037E-3,1.6801302E-4,-1.0993783E-3,6.0050096E-4,-1.3797715E-3,1.7468474E-3,4.3301584E-4,2.6294412E-3,-1.9240335E-3,-7.2403955E-3,1.6230136E-3,7.8920554E-4,-6.9163705E-4,-7.962764E-4,2.7757287E-3,9.335608E-4,-9.830118E-4,-6.6460515E-3,2.625257E-4,1.800716E-4,-8.4091426E-4,1.5130999E-2,-2.9333208E-3,-1.8678306E-2,1.1394706E-3],"categories":[],"categories_nodes":[],"categories_segments":[],"categories_sizes":[],"default_left":[0,0,0,0,0,0,0,0,0,0,0,0,0,0,0,0,0,0,0,0,0,0,0,0,0,0,0,0,0,0,0,0,0,0,0,0,0,0,0,0,0,0,0,0,0,0,0,0,0,0,0,0,0,0,0,0,0,0,0,0,0,0,0,0,0,0,0,0,0,0,0,0,0,0,0,0,0,0,0,0,0,0,0,0,0],"id":15,"left_children":[1,3,5,7,9,11,13,15,17,19,21,23,25,27,29,31,33,35,37,39,41,43,45,47,49,51,53,-1,-1,-1,-1,55,57,59,61,63,65,67,69,71,73,-1,-1,75,77,-1,-1,-1,79,-1,-1,-1,-1,81,83,-1,-1,-1,-1,-1,-1,-1,-1,-1,-1,-1,-1,-1,-1,-1,-1,-1,-1,-1,-1,-1,-1,-1,-1,-1,-1,-1,-1,-1,-1],"loss_changes":[1.8617423E-3,4.2306446E-4,3.9939838E-4,3.774646E-5,1.0479132E-3,3.2164739E-4,8.835178E-5,9.182431E-5,1.9829892E-4,6.635585E-5,3.956328E-5,1.0756119E-3,3.439666E-4,4.4299755E-5,1.2855988E-3,2.1239523E-4,8.3666215E-5,3.9572734E-4,2.603864E-4,4.2485754E-5,4.5649784E-5,2.358804E-4,5.230261E-5,3.491617E-5,3.944619E-4,5.847079E-3,2.9020896E-3,0E0,0E0,0E0,0E0,8.125465E-5,2.8388127E-4,4.979001E-4,2.0459428E-4,2.508341E-4,7.233175E-5,2.2853626E-4,7.560189E-4,8.5250744E-5,1.2725714E-4,0E0,0E0,4.0804833E-5,3.7939235E-4,0E0,0E0,0E0,1.5917827E-5,0E0,0E0,0E0,0E0,4.7072116E-3,5.4200045E-3,0E0,0E0,0E0,0E0,0E0,0E0,0E0,0E0,0E0,0E0,0E0,0E0,0E0,0E0,0E0,0E0,0E0,0E0,0E0,0E0,0E0,0E0,0E0,0E0,0E0,0E0,0E0,0E0,0E0,0E0],"parents":[2147483647,0,0,1,1,2,2,3,3,4,4,5,5,6,6,7,7,8,8,9,9,10,10,11,11,12,12,13,13,14,14,15,15,16,16,17,17,18,18,19,19,20,20,21,21,22,22,23,23,24,24,25,25,26,26,31,31,32,32,33,33,34,34,35,35,36,36,37,37,38,38,39,39,40,40,43,43,44,44,48,48,53,53,54,54],"right_children":[2,4,6,8,10,12,14,16,18,20,22,24,26,28,30,32,34,36,38,40,42,44,46,48,50,52,54,-1,-1,-1,-1,56,58,60,62,64,66,68,70,72,74,-1,-1,76,78,-1,-1,-1,80,-1,-1,-1,-1,82,84,-1,-1,-1,-1,-1,-1,-1,-1,-1,-1,-1,-1,-1,-1,-1,-1,-1,-1,-1,-1,-1,-1,-1,-1,-1,-1,-1,-1,-1,-1],"split_conditions":[1E-1,1E-2,2.848036E-3,1.8738175E-2,8.111308E-3,5.3366994E-6,1E0,3.5111917E-8,2.848036E-3,3.5111918E-3,4.3287612E-2,1.519911E-6,1.8738174E-5,1E-2,1E-2,1E0,5.3366994E-6,1.8738174E-5,1E0,1.5199111E-3,1E0,1E0,1E0,1E0,1E0,1E0,1E0,-8.094003E-3,-1.957085E-3,3.859614E-3,-7.053914E-3,3.5111918E-3,5.336699E-5,8.111308E-3,8.111308E-3,1.2328468E-7,2.3101296E-4,4.3287612E-2,4.3287612E-2,1E0,1E0,-2.073571E-3,2.1884144E-4,1.8738175E-2,1.8738175E-2,-7.1365316E-3,-1.6298399E-3,-1.7214132E-3,1.2328468E-7,-1.4470842E-3,-1.0610029E-2,-9.894197E-3,1.3121197E-2,6.579332E-5,6.579332E-5,-5.1011146E-5,1.8081844E-3,1.2493194E-3,-2.3011342E-3,1.3832413E-4,2.5241037E-3,1.6801302E-4,-1.0993783E-3,6.0050096E-4,-1.3797715E-3,1.7468474E-3,4.3301584E-4,2.6294412E-3,-1.9240335E-3,-7.2403955E-3,1.6230136E-3,7.8920554E-4,-6.9163705E-4,-7.962764E-4,2.7757287E-3,9.335608E-4,-9.830118E-4,-6.6460515E-3,2.625257E-4,1.800716E-4,-8.4091426E-4,1.5130999E-2,-2.9333208E-3,-1.8678306E-2,1.1394706E-3],"split_indices":[0,2,2,0,0,2,1,2,2,0,0,2,2,2,2,1,2,2,1,0,1,1,1,1,1,1,1,0,0,0,0,0,0,0,0,2,2,0,0,1,1,0,0,0,0,0,0,0,2,0,0,0,0,2,2,0,0,0,0,0,0,0,0,0,0,0,0,0,0,0,0,0,0,0,0,0,0,0,0,0,0,0,0,0,0],"split_type":[0,0,0,0,0,0,0,0,0,0,0,0,0,0,0,0,0,0,0,0,0,0,0,0,0,0,0,0,0,0,0,0,0,0,0,0,0,0,0,0,0,0,0,0,0,0,0,0,0,0,0,0,0,0,0,0,0,0,0,0,0,0,0,0,0,0,0,0,0,0,0,0,0,0,0,0,0,0,0,0,0,0,0,0,0],"sum_hessian":[2.88E2,2.64E2,2.4E1,2.42E2,2.2E1,2E1,4E0,1.98E2,4.4E1,1.6E1,6E0,1E1,1E1,2E0,2E0,1.8E1,1.8E2,4E1,4E0,1.4E1,2E0,4E0,2E0,8E0,2E0,2E0,8E0,1E0,1E0,1E0,1E0,9E0,9E0,7.2E1,1.08E2,2.4E1,1.6E1,2E0,2E0,1.2E1,2E0,1E0,1E0,2E0,2E0,1E0,1E0,4E0,4E0,1E0,1E0,1E0,1E0,4E0,4E0,7E0,2E0,2E0,7E0,6.4E1,8E0,9.6E1,1.2E1,8E0,1.6E1,8E0,8E0,1E0,1E0,1E0,1E0,6E0,6E0,1E0,1E0,1E0,1E0,1E0,1E0,2E0,2E0,1E0,3E0,1E0,3E0],"tree_param":{"num_deleted":"0","num_feature":"3","num_nodes":"85","size_leaf_vector":"1"}},{"base_weights":[-8.2608085E-4,-1.8080631E-4,-7.6329475E-3,1.473996E-4,-3.6405118E-3,-4.607726E-3,-1.249915E-2,-1.1216066E-3,2.7880113E-4,1.4105265E-4,-1.2304238E-2,-8.674088E-3,2.4405175E-3,-5.375296E-3,-1.7123174E-2,-6.126404E-4,-1.0761122E-4,1.5586641E-3,-4.816291E-5,1.9523038E-3,-1.685871E-3,-7.290712E-3,-1.6558701E-2,-3.0101473E-3,-2.2774547E-2,-7.67887E-3,1.1949776E-2,1.0026562E-2,-1.8985389E-2,-2.2504946E-2,-6.033676E-3,-6.7713857E-4,5.480051E-4,5.333268E-4,2.5162334E-3,-1.4712983E-3,4.337112E-4,-6.766319E-5,3.58181E-3,-4.481574E-3,-2.468739E-4,-9.342035E-5,-1.2057766E-2,-6.066051E-3,-1.3853655E-3,-1.3082743E-3,-1.0573507E-3,-1.2300219E-3,-9.018525E-3,9.891726E-3,-9.058599E-3,-1.0496758E-2,1.1893407E-2,-5.331263E-3,9.843215E-3,-6.8799034E-3,-1.6635217E-3,-1.8252254E-3,-8.302E-3,3.2806725E-3,-5.9958273E-3,4.882038E-4,-4.370034E-4,-1.3478682E-3,1.6545312E-3,2.6985423E-3,-1.251708E-3,-2.3777504E-3,4.1546693E-5,-2.228031E-4,4.8108783E-4,-3.693223E-4,3.354907E-4,-5.001426E-5,1.368186E-3,9.118438E-4,-2.9285522E-3,5.2692177E-4,-1.0510148E-3,7.9352263E-4,-8.355618E-4,-5.6491457E-3,2.2315086E-4,-1.0058195E-3,1.0640323E-4,-8.410068E-3,1.2861345E-2,1.1153019E-2,-1.587656E-2],"categories":[],"categories_nodes":[],"categories_segments":[],"categories_sizes":[],"default_left":[0,0,0,0,0,0,0,0,0,0,0,0,0,0,0,0,0,0,0,0,0,0,0,0,0,0,0,0,0,0,0,0,0,0,0,0,0,0,0,0,0,0,0,0,0,0,0,0,0,0,0,0,0,0,0,0,0,0,0,0,0,0,0,0,0,0,0,0,0,0,0,0,0,0,0,0,0,0,0,0,0,0,0,0,0,0,0,0,0],"id":16,"left_children":[1,3,5,7,9,11,13,15,17,19,21,23,25,27,29,-1,31,33,35,37,39,41,43,45,47,49,51,53,55,57,59,61,-1,63,65,67,69,71,73,75,77,79,81,-1,-1,-1,83,-1,-1,85,-1,87,-1,-1,-1,-1,-1,-1,-1,-1,-1,-1,-1,-1,-1,-1,-1,-1,-1,-1,-1,-1,-1,-1,-1,-1,-1,-1,-1,-1,-1,-1,-1,-1,-1,-1,-1,-1,-1],"loss_changes":[1.2679938E-3,3.0144298E-4,3.104409E-4,4.0832798E-5,7.552715E-4,5.084013E-4,2.0442554E-4,2.1248701E-5,9.255676E-5,5.9544633E-5,2.8584385E-5,8.0995087E-4,7.653559E-4,1.2384616E-3,1.6261823E-4,0E0,1.4456524E-5,4.2840446E-5,1.22019774E-4,2.9866293E-5,3.510069E-5,1.7042298E-4,3.7788297E-5,1.9128944E-5,2.8499868E-4,1.8811943E-3,2.90276E-3,2.4830988E-3,3.2006647E-5,8.6241285E-5,9.288454E-4,2.033488E-5,0E0,6.0068746E-4,1.0342308E-3,4.68667E-4,1.8423541E-4,8.2755405E-6,1.9105777E-5,1.488104E-4,5.1819243E-5,2.9481407E-5,2.7411178E-4,0E0,0E0,0E0,1.739485E-5,0E0,0E0,4.954092E-3,0E0,8.03512E-3,0E0,0E0,0E0,0E0,0E0,0E0,0E0,0E0,0E0,0E0,0E0,0E0,0E0,0E0,0E0,0E0,0E0,0E0,0E0,0E0,0E0,0E0,0E0,0E0,0E0,0E0,0E0,0E0,0E0,0E0,0E0,0E0,0E0,0E0,0E0,0E0,0E0],"parents":[2147483647,0,0,1,1,2,2,3,3,4,4,5,5,6,6,7,7,8,8,9,9,10,10,11,11,12,12,13,13,14,14,16,16,17,17,18,18,19,19,20,20,21,21,22,22,23,23,24,24,25,25,26,26,27,27,28,28,29,29,30,30,31,31,33,33,34,34,35,35,36,36,37,37,38,38,39,39,40,40,41,41,42,42,46,46,49,49,51,51],"right_children":[2,4,6,8,10,12,14,16,18,20,22,24,26,28,30,-1,32,34,36,38,40,42,44,46,48,50,52,54,56,58,60,62,-1,64,66,68,70,72,74,76,78,80,82,-1,-1,-1,84,-1,-1,86,-1,88,-1,-1,-1,-1,-1,-1,-1,-1,-1,-1,-1,-1,-1,-1,-1,-1,-1,-1,-1,-1,-1,-1,-1,-1,-1,-1,-1,-1,-1,-1,-1,-1,-1,-1,-1,-1,-1],"split_conditions":[1E-1,1E-2,2.3101296E-4,2.3101296E-5,8.111308E-3,5.3366994E-6,1E0,1E0,1.2328467E-4,2.848036E-4,4.3287612E-2,1.519911E-6,1E0,2.848036E-3,2.848036E-3,-6.126404E-4,8.1113086E-4,5.336699E-5,6.5793324E-4,1E0,6.5793324E-4,1E0,1E0,1E0,1E0,6.579332E-5,6.579332E-5,8.1113086E-4,1E-2,8.1113086E-4,1E-2,1.2328468E-7,5.480051E-4,1E0,1E0,1.2328468E-7,1E0,5.336699E-5,2.3101296E-5,1E0,3.5111918E-3,1.8738175E-2,1.8738175E-2,-6.066051E-3,-1.3853655E-3,-1.3082743E-3,3.5111917E-8,-1.2300219E-3,-9.018525E-3,1.8738174E-5,-9.058599E-3,1.8738174E-5,1.1893407E-2,-5.331263E-3,9.843215E-3,-6.8799034E-3,-1.6635217E-3,-1.8252254E-3,-8.302E-3,3.2806725E-3,-5.9958273E-3,4.882038E-4,-4.370034E-4,-1.3478682E-3,1.6545312E-3,2.6985423E-3,-1.251708E-3,-2.3777504E-3,4.1546693E-5,-2.228031E-4,4.8108783E-4,-3.693223E-4,3.354907E-4,-5.001426E-5,1.368186E-3,9.118438E-4,-2.9285522E-3,5.2692177E-4,-1.0510148E-3,7.9352263E-4,-8.355618E-4,-5.6491457E-3,2.2315086E-4,-1.0058195E-3,1.0640323E-4,-8.410068E-3,1.2861345E-2,1.1153019E-2,-1.587656E-2],"split_indices":[0,2,2,0,0,2,1,1,0,0,0,2,1,2,2,0,2,0,0,1,0,1,1,1,1,2,2,2,2,2,2,2,0,1,1,2,1,0,0,1,0,0,0,0,0,0,2,0,0,2,0,2,0,0,0,0,0,0,0,0,0,0,0,0,0,0,0,0,0,0,0,0,0,0,0,0,0,0,0,0,0,0,0,0,0,0,0,0,0],"split_type":[0,0,0,0,0,0,0,0,0,0,0,0,0,0,0,0,0,0,0,0,0,0,0,0,0,0,0,0,0,0,0,0,0,0,0,0,0,0,0,0,0,0,0,0,0,0,0,0,0,0,0,0,0,0,0,0,0,0,0,0,0,0,0,0,0,0,0,0,0,0,0,0,0,0,0,0,0,0,0,0,0,0,0,0,0,0,0,0,0],"sum_hessian":[2.88E2,2.64E2,2.4E1,2.42E2,2.2E1,1.6E1,8E0,2.2E1,2.2E2,1.6E1,6E0,1E1,6E0,4E0,4E0,1.1E1,1.1E1,4.4E1,1.76E2,8E0,8E0,4E0,2E0,8E0,2E0,3E0,3E0,2E0,2E0,2E0,2E0,9E0,2E0,2.2E1,2.2E1,4.4E1,1.32E2,4E0,4E0,2E0,6E0,2E0,2E0,1E0,1E0,4E0,4E0,1E0,1E0,2E0,1E0,2E0,1E0,1E0,1E0,1E0,1E0,1E0,1E0,1E0,1E0,2E0,7E0,1.1E1,1.1E1,1.1E1,1.1E1,8E0,3.6E1,6.6E1,6.6E1,2E0,2E0,1E0,3E0,1E0,1E0,4E0,2E0,1E0,1E0,1E0,1E0,1E0,3E0,1E0,1E0,1E0,1E0],"tree_param":{"num_deleted":"0","num_feature":"3","num_nodes":"89","size_leaf_vector":"1"}},{"base_weights":[-7.2109536E-4,-1.8132993E-4,-6.4137653E-3,1.0179296E-4,-3.164701E-3,-3.8073896E-3,-1.0624278E-2,2.6731007E-4,-6.324225E-4,2.4830593E-5,-1.0458605E-2,-7.204242E-3,2.0744342E-3,-4.569003E-3,-1.4554699E-2,-1.4326326E-4,7.7636994E-4,-2.631327E-6,-5.6702257E-3,1.5093155E-3,-1.4624132E-3,-6.19711E-3,-1.4074896E-2,-2.3523967E-3,-1.9358365E-2,-6.5270476E-3,1.0157308E-2,8.522573E-3,-1.6137578E-2,-1.9129207E-2,-5.1286244E-3,-2.5026798E-3,1.1512136E-4,2.2575385E-3,-9.47693E-5,-1.8399501E-3,2.6994627E-3,1.4809668E-3,-1.0931343E-2,-5.414486E-5,2.7709126E-3,-2.9833317E-3,3.5098792E-4,-7.941326E-5,-1.0249103E-2,-5.1561426E-3,-1.1775614E-3,-9.942878E-4,-9.2002156E-4,-1.0455184E-3,-7.665746E-3,8.407958E-3,-7.69981E-3,-8.922252E-3,1.01093985E-2,-4.5315735E-3,8.366731E-3,-5.8479165E-3,-1.4139935E-3,-1.5514434E-3,-7.0567E-3,2.788572E-3,-5.0964532E-3,5.882953E-4,-2.4753823E-3,9.3972034E-5,-4.6029795E-4,3.237169E-4,1.5840789E-3,-2.3588515E-4,1.1042019E-3,4.059275E-4,-1.0266455E-3,1.2465895E-3,2.8310617E-4,2.2684427E-3,-1.6020075E-3,-6.226503E-3,1.3073981E-3,-2.9546025E-4,2.683878E-4,-4.2513013E-5,1.0603488E-3,1.2579025E-3,-2.7495683E-3,-1.5738369E-3,1.7493308E-3,6.744951E-4,-7.102311E-4,-4.8017735E-3,1.896769E-4,2.3400188E-4,-6.940127E-4,-7.148558E-3,1.0932139E-2,9.480063E-3,-1.34950755E-2],"categories":[],"categories_nodes":[],"categories_segments":[],"categories_sizes":[],"default_left":[0,0,0,0,0,0,0,0,0,0,0,0,0,0,0,0,0,0,0,0,0,0,0,0,0,0,0,0,0,0,0,0,0,0,0,0,0,0,0,0,0,0,0,0,0,0,0,0,0,0,0,0,0,0,0,0,0,0,0,0,0,0,0,0,0,0,0,0,0,0,0,0,0,0,0,0,0,0,0,0,0,0,0,0,0,0,0,0,0,0,0,0,0,0,0,0,0],"id":17,"left_children":[1,3,5,7,9,11,13,15,17,19,21,23,25,27,29,31,33,35,37,39,41,43,45,47,49,51,53,55,57,59,61,63,65,67,69,71,73,75,77,79,81,83,85,87,89,-1,-1,-1,91,-1,-1,93,-1,95,-1,-1,-1,-1,-1,-1,-1,-1,-1,-1,-1,-1,-1,-1,-1,-1,-1,-1,-1,-1,-1,-1,-1,-1,-1,-1,-1,-1,-1,-1,-1,-1,-1,-1,-1,-1,-1,-1,-1,-1,-1,-1,-1],"loss_changes":[8.868491E-4,2.241572E-4,2.3390376E-4,2.9699679E-5,5.3533487E-4,3.5459944E-4,1.476974E-4,4.1703497E-5,1.4275947E-4,3.973969E-5,2.065202E-5,6.0313055E-4,5.5297004E-4,8.94788E-4,1.17491814E-4,6.795781E-5,1.1505101E-4,2.085158E-4,2.043053E-4,1.7902144E-5,2.5869433E-5,1.2313042E-4,2.7301896E-5,9.350941E-6,2.0591146E-4,1.3591622E-3,2.0972458E-3,1.7940381E-3,2.312474E-5,6.230909E-5,6.7109097E-4,2.9843833E-4,3.3486052E-5,1.118558E-4,1.5170811E-4,1.3093137E-4,3.9532737E-5,1.6480374E-4,5.410422E-4,5.2963005E-6,1.1621021E-5,2.602468E-4,1.839547E-4,2.1300455E-5,1.9804548E-4,0E0,0E0,0E0,1.3648149E-5,0E0,0E0,3.5793306E-3,0E0,5.8053727E-3,0E0,0E0,0E0,0E0,0E0,0E0,0E0,0E0,0E0,0E0,0E0,0E0,0E0,0E0,0E0,0E0,0E0,0E0,0E0,0E0,0E0,0E0,0E0,0E0,0E0,0E0,0E0,0E0,0E0,0E0,0E0,0E0,0E0,0E0,0E0,0E0,0E0,0E0,0E0,0E0,0E0,0E0,0E0],"parents":[2147483647,0,0,1,1,2,2,3,3,4,4,5,5,6,6,7,7,8,8,9,9,10,10,11,11,12,12,13,13,14,14,15,15,16,16,17,17,18,18,19,19,20,20,21,21,22,22,23,23,24,24,25,25,26,26,27,27,28,28,29,29,30,30,31,31,32,32,33,33,34,34,35,35,36,36,37,37,38,38,39,39,40,40,41,41,42,42,43,43,44,44,48,48,51,51,53,53],"right_children":[2,4,6,8,10,12,14,16,18,20,22,24,26,28,30,32,34,36,38,40,42,44,46,48,50,52,54,56,58,60,62,64,66,68,70,72,74,76,78,80,82,84,86,88,90,-1,-1,-1,92,-1,-1,94,-1,96,-1,-1,-1,-1,-1,-1,-1,-1,-1,-1,-1,-1,-1,-1,-1,-1,-1,-1,-1,-1,-1,-1,-1,-1,-1,-1,-1,-1,-1,-1,-1,-1,-1,-1,-1,-1,-1,-1,-1,-1,-1,-1,-1],"split_conditions":[1E-1,1E-2,2.3101296E-4,1.8738175E-2,8.111308E-3,5.3366994E-6,1E0,6.5793324E-4,2.848036E-3,2.848036E-4,4.3287612E-2,1.519911E-6,1E0,2.848036E-3,2.848036E-3,3.5111917E-8,1.519911E-6,1.8738174E-5,1E0,1E0,1.5199111E-3,1E0,1E0,1E0,1E0,6.579332E-5,6.579332E-5,8.1113086E-4,1E-2,8.1113086E-4,1E-2,1.2328467E-4,2.848036E-3,8.111308E-3,2.848036E-3,1.2328468E-7,2.3101296E-4,4.3287612E-2,4.3287612E-2,5.336699E-5,2.3101296E-5,1E0,1E0,1.8738175E-2,1.8738175E-2,-5.1561426E-3,-1.1775614E-3,-9.942878E-4,1.2328468E-7,-1.0455184E-3,-7.665746E-3,1.8738174E-5,-7.69981E-3,1.8738174E-5,1.01093985E-2,-4.5315735E-3,8.366731E-3,-5.8479165E-3,-1.4139935E-3,-1.5514434E-3,-7.0567E-3,2.788572E-3,-5.0964532E-3,5.882953E-4,-2.4753823E-3,9.3972034E-5,-4.6029795E-4,3.237169E-4,1.5840789E-3,-2.3588515E-4,1.1042019E-3,4.059275E-4,-1.0266455E-3,1.2465895E-3,2.8310617E-4,2.2684427E-3,-1.6020075E-3,-6.226503E-3,1.3073981E-3,-2.9546025E-4,2.683878E-4,-4.2513013E-5,1.0603488E-3,1.2579025E-3,-2.7495683E-3,-1.5738369E-3,1.7493308E-3,6.744951E-4,-7.102311E-4,-4.8017735E-3,1.896769E-4,2.3400188E-4,-6.940127E-4,-7.148558E-3,1.0932139E-2,9.480063E-3,-1.34950755E-2],"split_indices":[0,2,2,0,0,2,1,0,2,0,0,2,1,2,2,2,2,2,1,1,0,1,1,1,1,2,2,2,2,2,2,0,2,0,2,2,2,0,0,0,0,1,1,0,0,0,0,0,2,0,0,2,0,2,0,0,0,0,0,0,0,0,0,0,0,0,0,0,0,0,0,0,0,0,0,0,0,0,0,0,0,0,0,0,0,0,0,0,0,0,0,0,0,0,0,0,0],"split_type":[0,0,0,0,0,0,0,0,0,0,0,0,0,0,0,0,0,0,0,0,0,0,0,0,0,0,0,0,0,0,0,0,0,0,0,0,0,0,0,0,0,0,0,0,0,0,0,0,0,0,0,0,0,0,0,0,0,0,0,0,0,0,0,0,0,0,0,0,0,0,0,0,0,0,0,0,0,0,0,0,0,0,0,0,0,0,0,0,0,0,0,0,0,0,0,0,0],"sum_hessian":[2.88E2,2.64E2,2.4E1,2.42E2,2.2E1,1.6E1,8E0,1.98E2,4.4E1,1.6E1,6E0,1E1,6E0,4E0,4E0,1.1E2,8.8E1,4E1,4E0,8E0,8E0,4E0,2E0,8E0,2E0,3E0,3E0,2E0,2E0,2E0,2E0,1E1,1E2,3.2E1,5.6E1,2.4E1,1.6E1,2E0,2E0,4E0,4E0,4E0,4E0,2E0,2E0,1E0,1E0,4E0,4E0,1E0,1E0,2E0,1E0,2E0,1E0,1E0,1E0,1E0,1E0,1E0,1E0,1E0,1E0,6E0,4E0,9E1,1E1,2.4E1,8E0,4.8E1,8E0,8E0,1.6E1,8E0,8E0,1E0,1E0,1E0,1E0,2E0,2E0,1E0,3E0,2E0,2E0,2E0,2E0,1E0,1E0,1E0,1E0,2E0,2E0,1E0,1E0,1E0,1E0],"tree_param":{"num_deleted":"0","num_feature":"3","num_nodes":"97","size_leaf_vector":"1"}},{"base_weights":[-6.309296E-4,-1.8025497E-4,-5.382844E-3,5.963408E-5,-2.7068977E-3,-3.1350206E-3,-9.030637E-3,-8.704066E-4,1.561558E-4,5.702416E-4,-7.86803E-3,-5.967109E-3,1.763264E-3,-3.8836538E-3,-1.23714935E-2,-4.6851934E-4,-1.0654827E-4,1.0434561E-3,-7.031125E-5,-1.1030527E-4,3.3291976E-3,-4.9887532E-3,-1.19636655E-2,-1.8082625E-3,-1.6454613E-2,-5.547993E-3,8.633705E-3,7.244187E-3,-1.3716944E-2,-1.6259825E-2,-4.3593324E-3,-6.0289504E-4,4.7503712E-4,3.0197008E-4,1.7395745E-3,2.2948363E-4,-1.3854612E-3,1.1665954E-3,-2.3866654E-3,-5.1979424E-4,2.0179332E-3,-6.3942997E-3,-9.832581E-4,-4.3827207E-3,-1.0009289E-3,-2.3027328E-3,-5.1744282E-5,-8.8869076E-4,-6.5158852E-3,7.146763E-3,-6.5448396E-3,-7.583914E-3,8.592985E-3,-3.8518368E-3,7.111721E-3,-4.9707294E-3,-1.2018956E-3,-1.318726E-3,-5.998195E-3,2.370286E-3,-4.3319855E-3,3.2233002E-4,-3.469594E-4,-1.0015607E-3,1.1751936E-3,1.9320952E-3,-9.318397E-4,-2.1811602E-4,3.5486312E-4,-2.6091563E-3,-2.3113244E-5,6.9459E-5,8.8786485E-4,1.0063231E-3,-2.1996559E-3,-5.303204E-4,-2.6668296E-3,-6.0369377E-4,1.612276E-4,-2.6550918E-4,-1.1693977E-3,-4.7228675E-4,4.4900182E-4,-6.076273E-3,9.292317E-3,8.058053E-3,-1.1470815E-2],"categories":[],"categories_nodes":[],"categories_segments":[],"categories_sizes":[],"default_left":[0,0,0,0,0,0,0,0,0,0,0,0,0,0,0,0,0,0,0,0,0,0,0,0,0,0,0,0,0,0,0,0,0,0,0,0,0,0,0,0,0,0,0,0,0,0,0,0,0,0,0,0,0,0,0,0,0,0,0,0,0,0,0,0,0,0,0,0,0,0,0,0,0,0,0,0,0,0,0,0,0,0,0,0,0,0,0],"id":18,"left_children":[1,3,5,7,9,11,13,15,17,19,21,23,25,27,29,-1,31,33,35,37,39,41,43,45,47,49,51,53,55,57,59,61,-1,63,65,67,69,71,73,-1,-1,75,77,-1,-1,79,81,-1,-1,83,-1,85,-1,-1,-1,-1,-1,-1,-1,-1,-1,-1,-1,-1,-1,-1,-1,-1,-1,-1,-1,-1,-1,-1,-1,-1,-1,-1,-1,-1,-1,-1,-1,-1,-1,-1,-1],"loss_changes":[6.179426E-4,1.6078161E-4,1.766787E-4,2.194982E-5,3.9350294E-4,2.46352E-4,1.0671135E-4,1.1979302E-5,4.4482058E-5,2.8531214E-5,4.6448433E-5,4.500208E-4,3.9952065E-4,6.464845E-4,8.4887724E-5,0E0,1.1020602E-5,2.2701988E-5,7.010465E-5,4.0571183E-5,6.3243555E-5,3.3122124E-5,1.9725441E-5,7.697758E-6,1.4877116E-4,9.819949E-4,1.5152588E-3,1.2961923E-3,1.6707461E-5,4.501833E-5,4.8486318E-4,1.0528915E-5,0E0,3.1579653E-4,5.4390804E-4,1.3309364E-4,3.1503395E-4,1.4403539E-5,1.665582E-4,0E0,0E0,4.2005282E-5,5.7760653E-6,0E0,0E0,1.2381381E-5,9.428797E-6,0E0,0E0,2.5860656E-3,0E0,4.194382E-3,0E0,0E0,0E0,0E0,0E0,0E0,0E0,0E0,0E0,0E0,0E0,0E0,0E0,0E0,0E0,0E0,0E0,0E0,0E0,0E0,0E0,0E0,0E0,0E0,0E0,0E0,0E0,0E0,0E0,0E0,0E0,0E0,0E0,0E0,0E0],"parents":[2147483647,0,0,1,1,2,2,3,3,4,4,5,5,6,6,7,7,8,8,9,9,10,10,11,11,12,12,13,13,14,14,16,16,17,17,18,18,19,19,20,20,21,21,22,22,23,23,24,24,25,25,26,26,27,27,28,28,29,29,30,30,31,31,33,33,34,34,35,35,36,36,37,37,38,38,41,41,42,42,45,45,46,46,49,49,51,51],"right_children":[2,4,6,8,10,12,14,16,18,20,22,24,26,28,30,-1,32,34,36,38,40,42,44,46,48,50,52,54,56,58,60,62,-1,64,66,68,70,72,74,-1,-1,76,78,-1,-1,80,82,-1,-1,84,-1,86,-1,-1,-1,-1,-1,-1,-1,-1,-1,-1,-1,-1,-1,-1,-1,-1,-1,-1,-1,-1,-1,-1,-1,-1,-1,-1,-1,-1,-1,-1,-1,-1,-1,-1,-1],"split_conditions":[1E-1,1E-2,2.3101296E-4,2.3101296E-5,3.5111918E-3,5.3366994E-6,1E0,1E0,1.2328467E-4,1.5199111E-3,4.3287612E-2,1.519911E-6,1E0,2.848036E-3,2.848036E-3,-4.6851934E-4,8.1113086E-4,5.336699E-5,8.1113086E-4,2.848036E-4,1E0,1.8738175E-2,1E0,4.3287613E-7,1E0,6.579332E-5,6.579332E-5,8.1113086E-4,1E-2,8.1113086E-4,1E-2,1.2328468E-7,4.7503712E-4,1E0,1E0,1E0,2.848036E-4,1.2328467E-4,1E0,-5.1979424E-4,2.0179332E-3,1E0,1E0,-4.3827207E-3,-1.0009289E-3,1.2328468E-7,1E0,-8.8869076E-4,-6.5158852E-3,1.8738174E-5,-6.5448396E-3,1.8738174E-5,8.592985E-3,-3.8518368E-3,7.111721E-3,-4.9707294E-3,-1.2018956E-3,-1.318726E-3,-5.998195E-3,2.370286E-3,-4.3319855E-3,3.2233002E-4,-3.469594E-4,-1.0015607E-3,1.1751936E-3,1.9320952E-3,-9.318397E-4,-2.1811602E-4,3.5486312E-4,-2.6091563E-3,-2.3113244E-5,6.9459E-5,8.8786485E-4,1.0063231E-3,-2.1996559E-3,-5.303204E-4,-2.6668296E-3,-6.0369377E-4,1.612276E-4,-2.6550918E-4,-1.1693977E-3,-4.7228675E-4,4.4900182E-4,-6.076273E-3,9.292317E-3,8.058053E-3,-1.1470815E-2],"split_indices":[0,2,2,0,0,2,1,1,0,0,0,2,1,2,2,0,2,0,2,0,1,0,1,2,1,2,2,2,2,2,2,2,0,1,1,1,0,0,1,0,0,1,1,0,0,2,1,0,0,2,0,2,0,0,0,0,0,0,0,0,0,0,0,0,0,0,0,0,0,0,0,0,0,0,0,0,0,0,0,0,0,0,0,0,0,0,0],"split_type":[0,0,0,0,0,0,0,0,0,0,0,0,0,0,0,0,0,0,0,0,0,0,0,0,0,0,0,0,0,0,0,0,0,0,0,0,0,0,0,0,0,0,0,0,0,0,0,0,0,0,0,0,0,0,0,0,0,0,0,0,0,0,0,0,0,0,0,0,0,0,0,0,0,0,0,0,0,0,0,0,0,0,0,0,0,0,0],"sum_hessian":[2.88E2,2.64E2,2.4E1,2.42E2,2.2E1,1.6E1,8E0,2.2E1,2.2E2,1.4E1,8E0,1E1,6E0,4E0,4E0,1.1E1,1.1E1,4.4E1,1.76E2,1.2E1,2E0,6E0,2E0,8E0,2E0,3E0,3E0,2E0,2E0,2E0,2E0,9E0,2E0,2.2E1,2.2E1,1.44E2,3.2E1,8E0,4E0,1E0,1E0,4E0,2E0,1E0,1E0,6E0,2E0,1E0,1E0,2E0,1E0,2E0,1E0,1E0,1E0,1E0,1E0,1E0,1E0,1E0,1E0,2E0,7E0,1.1E1,1.1E1,1.1E1,1.1E1,7.2E1,7.2E1,4E0,2.8E1,6E0,2E0,2E0,2E0,2E0,2E0,1E0,1E0,4E0,2E0,1E0,1E0,1E0,1E0,1E0,1E0],"tree_param":{"num_deleted":"0","num_feature":"3","num_nodes":"87","size_leaf_vector":"1"}},{"base_weights":[-5.395967E-4,-1.6053217E-4,-4.536097E-3,3.6218284E-5,-2.232264E-3,-2.6069423E-3,-7.6760445E-3,2.1361059E-4,-4.3295568E-4,1.09609435E-4,-7.600776E-3,-4.982678E-3,1.4987768E-3,-3.3011064E-3,-1.0515774E-2,-1.1031692E-4,7.470784E-4,1.2834263E-3,-1.4207835E-3,4.8332213E-4,-1.7954906E-3,-4.539618E-3,-1.0169114E-2,-1.4278003E-3,-1.3986419E-2,-4.715789E-3,7.3386487E-3,6.157557E-3,-1.16594015E-2,-1.3820852E-2,-3.705437E-3,7.2946824E-4,-9.4813213E-4,-8.3383394E-4,2.3060178E-3,-1.9636888E-3,4.4318163E-3,9.866235E-4,-3.7636093E-3,-9.5358264E-5,2.82983E-3,-1.2892574E-3,4.8128667E-4,3.1050047E-4,-7.87653E-3,-3.7253136E-3,-8.507878E-4,-8.5511734E-4,-6.141471E-4,-7.553872E-4,-5.5385013E-3,6.074754E-3,-5.563113E-3,-6.446334E-3,7.30404E-3,-3.274061E-3,6.044962E-3,-4.22512E-3,-1.021611E-3,-1.1209175E-3,-5.098466E-3,2.0147413E-3,-3.682188E-3,8.821146E-4,-2.2866742E-3,-8.6710695E-4,1.924266E-3,-7.1376713E-4,1.534299E-4,-4.4956864E-4,1.1206828E-3,1.6922773E-3,-1.7910859E-3,-1.3576046E-3,2.2714504E-3,7.051125E-4,-6.814408E-4,-2.7267442E-3,-3.595384E-4,2.7689934E-4,-5.7279825E-4,-4.4182243E-4,1.7152459E-3,6.528676E-4,-5.131424E-4,-3.6814818E-3,1.3704301E-4,5.188115E-4,-5.6922866E-4,-5.164832E-3,7.898471E-3,6.849343E-3,-9.750193E-3],"categories":[],"categories_nodes":[],"categories_segments":[],"categories_sizes":[],"default_left":[0,0,0,0,0,0,0,0,0,0,0,0,0,0,0,0,0,0,0,0,0,0,0,0,0,0,0,0,0,0,0,0,0,0,0,0,0,0,0,0,0,0,0,0,0,0,0,0,0,0,0,0,0,0,0,0,0,0,0,0,0,0,0,0,0,0,0,0,0,0,0,0,0,0,0,0,0,0,0,0,0,0,0,0,0,0,0,0,0,0,0,0,0],"id":19,"left_children":[1,3,5,7,9,11,13,15,17,19,21,23,25,27,29,31,33,35,37,39,41,43,45,47,49,51,53,55,57,59,61,63,65,67,69,71,73,75,77,79,81,-1,-1,83,85,-1,-1,-1,87,-1,-1,89,-1,91,-1,-1,-1,-1,-1,-1,-1,-1,-1,-1,-1,-1,-1,-1,-1,-1,-1,-1,-1,-1,-1,-1,-1,-1,-1,-1,-1,-1,-1,-1,-1,-1,-1,-1,-1,-1,-1,-1,-1],"loss_changes":[4.3708697E-4,1.08098604E-4,1.314251E-4,2.0316851E-5,2.8999776E-4,1.732877E-4,7.7099074E-5,3.066888E-5,1.15421295E-4,1.29711225E-5,8.870702E-6,3.3210934E-4,2.886534E-4,4.6708493E-4,6.133114E-5,7.878955E-5,1.6704746E-4,2.6428234E-4,2.4623907E-4,2.0638015E-5,3.241356E-5,8.336776E-5,1.4251855E-5,8.666899E-6,1.0748708E-4,7.0949155E-4,1.0947759E-3,9.3649863E-4,1.2071192E-5,3.2525684E-5,3.5031344E-4,1.056448E-3,8.1930234E-4,7.1901515E-5,1.9052383E-4,4.2976998E-4,3.9985837E-4,1.0308984E-4,2.896444E-4,2.5776772E-5,4.569342E-5,0E0,0E0,1.50341275E-5,1.1548276E-4,0E0,0E0,0E0,2.4333125E-5,0E0,0E0,1.8684326E-3,0E0,3.03044E-3,0E0,0E0,0E0,0E0,0E0,0E0,0E0,0E0,0E0,0E0,0E0,0E0,0E0,0E0,0E0,0E0,0E0,0E0,0E0,0E0,0E0,0E0,0E0,0E0,0E0,0E0,0E0,0E0,0E0,0E0,0E0,0E0,0E0,0E0,0E0,0E0,0E0,0E0,0E0],"parents":[2147483647,0,0,1,1,2,2,3,3,4,4,5,5,6,6,7,7,8,8,9,9,10,10,11,11,12,12,13,13,14,14,15,15,16,16,17,17,18,18,19,19,20,20,21,21,22,22,23,23,24,24,25,25,26,26,27,27,28,28,29,29,30,30,31,31,32,32,33,33,34,34,35,35,36,36,37,37,38,38,39,39,40,40,43,43,44,44,48,48,51,51,53,53],"right_children":[2,4,6,8,10,12,14,16,18,20,22,24,26,28,30,32,34,36,38,40,42,44,46,48,50,52,54,56,58,60,62,64,66,68,70,72,74,76,78,80,82,-1,-1,84,86,-1,-1,-1,88,-1,-1,90,-1,92,-1,-1,-1,-1,-1,-1,-1,-1,-1,-1,-1,-1,-1,-1,-1,-1,-1,-1,-1,-1,-1,-1,-1,-1,-1,-1,-1,-1,-1,-1,-1,-1,-1,-1,-1,-1,-1,-1,-1],"split_conditions":[1E-1,1E-2,2.3101296E-4,8.111308E-3,8.111308E-3,5.3366994E-6,1E0,6.5793324E-4,1.519911E-6,3.5111918E-3,4.3287612E-2,1.519911E-6,1E0,2.848036E-3,2.848036E-3,1E0,1E0,1E0,1E0,1.5199111E-3,1E0,1E0,1E0,3.5111917E-8,1E0,6.579332E-5,6.579332E-5,8.1113086E-4,1E-2,8.1113086E-4,1E-2,2.848036E-4,2.848036E-4,5.3366994E-6,4.3287613E-7,1.8738175E-2,3.5111917E-8,8.1113086E-4,1.8738174E-5,2.848036E-4,1E0,-1.2892574E-3,4.8128667E-4,1.8738175E-2,1.8738175E-2,-3.7253136E-3,-8.507878E-4,-8.5511734E-4,1.2328468E-7,-7.553872E-4,-5.5385013E-3,1.8738174E-5,-5.563113E-3,1.8738174E-5,7.30404E-3,-3.274061E-3,6.044962E-3,-4.22512E-3,-1.021611E-3,-1.1209175E-3,-5.098466E-3,2.0147413E-3,-3.682188E-3,8.821146E-4,-2.2866742E-3,-8.6710695E-4,1.924266E-3,-7.1376713E-4,1.534299E-4,-4.4956864E-4,1.1206828E-3,1.6922773E-3,-1.7910859E-3,-1.3576046E-3,2.2714504E-3,7.051125E-4,-6.814408E-4,-2.7267442E-3,-3.595384E-4,2.7689934E-4,-5.7279825E-4,-4.4182243E-4,1.7152459E-3,6.528676E-4,-5.131424E-4,-3.6814818E-3,1.3704301E-4,5.188115E-4,-5.6922866E-4,-5.164832E-3,7.898471E-3,6.849343E-3,-9.750193E-3],"split_indices":[0,2,2,0,0,2,1,0,2,0,0,2,1,2,2,1,1,1,1,0,1,1,1,2,1,2,2,2,2,2,2,0,0,2,2,0,2,2,2,0,1,0,0,0,0,0,0,0,2,0,0,2,0,2,0,0,0,0,0,0,0,0,0,0,0,0,0,0,0,0,0,0,0,0,0,0,0,0,0,0,0,0,0,0,0,0,0,0,0,0,0,0,0],"split_type":[0,0,0,0,0,0,0,0,0,0,0,0,0,0,0,0,0,0,0,0,0,0,0,0,0,0,0,0,0,0,0,0,0,0,0,0,0,0,0,0,0,0,0,0,0,0,0,0,0,0,0,0,0,0,0,0,0,0,0,0,0,0,0,0,0,0,0,0,0,0,0,0,0,0,0,0,0,0,0,0,0,0,0,0,0,0,0,0,0,0,0,0,0],"sum_hessian":[2.88E2,2.64E2,2.4E1,2.42E2,2.2E1,1.6E1,8E0,1.76E2,6.6E1,1.6E1,6E0,1E1,6E0,4E0,4E0,1.1E2,6.6E1,2.4E1,4.2E1,1.4E1,2E0,4E0,2E0,8E0,2E0,3E0,3E0,2E0,2E0,2E0,2E0,5.5E1,5.5E1,3.3E1,3.3E1,1.2E1,1.2E1,2.1E1,2.1E1,1.2E1,2E0,1E0,1E0,2E0,2E0,1E0,1E0,2E0,6E0,1E0,1E0,2E0,1E0,2E0,1E0,1E0,1E0,1E0,1E0,1E0,1E0,1E0,1E0,4.4E1,1.1E1,4.4E1,1.1E1,1.5E1,1.8E1,9E0,2.4E1,4E0,8E0,3E0,9E0,1.5E1,6E0,6E0,1.5E1,8E0,4E0,1E0,1E0,1E0,1E0,1E0,1E0,2E0,4E0,1E0,1E0,1E0,1E0],"tree_param":{"num_deleted":"0","num_feature":"3","num_nodes":"93","size_leaf_vector":"1"}},{"base_weights":[-4.6866015E-4,-1.5121789E-4,-3.8148018E-3,1.5136268E-5,-1.902211E-3,-2.1557827E-3,-6.5246383E-3,1.5941683E-4,-3.6624874E-4,8.6689695E-5,-6.460654E-3,-4.142369E-3,1.2739652E-3,-2.8059394E-3,-8.938409E-3,1.4203594E-5,1.1310966E-3,7.500209E-4,-7.9161354E-4,4.0348372E-4,-1.5261769E-3,-3.8586706E-3,-8.643742E-3,-1.1000774E-3,-1.1888455E-2,-4.008416E-3,6.237855E-3,5.2339262E-3,-9.910491E-3,-1.17477225E-2,-3.149626E-3,2.6199679E-4,-5.973352E-4,2.0171483E-3,-4.7133365E-4,-8.619189E-4,2.2869587E-3,7.539773E-4,-2.3055398E-3,-8.952618E-5,2.4053652E-3,-1.0958702E-3,4.0909054E-4,2.6392937E-4,-6.695047E-3,-3.1665156E-3,-7.2316825E-4,-1.5581718E-3,3.3550212E-4,-6.420795E-4,-4.7077253E-3,5.163548E-3,-4.7286465E-3,-5.479388E-3,6.208438E-3,-2.7829518E-3,5.1382184E-3,-3.5913517E-3,-8.6836965E-4,-9.527788E-4,-4.333697E-3,1.7125279E-3,-3.1298597E-3,-2.1434363E-4,3.7013815E-4,3.6235715E-4,-8.153788E-4,3.1191656E-5,1.7468119E-3,-5.476458E-4,8.5363985E-4,-7.568811E-4,6.781027E-4,-3.080562E-4,1.1561573E-3,3.8379955E-3,-4.407796E-4,-4.6493593E-3,5.9358506E-5,2.9038874E-4,-3.402676E-4,-3.7554503E-4,1.4579594E-3,5.5494014E-4,-4.3617192E-4,-3.1292597E-3,1.1648834E-4,-1.6142786E-4,-8.216739E-4,-3.1605922E-4,4.670352E-4,-4.390107E-3,6.7137037E-3,5.8219405E-3,-8.287665E-3],"categories":[],"categories_nodes":[],"categories_segments":[],"categories_sizes":[],"default_left":[0,0,0,0,0,0,0,0,0,0,0,0,0,0,0,0,0,0,0,0,0,0,0,0,0,0,0,0,0,0,0,0,0,0,0,0,0,0,0,0,0,0,0,0,0,0,0,0,0,0,0,0,0,0,0,0,0,0,0,0,0,0,0,0,0,0,0,0,0,0,0,0,0,0,0,0,0,0,0,0,0,0,0,0,0,0,0,0,0,0,0,0,0,0,0],"id":20,"left_children":[1,3,5,7,9,11,13,15,17,19,21,23,25,27,29,31,33,35,37,39,41,43,45,47,49,51,53,55,57,59,61,63,65,67,69,71,73,75,77,79,81,-1,-1,83,85,-1,-1,87,89,-1,-1,91,-1,93,-1,-1,-1,-1,-1,-1,-1,-1,-1,-1,-1,-1,-1,-1,-1,-1,-1,-1,-1,-1,-1,-1,-1,-1,-1,-1,-1,-1,-1,-1,-1,-1,-1,-1,-1,-1,-1,-1,-1,-1,-1],"loss_changes":[3.064009E-4,7.721931E-5,9.832607E-5,1.34298125E-5,2.0908476E-4,1.21106576E-4,5.570418E-5,2.495877E-5,3.240679E-5,9.301877E-6,6.4091582E-6,2.461461E-4,2.0855204E-4,3.3746898E-4,4.43116E-5,2.3644448E-5,3.3606982E-5,4.904275E-5,1.1639393E-4,1.5019554E-5,2.3418717E-5,6.0233244E-5,1.02970225E-5,6.441449E-6,7.765932E-5,5.126081E-4,7.9097657E-4,6.7662046E-4,8.7214285E-6,2.3499975E-5,2.5310117E-4,1.0621342E-4,1.7554646E-4,1.0860515E-4,4.5617424E-5,5.7564015E-5,5.5881435E-5,6.879561E-4,8.287085E-4,1.5459735E-5,3.3013315E-5,0E0,0E0,1.08622335E-5,8.343648E-5,0E0,0E0,6.9573543E-6,6.7293217E-6,0E0,0E0,1.3499432E-3,0E0,2.189493E-3,0E0,0E0,0E0,0E0,0E0,0E0,0E0,0E0,0E0,0E0,0E0,0E0,0E0,0E0,0E0,0E0,0E0,0E0,0E0,0E0,0E0,0E0,0E0,0E0,0E0,0E0,0E0,0E0,0E0,0E0,0E0,0E0,0E0,0E0,0E0,0E0,0E0,0E0,0E0,0E0,0E0],"parents":[2147483647,0,0,1,1,2,2,3,3,4,4,5,5,6,6,7,7,8,8,9,9,10,10,11,11,12,12,13,13,14,14,15,15,16,16,17,17,18,18,19,19,20,20,21,21,22,22,23,23,24,24,25,25,26,26,27,27,28,28,29,29,30,30,31,31,32,32,33,33,34,34,35,35,36,36,37,37,38,38,39,39,40,40,43,43,44,44,47,47,48,48,51,51,53,53],"right_children":[2,4,6,8,10,12,14,16,18,20,22,24,26,28,30,32,34,36,38,40,42,44,46,48,50,52,54,56,58,60,62,64,66,68,70,72,74,76,78,80,82,-1,-1,84,86,-1,-1,88,90,-1,-1,92,-1,94,-1,-1,-1,-1,-1,-1,-1,-1,-1,-1,-1,-1,-1,-1,-1,-1,-1,-1,-1,-1,-1,-1,-1,-1,-1,-1,-1,-1,-1,-1,-1,-1,-1,-1,-1,-1,-1,-1,-1,-1,-1],"split_conditions":[1E-1,1E-2,2.3101296E-4,2.3101296E-4,8.111308E-3,5.3366994E-6,1E0,6.579332E-5,1.2328467E-4,3.5111918E-3,4.3287612E-2,1.519911E-6,1E0,2.848036E-3,2.848036E-3,5.3366994E-6,3.5111918E-3,1E0,1E0,1.5199111E-3,1E0,1E0,1E0,4.3287613E-7,1E0,6.579332E-5,6.579332E-5,8.1113086E-4,1E-2,8.1113086E-4,1E-2,1E0,1.5199111E-3,6.5793324E-4,4.3287612E-2,5.336699E-5,8.1113086E-4,2.848036E-4,2.848036E-4,1E0,1E0,-1.0958702E-3,4.0909054E-4,1.8738175E-2,1.8738175E-2,-3.1665156E-3,-7.2316825E-4,1.2328468E-7,1E0,-6.420795E-4,-4.7077253E-3,1.8738174E-5,-4.7286465E-3,1.8738174E-5,6.208438E-3,-2.7829518E-3,5.1382184E-3,-3.5913517E-3,-8.6836965E-4,-9.527788E-4,-4.333697E-3,1.7125279E-3,-3.1298597E-3,-2.1434363E-4,3.7013815E-4,3.6235715E-4,-8.153788E-4,3.1191656E-5,1.7468119E-3,-5.476458E-4,8.5363985E-4,-7.568811E-4,6.781027E-4,-3.080562E-4,1.1561573E-3,3.8379955E-3,-4.407796E-4,-4.6493593E-3,5.9358506E-5,2.9038874E-4,-3.402676E-4,-3.7554503E-4,1.4579594E-3,5.5494014E-4,-4.3617192E-4,-3.1292597E-3,1.1648834E-4,-1.6142786E-4,-8.216739E-4,-3.1605922E-4,4.670352E-4,-4.390107E-3,6.7137037E-3,5.8219405E-3,-8.287665E-3],"split_indices":[0,2,2,2,0,2,1,2,0,0,0,2,1,2,2,2,0,1,1,0,1,1,1,2,1,2,2,2,2,2,2,1,0,0,0,0,2,0,0,1,1,0,0,0,0,0,0,2,1,0,0,2,0,2,0,0,0,0,0,0,0,0,0,0,0,0,0,0,0,0,0,0,0,0,0,0,0,0,0,0,0,0,0,0,0,0,0,0,0,0,0,0,0,0,0],"split_type":[0,0,0,0,0,0,0,0,0,0,0,0,0,0,0,0,0,0,0,0,0,0,0,0,0,0,0,0,0,0,0,0,0,0,0,0,0,0,0,0,0,0,0,0,0,0,0,0,0,0,0,0,0,0,0,0,0,0,0,0,0,0,0,0,0,0,0,0,0,0,0,0,0,0,0,0,0,0,0,0,0,0,0,0,0,0,0,0,0,0,0,0,0,0,0],"sum_hessian":[2.88E2,2.64E2,2.4E1,2.42E2,2.2E1,1.6E1,8E0,1.76E2,6.6E1,1.6E1,6E0,1E1,6E0,4E0,4E0,1.54E2,2.2E1,1.8E1,4.8E1,1.4E1,2E0,4E0,2E0,8E0,2E0,3E0,3E0,2E0,2E0,2E0,2E0,1.1E2,4.4E1,1.4E1,8E0,9E0,9E0,2.4E1,2.4E1,1.2E1,2E0,1E0,1E0,2E0,2E0,1E0,1E0,6E0,2E0,1E0,1E0,2E0,1E0,2E0,1E0,1E0,1E0,1E0,1E0,1E0,1E0,1E0,1E0,5.5E1,5.5E1,2.4E1,2E1,1E1,4E0,6E0,2E0,6E0,3E0,3E0,6E0,3E0,2.1E1,3E0,2.1E1,6E0,6E0,1E0,1E0,1E0,1E0,1E0,1E0,4E0,2E0,1E0,1E0,1E0,1E0,1E0,1E0],"tree_param":{"num_deleted":"0","num_feature":"3","num_nodes":"95","size_leaf_vector":"1"}},{"base_weights":[-3.928627E-4,-1.2500258E-4,-3.2164657E-3,1.6204247E-5,-1.6114485E-3,-1.7940087E-3,-5.545944E-3,-7.052603E-4,9.121547E-5,8.103076E-5,-5.491548E-3,-3.461661E-3,1.0828748E-3,-2.38505E-3,-7.597649E-3,-1.725326E-3,3.735771E-4,3.3984153E-4,-1.5823235E-4,6.990168E-4,-5.459587E-4,-3.279856E-3,-7.3471866E-3,-8.625231E-4,-1.0105188E-2,-3.4071505E-3,5.3021815E-3,4.448836E-3,-8.42392E-3,-9.985566E-3,-2.6771824E-3,-5.971253E-4,-6.9753826E-4,3.5725834E-4,9.103418E-5,3.1313335E-3,-8.8131963E-4,-2.9084226E-3,1.0425972E-3,-7.164121E-4,1.9746423E-3,-2.5158327E-3,3.762671E-4,2.2435188E-4,-5.690778E-3,-2.6915388E-3,-6.1469525E-4,-6.5181335E-4,-1.7779639E-4,-5.4576807E-4,-4.0015667E-3,4.38902E-3,-4.01935E-3,-4.6574795E-3,5.277175E-3,-2.3655095E-3,4.3674856E-3,-3.052649E-3,-7.381149E-4,-8.0986175E-4,-3.6836432E-3,1.4556483E-3,-2.6603804E-3,8.799434E-5,-5.505145E-4,-2.7929398E-4,1.9861119E-4,-9.04052E-4,1.8603577E-3,-4.827382E-4,1.7064415E-3,2.2060354E-4,-2.894983E-3,6.36294E-4,-2.5975127E-3,-3.14489E-4,9.166897E-5,-3.705025E-5,7.59016E-4,4.777998E-4,-1.6099245E-3,3.9153456E-4,-3.8917066E-4,4.7170222E-4,-3.707439E-4,-2.6598684E-3,9.901822E-5,4.4733364E-4,-3.4307467E-4,-3.731591E-3,5.70665E-3,4.948649E-3,-7.044515E-3],"categories":[],"categories_nodes":[],"categories_segments":[],"categories_sizes":[],"default_left":[0,0,0,0,0,0,0,0,0,0,0,0,0,0,0,0,0,0,0,0,0,0,0,0,0,0,0,0,0,0,0,0,0,0,0,0,0,0,0,0,0,0,0,0,0,0,0,0,0,0,0,0,0,0,0,0,0,0,0,0,0,0,0,0,0,0,0,0,0,0,0,0,0,0,0,0,0,0,0,0,0,0,0,0,0,0,0,0,0,0,0,0,0],"id":21,"left_children":[1,3,5,7,9,11,13,15,17,19,21,23,25,27,29,31,33,35,37,39,41,43,45,47,49,51,53,55,57,59,61,-1,63,-1,65,67,69,71,73,75,77,79,81,83,85,-1,-1,-1,87,-1,-1,89,-1,91,-1,-1,-1,-1,-1,-1,-1,-1,-1,-1,-1,-1,-1,-1,-1,-1,-1,-1,-1,-1,-1,-1,-1,-1,-1,-1,-1,-1,-1,-1,-1,-1,-1,-1,-1,-1,-1,-1,-1],"loss_changes":[2.181775E-4,5.5648637E-5,7.289011E-5,1.321499E-5,1.5148573E-4,8.530845E-5,4.0246232E-5,2.5955698E-5,1.3760022E-5,6.968636E-6,4.630987E-6,1.812259E-4,1.5067888E-4,2.4382137E-4,3.2015174E-5,1.8811043E-6,2.6626044E-6,3.811433E-4,3.6961088E-4,1.7664674E-5,1.7296641E-5,4.3518598E-5,7.4394484E-6,7.687786E-6,5.610881E-5,3.7035957E-4,5.7148095E-4,4.888584E-4,6.3011685E-6,1.6978767E-5,1.8286554E-4,0E0,5.046665E-6,0E0,6.4520755E-6,6.6005625E-4,3.820945E-4,8.422901E-4,8.343506E-4,2.0162104E-6,6.139122E-6,4.3681743E-5,1.257405E-5,7.847976E-6,6.028301E-5,0E0,0E0,0E0,1.2987865E-5,0E0,0E0,9.753345E-4,0E0,1.5819084E-3,0E0,0E0,0E0,0E0,0E0,0E0,0E0,0E0,0E0,0E0,0E0,0E0,0E0,0E0,0E0,0E0,0E0,0E0,0E0,0E0,0E0,0E0,0E0,0E0,0E0,0E0,0E0,0E0,0E0,0E0,0E0,0E0,0E0,0E0,0E0,0E0,0E0,0E0,0E0],"parents":[2147483647,0,0,1,1,2,2,3,3,4,4,5,5,6,6,7,7,8,8,9,9,10,10,11,11,12,12,13,13,14,14,15,15,16,16,17,17,18,18,19,19,20,20,21,21,22,22,23,23,24,24,25,25,26,26,27,27,28,28,29,29,30,30,32,32,34,34,35,35,36,36,37,37,38,38,39,39,40,40,41,41,42,42,43,43,44,44,48,48,51,51,53,53],"right_children":[2,4,6,8,10,12,14,16,18,20,22,24,26,28,30,32,34,36,38,40,42,44,46,48,50,52,54,56,58,60,62,-1,64,-1,66,68,70,72,74,76,78,80,82,84,86,-1,-1,-1,88,-1,-1,90,-1,92,-1,-1,-1,-1,-1,-1,-1,-1,-1,-1,-1,-1,-1,-1,-1,-1,-1,-1,-1,-1,-1,-1,-1,-1,-1,-1,-1,-1,-1,-1,-1,-1,-1,-1,-1,-1,-1,