{"learner":{"attributes":{"scikit_learn":"{\"_estimator_type\": \"regressor\"}"},"feature_names":[],"feature_types":[],"gradient_booster":{"model":{"gbtree_model_param":{"num_parallel_tree":"1","num_trees":"100"},"iteration_indptr":[0,1,2,3,4,5,6,7,8,9,10,11,12,13,14,15,16,17,18,19,20,21,22,23,24,25,26,27,28,29,30,31,32,33,34,35,36,37,38,39,40,41,42,43,44,45,46,47,48,49,50,51,52,53,54,55,56,57,58,59,60,61,62,63,64,65,66,67,68,69,70,71,72,73,74,75,76,77,78,79,80,81,82,83,84,85,86,87,88,89,90,91,92,93,94,95,96,97,98,99,100],"tree_info":[0,0,0,0,0,0,0,0,0,0,0,0,0,0,0,0,0,0,0,0,0,0,0,0,0,0,0,0,0,0,0,0,0,0,0,0,0,0,0,0,0,0,0,0,0,0,0,0,0,0,0,0,0,0,0,0,0,0,0,0,0,0,0,0,0,0,0,0,0,0,0,0,0,0,0,0,0,0,0,0,0,0,0,0,0,0,0,0,0,0,0,0,0,0,0,0,0,0,0,0],"trees":[{"base_weights":[1.4305114E-8,3.138117E-2,-2.4058886E-1,3.6592077E-2,-1.5555561E-2,-8.9315E-2,-1.8949995E-2,1.1444489E-3,4.0263172E-2,-8.000001E-3,9.999991E-4,-2.4500192E-4,7.60004E-4,2.6259277E-2,4.806062E-2,9.642862E-3,3.777802E-3,1.8000003E-2,6.5200035E-3,4.0600062E-3,-2.3599954E-3],"categories":[],"categories_nodes":[],"categories_segments":[],"categories_sizes":[],"default_left":[0,0,0,0,0,0,0,0,0,0,0,0,0,0,0,0,0,0,0,0,0],"id":0,"left_children":[1,3,5,7,9,-1,-1,11,13,-1,-1,-1,-1,15,17,-1,19,-1,-1,-1,-1],"loss_changes":[1.962989E-1,6.1946176E-3,1.1601433E-2,2.6866887E-3,7.185185E-4,0E0,0E0,1.0240307E-5,8.126609E-4,0E0,0E0,0E0,0E0,1.0690168E-3,2.1536462E-3,0E0,4.4725635E-4,0E0,0E0,0E0,0E0],"parents":[2147483647,0,0,1,1,2,2,3,3,4,4,7,7,8,8,13,13,14,14,16,16],"right_children":[2,4,6,8,10,-1,-1,12,14,-1,-1,-1,-1,16,18,-1,20,-1,-1,-1,-1],"split_conditions":[1E-1,4.3287612E-2,1E0,2.3101296E-5,1E0,-8.9315E-2,-1.8949995E-2,1E0,6.5793324E-4,-8.000001E-3,9.999991E-4,-2.4500192E-4,7.60004E-4,2.848036E-4,8.111308E-3,9.642862E-3,1E0,1.8000003E-2,6.5200035E-3,4.0600062E-3,-2.3599954E-3],"split_indices":[0,0,1,0,1,0,0,1,0,0,0,0,0,0,0,0,1,0,0,0,0],"split_type":[0,0,0,0,0,0,0,0,0,0,0,0,0,0,0,0,0,0,0,0,0],"sum_hessian":[2.4E1,2.2E1,2E0,2E1,2E0,1E0,1E0,2E0,1.8E1,1E0,1E0,1E0,1E0,8E0,1E1,6E0,2E0,6E0,4E0,1E0,1E0],"tree_param":{"num_deleted":"0","num_feature":"2","num_nodes":"21","size_leaf_vector":"1"}},{"base_weights":[-3.155477E-3,2.3244116E-2,-2.0450054E-1,2.734673E-2,-1.3222218E-2,-7.591775E-2,-1.6107498E-2,9.7276765E-4,3.007174E-2,-6.799999E-3,8.50001E-4,-2.0825566E-4,6.4600114E-4,1.9641824E-2,3.587151E-2,8.668696E-3,6.4596296E-3,1.337143E-2,4.9551954E-3,5.3347647E-3,-2.1049501E-3],"categories":[],"categories_nodes":[],"categories_segments":[],"categories_sizes":[],"default_left":[0,0,0,0,0,0,0,0,0,0,0,0,0,0,0,0,0,0,0,0,0],"id":1,"left_children":[1,3,5,7,9,-1,-1,11,13,-1,-1,-1,-1,15,17,-1,19,-1,-1,-1,-1],"loss_changes":[1.3763914E-1,3.8025538E-3,8.382037E-3,1.4800001E-3,5.191296E-4,0E0,0E0,7.3986766E-6,4.4475123E-4,0E0,0E0,0E0,0E0,9.112165E-4,1.1159806E-3,0E0,8.877169E-4,0E0,0E0,0E0,0E0],"parents":[2147483647,0,0,1,1,2,2,3,3,4,4,7,7,8,8,13,13,14,14,16,16],"right_children":[2,4,6,8,10,-1,-1,12,14,-1,-1,-1,-1,16,18,-1,20,-1,-1,-1,-1],"split_conditions":[1E-1,4.3287612E-2,1E0,2.3101296E-5,1E0,-7.591775E-2,-1.6107498E-2,1E0,6.5793324E-4,-6.799999E-3,8.50001E-4,-2.0825566E-4,6.4600114E-4,1E0,8.111308E-3,8.668696E-3,1.2328467E-4,1.337143E-2,4.9551954E-3,5.3347647E-3,-2.1049501E-3],"split_indices":[0,0,1,0,1,0,0,1,0,0,0,0,0,1,0,0,0,0,0,0,0],"split_type":[0,0,0,0,0,0,0,0,0,0,0,0,0,0,0,0,0,0,0,0,0],"sum_hessian":[2.4E1,2.2E1,2E0,2E1,2E0,1E0,1E0,2E0,1.8E1,1E0,1E0,1E0,1E0,8E0,1E1,4E0,4E0,6E0,4E0,2E0,2E0],"tree_param":{"num_deleted":"0","num_feature":"2","num_nodes":"21","size_leaf_vector":"1"}},{"base_weights":[-4.901329E-3,1.7345356E-2,-1.7382547E-1,2.060285E-2,-1.1238893E-2,-6.45301E-2,-1.3691372E-2,8.268555E-4,2.2641016E-2,-5.78E-3,7.224977E-4,-1.7701686E-4,5.4910185E-4,1.5071313E-2,2.6776135E-2,6.588203E-3,5.167687E-3,9.933068E-3,3.765954E-3,4.267806E-3,-1.6839624E-3],"categories":[],"categories_nodes":[],"categories_segments":[],"categories_sizes":[],"default_left":[0,0,0,0,0,0,0,0,0,0,0,0,0,0,0,0,0,0,0,0,0],"id":2,"left_children":[1,3,5,7,9,-1,-1,11,13,-1,-1,-1,-1,15,17,-1,19,-1,-1,-1,-1],"loss_changes":[9.696512E-2,2.3731533E-3,6.0560256E-3,8.277204E-4,3.750707E-4,0E0,0E0,5.345548E-6,1.9118004E-4,0E0,0E0,0E0,0E0,5.00581E-4,5.7534594E-4,0E0,5.6813826E-4,0E0,0E0,0E0,0E0],"parents":[2147483647,0,0,1,1,2,2,3,3,4,4,7,7,8,8,13,13,14,14,16,16],"right_children":[2,4,6,8,10,-1,-1,12,14,-1,-1,-1,-1,16,18,-1,20,-1,-1,-1,-1],"split_conditions":[1E-1,4.3287612E-2,1E0,2.3101296E-5,1E0,-6.45301E-2,-1.3691372E-2,1E0,6.5793324E-4,-5.78E-3,7.224977E-4,-1.7701686E-4,5.4910185E-4,1E0,8.111308E-3,6.588203E-3,1.2328467E-4,9.933068E-3,3.765954E-3,4.267806E-3,-1.6839624E-3],"split_indices":[0,0,1,0,1,0,0,1,0,0,0,0,0,1,0,0,0,0,0,0,0],"split_type":[0,0,0,0,0,0,0,0,0,0,0,0,0,0,0,0,0,0,0,0,0],"sum_hessian":[2.4E1,2.2E1,2E0,2E1,2E0,1E0,1E0,2E0,1.8E1,1E0,1E0,1E0,1E0,8E0,1E1,4E0,4E0,6E0,4E0,2E0,2E0],"tree_param":{"num_deleted":"0","num_feature":"2","num_nodes":"21","size_leaf_vector":"1"}},{"base_weights":[-5.8323597E-3,1.2932433E-2,-1.4775164E-1,1.5528815E-2,-9.553055E-3,-5.485058E-2,-1.1637667E-2,7.028381E-4,1.7052453E-2,-4.9130023E-3,6.1412755E-4,-1.5046299E-4,4.6674014E-4,1.808503E-2,5.517026E-3,1.1569023E-2,2.259159E-2,-1.761675E-4,2.658829E-3,4.5409673E-3,-1.8346906E-4,3.864731E-3,8.334729E-3],"categories":[],"categories_nodes":[],"categories_segments":[],"categories_sizes":[],"default_left":[0,0,0,0,0,0,0,0,0,0,0,0,0,0,0,0,0,0,0,0,0,0,0],"id":3,"left_children":[1,3,5,7,9,-1,-1,11,13,-1,-1,-1,-1,15,17,19,21,-1,-1,-1,-1,-1,-1],"loss_changes":[6.848794E-2,1.4911094E-3,4.3754727E-3,4.6239235E-4,2.709895E-4,0E0,0E0,3.8621774E-6,1.2653787E-4,0E0,0E0,0E0,0E0,2.3783837E-4,6.647412E-5,4.003488E-4,9.568222E-5,0E0,0E0,0E0,0E0,0E0,0E0],"parents":[2147483647,0,0,1,1,2,2,3,3,4,4,7,7,8,8,13,13,14,14,15,15,16,16],"right_children":[2,4,6,8,10,-1,-1,12,14,-1,-1,-1,-1,16,18,20,22,-1,-1,-1,-1,-1,-1],"split_conditions":[1E-1,4.3287612E-2,1E0,2.3101296E-5,1E0,-5.485058E-2,-1.1637667E-2,1E0,1.8738175E-2,-4.9130023E-3,6.1412755E-4,-1.5046299E-4,4.6674014E-4,6.5793324E-4,1E0,2.848036E-4,1E0,-1.761675E-4,2.658829E-3,4.5409673E-3,-1.8346906E-4,3.864731E-3,8.334729E-3],"split_indices":[0,0,1,0,1,0,0,1,0,0,0,0,0,0,1,0,1,0,0,0,0,0,0],"split_type":[0,0,0,0,0,0,0,0,0,0,0,0,0,0,0,0,0,0,0,0,0,0,0],"sum_hessian":[2.4E1,2.2E1,2E0,2E1,2E0,1E0,1E0,2E0,1.8E1,1E0,1E0,1E0,1E0,1.6E1,2E0,8E0,8E0,1E0,1E0,6E0,2E0,4E0,4E0],"tree_param":{"num_deleted":"0","num_feature":"2","num_nodes":"23","size_leaf_vector":"1"}},{"base_weights":[-6.1399057E-3,9.707349E-3,-1.255889E-1,1.1791874E-2,-8.1201E-3,-4.662299E-2,-9.892014E-3,5.973975E-4,1.29387975E-2,-4.1760565E-3,5.2201154E-4,-1.2789667E-4,3.9672555E-4,8.582473E-3,1.5326809E-2,1.4002204E-2,1.4462471E-3,1.936784E-2,1.981201E-3,4.6558366E-3,1.18998E-3,2.5060475E-3,-1.782924E-3,2.7294382E-3,7.438678E-3],"categories":[],"categories_nodes":[],"categories_segments":[],"categories_sizes":[],"default_left":[0,0,0,0,0,0,0,0,0,0,0,0,0,0,0,0,0,0,0,0,0,0,0,0,0],"id":4,"left_children":[1,3,5,7,9,-1,-1,11,13,-1,-1,-1,-1,15,17,19,21,23,-1,-1,-1,-1,-1,-1,-1],"loss_changes":[4.85426E-2,9.5047127E-4,3.1612925E-3,2.6189373E-4,1.9579065E-4,0E0,0E0,2.7904312E-6,6.6114124E-5,0E0,0E0,0E0,0E0,3.2783713E-4,2.5983504E-4,1.4573336E-5,3.0484493E-4,1.645966E-4,0E0,0E0,0E0,0E0,0E0,0E0,0E0],"parents":[2147483647,0,0,1,1,2,2,3,3,4,4,7,7,8,8,13,13,14,14,15,15,16,16,17,17],"right_children":[2,4,6,8,10,-1,-1,12,14,-1,-1,-1,-1,16,18,20,22,24,-1,-1,-1,-1,-1,-1,-1],"split_conditions":[1E-1,4.3287612E-2,1E0,2.3101296E-5,1E0,-4.662299E-2,-9.892014E-3,1E0,6.5793324E-4,-4.1760565E-3,5.2201154E-4,-1.2789667E-4,3.9672555E-4,1E0,8.111308E-3,2.848036E-4,1.2328467E-4,1E0,1.981201E-3,4.6558366E-3,1.18998E-3,2.5060475E-3,-1.782924E-3,2.7294382E-3,7.438678E-3],"split_indices":[0,0,1,0,1,0,0,1,0,0,0,0,0,1,0,0,0,1,0,0,0,0,0,0,0],"split_type":[0,0,0,0,0,0,0,0,0,0,0,0,0,0,0,0,0,0,0,0,0,0,0,0,0],"sum_hessian":[2.4E1,2.2E1,2E0,2E1,2E0,1E0,1E0,2E0,1.8E1,1E0,1E0,1E0,1E0,8E0,1E1,4E0,4E0,6E0,4E0,3E0,1E0,2E0,2E0,3E0,3E0],"tree_param":{"num_deleted":"0","num_feature":"2","num_nodes":"25","size_leaf_vector":"1"}},{"base_weights":[-5.945208E-3,7.4618044E-3,-1.0675057E-1,9.158464E-3,-6.9020786E-3,-3.962954E-2,-8.408216E-3,5.077918E-4,1.0042335E-2,-3.5496445E-3,4.437089E-4,-1.0870994E-4,3.3721628E-4,1.1047276E-2,1.5057136E-3,6.73761E-3,1.5010093E-2,3.29121E-3,3.470993E-4,2.1153197E-3,5.7649794E-3],"categories":[],"categories_nodes":[],"categories_segments":[],"categories_sizes":[],"default_left":[0,0,0,0,0,0,0,0,0,0,0,0,0,0,0,0,0,0,0,0,0],"id":5,"left_children":[1,3,5,7,9,-1,-1,11,13,-1,-1,-1,-1,15,-1,17,19,-1,-1,-1,-1],"loss_changes":[3.458402E-2,6.2373653E-4,2.2840276E-3,1.5546835E-4,1.4145844E-4,0E0,0E0,2.0160567E-6,4.0467246E-5,0E0,0E0,0E0,0E0,1.5504414E-4,0E0,1.9991602E-4,9.886024E-5,0E0,0E0,0E0,0E0],"parents":[2147483647,0,0,1,1,2,2,3,3,4,4,7,7,8,8,13,13,15,15,16,16],"right_children":[2,4,6,8,10,-1,-1,12,14,-1,-1,-1,-1,16,-1,18,20,-1,-1,-1,-1],"split_conditions":[1E-1,4.3287612E-2,1E0,2.3101296E-5,1E0,-3.962954E-2,-8.408216E-3,1E0,8.111308E-3,-3.5496445E-3,4.437089E-4,-1.0870994E-4,3.3721628E-4,6.5793324E-4,1.5057136E-3,1E0,1E0,3.29121E-3,3.470993E-4,2.1153197E-3,5.7649794E-3],"split_indices":[0,0,1,0,1,0,0,1,0,0,0,0,0,0,0,1,1,0,0,0,0],"split_type":[0,0,0,0,0,0,0,0,0,0,0,0,0,0,0,0,0,0,0,0,0],"sum_hessian":[2.4E1,2.2E1,2E0,2E1,2E0,1E0,1E0,2E0,1.8E1,1E0,1E0,1E0,1E0,1.4E1,4E0,8E0,6E0,4E0,4E0,3E0,3E0],"tree_param":{"num_deleted":"0","num_feature":"2","num_nodes":"21","size_leaf_vector":"1"}},{"base_weights":[-5.6772744E-3,5.6644394E-3,-9.073799E-2,7.042019E-3,-5.866766E-3,-3.368511E-2,-7.1469876E-3,4.316171E-4,7.7151344E-3,-3.0171992E-3,3.7715436E-4,-9.240211E-5,2.866298E-4,8.20547E-3,2.364854E-3,5.120602E-3,1.0378619E-2,-6.727785E-4,1.7369628E-3,2.8267193E-3,-6.1594255E-5,5.4276586E-3,1.6770423E-3],"categories":[],"categories_nodes":[],"categories_segments":[],"categories_sizes":[],"default_left":[0,0,0,0,0,0,0,0,0,0,0,0,0,0,0,0,0,0,0,0,0,0,0],"id":6,"left_children":[1,3,5,7,9,-1,-1,11,13,-1,-1,-1,-1,15,17,19,21,-1,-1,-1,-1,-1,-1],"loss_changes":[2.4632337E-2,4.0667242E-4,1.6502049E-3,9.0110814E-5,1.0220396E-4,0E0,0E0,1.4565599E-6,3.0440628E-5,0E0,0E0,0E0,0E0,6.082107E-5,6.0326194E-5,2.0813354E-4,2.3128872E-4,0E0,0E0,0E0,0E0,0E0,0E0],"parents":[2147483647,0,0,1,1,2,2,3,3,4,4,7,7,8,8,13,13,14,14,15,15,16,16],"right_children":[2,4,6,8,10,-1,-1,12,14,-1,-1,-1,-1,16,18,20,22,-1,-1,-1,-1,-1,-1],"split_conditions":[1E-1,4.3287612E-2,1E0,2.3101296E-5,1E0,-3.368511E-2,-7.1469876E-3,1E0,1.8738175E-2,-3.0171992E-3,3.7715436E-4,-9.240211E-5,2.866298E-4,6.5793324E-4,1E0,1.2328467E-4,1.5199111E-3,-6.727785E-4,1.7369628E-3,2.8267193E-3,-6.1594255E-5,5.4276586E-3,1.6770423E-3],"split_indices":[0,0,1,0,1,0,0,1,0,0,0,0,0,0,1,0,0,0,0,0,0,0,0],"split_type":[0,0,0,0,0,0,0,0,0,0,0,0,0,0,0,0,0,0,0,0,0,0,0],"sum_hessian":[2.4E1,2.2E1,2E0,2E1,2E0,1E0,1E0,2E0,1.8E1,1E0,1E0,1E0,1E0,1.6E1,2E0,8E0,8E0,1E0,1E0,4E0,4E0,2E0,6E0],"tree_param":{"num_deleted":"0","num_feature":"2","num_nodes":"23","size_leaf_vector":"1"}},{"base_weights":[-5.2678464E-3,4.3341597E-3,-7.712728E-2,5.4593314E-3,-4.986763E-3,-2.8632341E-2,-6.0749357E-3,3.28414E-3,7.1382197E-3,-2.5646212E-3,3.2057764E-4,5.939146E-3,8.177757E-5,1.4473756E-2,3.8999054E-3,5.761981E-4,8.47657E-3,3.8312525E-3,-1.4834345E-3,1.0987669E-3,5.4144235E-3,-4.259149E-3,6.839514E-3,-7.854402E-5,3.378332E-4,3.0392706E-3,5.270362E-4,1.4724613E-3,9.005964E-5,-4.323641E-3,2.4070235E-3,3.3222558E-3,8.792425E-4],"categories":[],"categories_nodes":[],"categories_segments":[],"categories_sizes":[],"default_left":[0,0,0,0,0,0,0,0,0,0,0,0,0,0,0,0,0,0,0,0,0,0,0,0,0,0,0,0,0,0,0,0,0],"id":7,"left_children":[1,3,5,7,9,-1,-1,11,13,-1,-1,15,17,19,21,23,25,27,-1,-1,-1,29,31,-1,-1,-1,-1,-1,-1,-1,-1,-1,-1],"loss_changes":[1.7584149E-2,2.684401E-4,1.1922773E-3,5.324703E-5,7.384216E-5,0E0,0E0,9.303952E-5,2.0485622E-4,0E0,0E0,7.676426E-5,1.3202646E-4,4.982605E-5,2.4499034E-4,1.6773296E-6,2.666915E-5,1.3737663E-5,0E0,0E0,0E0,4.8974843E-4,8.340826E-5,0E0,0E0,0E0,0E0,0E0,0E0,0E0,0E0,0E0,0E0],"parents":[2147483647,0,0,1,1,2,2,3,3,4,4,7,7,8,8,11,11,12,12,13,13,14,14,15,15,16,16,17,17,21,21,22,22],"right_children":[2,4,6,8,10,-1,-1,12,14,-1,-1,16,18,20,22,24,26,28,-1,-1,-1,30,32,-1,-1,-1,-1,-1,-1,-1,-1,-1,-1],"split_conditions":[1E-1,4.3287612E-2,1E0,6.5793324E-4,1E0,-2.8632341E-2,-6.0749357E-3,1E0,1.5199111E-3,-2.5646212E-3,3.2057764E-4,5.336699E-5,1.2328467E-4,1E0,3.5111918E-3,2.3101296E-5,2.848036E-4,5.336699E-5,-1.4834345E-3,1.0987669E-3,5.4144235E-3,1E0,8.111308E-3,-7.854402E-5,3.378332E-4,3.0392706E-3,5.270362E-4,1.4724613E-3,9.005964E-5,-4.323641E-3,2.4070235E-3,3.3222558E-3,8.792425E-4],"split_indices":[0,0,1,0,1,0,0,1,0,0,0,0,0,1,0,0,0,0,0,0,0,1,0,0,0,0,0,0,0,0,0,0,0],"split_type":[0,0,0,0,0,0,0,0,0,0,0,0,0,0,0,0,0,0,0,0,0,0,0,0,0,0,0,0,0,0,0,0,0],"sum_hessian":[2.4E1,2.2E1,2E0,2E1,2E0,1E0,1E0,1E1,1E1,1E0,1E0,5E0,5E0,2E0,8E0,2E0,3E0,3E0,2E0,1E0,1E0,2E0,6E0,1E0,1E0,2E0,1E0,2E0,1E0,1E0,1E0,2E0,4E0],"tree_param":{"num_deleted":"0","num_feature":"2","num_nodes":"33","size_leaf_vector":"1"}},{"base_weights":[-4.6574282E-3,3.4886443E-3,-6.555817E-2,4.426431E-3,-4.2387447E-3,-2.433749E-2,-5.1636905E-3,-2.9331448E-5,4.9078087E-3,-2.1799298E-3,2.7249457E-4,6.0358155E-3,2.9838218E-3,3.276209E-3,1.2302697E-2,-3.620267E-3,5.387885E-3,1.8519366E-3,-8.278371E-5,9.3395414E-4,4.6022595E-3,-3.6750913E-3,2.0459713E-3,2.480963E-3,3.476769E-4],"categories":[],"categories_nodes":[],"categories_segments":[],"categories_sizes":[],"default_left":[0,0,0,0,0,0,0,0,0,0,0,0,0,0,0,0,0,0,0,0,0,0,0,0,0],"id":8,"left_children":[1,3,5,7,9,-1,-1,-1,11,-1,-1,13,15,17,19,21,23,-1,-1,-1,-1,-1,-1,-1,-1],"loss_changes":[1.2631258E-2,1.8543535E-4,8.6142216E-4,4.621467E-5,5.3351276E-5,0E0,0E0,0E0,2.3225322E-5,0E0,0E0,1.499292E-4,1.6239542E-4,9.431598E-5,3.5999023E-5,3.538431E-4,7.573067E-5,0E0,0E0,0E0,0E0,0E0,0E0,0E0,0E0],"parents":[2147483647,0,0,1,1,2,2,3,3,4,4,8,8,11,11,12,12,13,13,14,14,15,15,16,16],"right_children":[2,4,6,8,10,-1,-1,-1,12,-1,-1,14,16,18,20,22,24,-1,-1,-1,-1,-1,-1,-1,-1],"split_conditions":[1E-1,4.3287612E-2,1E0,2.3101296E-5,1E0,-2.433749E-2,-5.1636905E-3,-2.9331448E-5,1.5199111E-3,-2.1799298E-3,2.7249457E-4,6.5793324E-4,3.5111918E-3,1.2328467E-4,1E0,1E0,1E0,1.8519366E-3,-8.278371E-5,9.3395414E-4,4.6022595E-3,-3.6750913E-3,2.0459713E-3,2.480963E-3,3.476769E-4],"split_indices":[0,0,1,0,1,0,0,0,0,0,0,0,0,0,1,1,1,0,0,0,0,0,0,0,0],"split_type":[0,0,0,0,0,0,0,0,0,0,0,0,0,0,0,0,0,0,0,0,0,0,0,0,0],"sum_hessian":[2.4E1,2.2E1,2E0,2E1,2E0,1E0,1E0,2E0,1.8E1,1E0,1E0,1E1,8E0,8E0,2E0,2E0,6E0,4E0,4E0,1E0,1E0,1E0,1E0,3E0,3E0],"tree_param":{"num_deleted":"0","num_feature":"2","num_nodes":"25","size_leaf_vector":"1"}},{"base_weights":[-4.1775214E-3,2.7276226E-3,-5.5724453E-2,3.502102E-3,-3.6029418E-3,-2.0686865E-2,-4.3891403E-3,-2.3466351E-5,3.8830952E-3,-1.8529416E-3,2.316177E-4,4.5532663E-3,1.0959625E-3,2.489931E-3,6.555659E-3,-1.0453264E-3,2.8719306E-3,1.5406109E-3,-1.9604803E-4,3.1371892E-3,8.710635E-4,6.054998E-4,-1.0758967E-3,-1.7881394E-8,1.2923867E-3],"categories":[],"categories_nodes":[],"categories_segments":[],"categories_sizes":[],"default_left":[0,0,0,0,0,0,0,0,0,0,0,0,0,0,0,0,0,0,0,0,0,0,0,0,0],"id":9,"left_children":[1,3,5,7,9,-1,-1,-1,11,-1,-1,13,15,17,19,21,23,-1,-1,-1,-1,-1,-1,-1,-1],"loss_changes":[9.05047E-3,1.253844E-4,6.2237587E-4,2.8949406E-5,3.8546186E-5,0E0,0E0,0E0,3.0499039E-5,0E0,0E0,4.5650988E-5,2.2016407E-5,7.819755E-5,6.938138E-5,3.0592622E-5,1.2373008E-5,0E0,0E0,0E0,0E0,0E0,0E0,0E0,0E0],"parents":[2147483647,0,0,1,1,2,2,3,3,4,4,8,8,11,11,12,12,13,13,14,14,15,15,16,16],"right_children":[2,4,6,8,10,-1,-1,-1,12,-1,-1,14,16,18,20,22,24,-1,-1,-1,-1,-1,-1,-1,-1],"split_conditions":[1E-1,4.3287612E-2,1E0,2.3101296E-5,1E0,-2.0686865E-2,-4.3891403E-3,-2.3466351E-5,8.111308E-3,-1.8529416E-3,2.316177E-4,6.5793324E-4,1E0,1E0,1.5199111E-3,1.8738175E-2,1.8738175E-2,1.5406109E-3,-1.9604803E-4,3.1371892E-3,8.710635E-4,6.054998E-4,-1.0758967E-3,-1.7881394E-8,1.2923867E-3],"split_indices":[0,0,1,0,1,0,0,0,0,0,0,0,1,1,0,0,0,0,0,0,0,0,0,0,0],"split_type":[0,0,0,0,0,0,0,0,0,0,0,0,0,0,0,0,0,0,0,0,0,0,0,0,0],"sum_hessian":[2.4E1,2.2E1,2E0,2E1,2E0,1E0,1E0,2E0,1.8E1,1E0,1E0,1.4E1,4E0,8E0,6E0,2E0,2E0,4E0,4E0,2E0,4E0,1E0,1E0,1E0,1E0],"tree_param":{"num_deleted":"0","num_feature":"2","num_nodes":"25","size_leaf_vector":"1"}},{"base_weights":[-3.7461033E-3,2.1062933E-3,-4.7365777E-2,2.7443937E-3,-3.0625064E-3,-1.7583836E-2,-3.730765E-3,1.5312217E-3,3.7080755E-3,-1.5750021E-3,1.9687416E-4,2.940161E-3,-7.475376E-4,8.36585E-3,1.7434756E-3,-1.8769502E-5,1.2461294E-3,7.5721147E-4,-1.1309803E-3,3.2328666E-4,3.4413459E-3,-3.657937E-3,3.8092989E-3,-3.2544853E-3,1.6084135E-3,2.2007287E-3,2.794683E-4],"categories":[],"categories_nodes":[],"categories_segments":[],"categories_sizes":[],"default_left":[0,0,0,0,0,0,0,0,0,0,0,0,0,0,0,0,0,0,0,0,0,0,0,0,0,0,0],"id":10,"left_children":[1,3,5,7,9,-1,-1,11,13,-1,-1,15,17,19,21,-1,-1,-1,-1,-1,-1,23,25,-1,-1,-1,-1],"loss_changes":[6.481757E-3,8.4263615E-5,4.4966862E-4,1.887347E-5,2.7849628E-5,0E0,0E0,3.7514852E-5,8.607164E-5,0E0,0E0,2.576871E-5,5.8955455E-5,5.5534896E-5,1.1435944E-4,0E0,0E0,0E0,0E0,0E0,0E0,2.5271776E-4,6.4203945E-5,0E0,0E0,0E0,0E0],"parents":[2147483647,0,0,1,1,2,2,3,3,4,4,7,7,8,8,11,11,12,12,13,13,14,14,21,21,22,22],"right_children":[2,4,6,8,10,-1,-1,12,14,-1,-1,16,18,20,22,-1,-1,-1,-1,-1,-1,24,26,-1,-1,-1,-1],"split_conditions":[1E-1,4.3287612E-2,1E0,6.5793324E-4,1E0,-1.7583836E-2,-3.730765E-3,1.2328467E-4,1.5199111E-3,-1.5750021E-3,1.9687416E-4,2.3101296E-5,1E0,1E0,3.5111918E-3,-1.8769502E-5,1.2461294E-3,7.5721147E-4,-1.1309803E-3,3.2328666E-4,3.4413459E-3,1E0,8.111308E-3,-3.2544853E-3,1.6084135E-3,2.2007287E-3,2.794683E-4],"split_indices":[0,0,1,0,1,0,0,0,0,0,0,0,1,1,0,0,0,0,0,0,0,1,0,0,0,0,0],"split_type":[0,0,0,0,0,0,0,0,0,0,0,0,0,0,0,0,0,0,0,0,0,0,0,0,0,0,0],"sum_hessian":[2.4E1,2.2E1,2E0,2E1,2E0,1E0,1E0,1E1,1E1,1E0,1E0,6E0,4E0,2E0,8E0,2E0,4E0,2E0,2E0,1E0,1E0,2E0,6E0,1E0,1E0,2E0,4E0],"tree_param":{"num_deleted":"0","num_feature":"2","num_nodes":"27","size_leaf_vector":"1"}},{"base_weights":[-3.3118937E-3,1.6515384E-3,-4.0260907E-2,2.1807041E-3,-2.6031334E-3,-1.49462605E-2,-3.171149E-3,1.1494484E-3,3.0137138E-3,-1.3387532E-3,1.6734302E-4,2.5223691E-3,-4.1504702E-4,7.1109734E-3,1.3131036E-3,-3.0977727E-4,4.557997E-3,2.9830735E-3,-8.579627E-4,2.747923E-4,2.9251457E-3,-3.1092565E-3,3.0208144E-3,1.7460466E-3,1.15728384E-4,3.3500794E-5,1.3088823E-3,-2.7663142E-3,1.3671488E-3,1.6857148E-3,-9.978712E-5],"categories":[],"categories_nodes":[],"categories_segments":[],"categories_sizes":[],"default_left":[0,0,0,0,0,0,0,0,0,0,0,0,0,0,0,0,0,0,0,0,0,0,0,0,0,0,0,0,0,0,0],"id":11,"left_children":[1,3,5,7,9,-1,-1,11,13,-1,-1,15,17,19,21,-1,23,25,-1,-1,-1,27,29,-1,-1,-1,-1,-1,-1,-1,-1],"loss_changes":[4.6513407E-3,5.745946E-5,3.248863E-4,1.4575846E-5,2.0121392E-5,0E0,0E0,2.4674111E-5,6.730883E-5,0E0,0E0,4.8125996E-5,5.837815E-5,4.012414E-5,7.7361496E-5,0E0,1.88189E-5,1.1399265E-5,0E0,0E0,0E0,1.8258847E-4,6.286016E-5,0E0,0E0,0E0,0E0,0E0,0E0,0E0,0E0],"parents":[2147483647,0,0,1,1,2,2,3,3,4,4,7,7,8,8,11,11,12,12,13,13,14,14,16,16,17,17,21,21,22,22],"right_children":[2,4,6,8,10,-1,-1,12,14,-1,-1,16,18,20,22,-1,24,26,-1,-1,-1,28,30,-1,-1,-1,-1,-1,-1,-1,-1],"split_conditions":[1E-1,4.3287612E-2,1E0,6.5793324E-4,1E0,-1.49462605E-2,-3.171149E-3,1E0,1.5199111E-3,-1.3387532E-3,1.6734302E-4,5.336699E-5,5.336699E-5,1E0,3.5111918E-3,-3.0977727E-4,2.848036E-4,2.3101296E-5,-8.579627E-4,2.747923E-4,2.9251457E-3,1E0,1E0,1.7460466E-3,1.15728384E-4,3.3500794E-5,1.3088823E-3,-2.7663142E-3,1.3671488E-3,1.6857148E-3,-9.978712E-5],"split_indices":[0,0,1,0,1,0,0,1,0,0,0,0,0,1,0,0,0,0,0,0,0,1,1,0,0,0,0,0,0,0,0],"split_type":[0,0,0,0,0,0,0,0,0,0,0,0,0,0,0,0,0,0,0,0,0,0,0,0,0,0,0,0,0,0,0],"sum_hessian":[2.4E1,2.2E1,2E0,2E1,2E0,1E0,1E0,1E1,1E1,1E0,1E0,5E0,5E0,2E0,8E0,2E0,3E0,2E0,3E0,1E0,1E0,2E0,6E0,2E0,1E0,1E0,1E0,1E0,1E0,3E0,3E0],"tree_param":{"num_deleted":"0","num_feature":"2","num_nodes":"31","size_leaf_vector":"1"}},{"base_weights":[-2.8729609E-3,1.3409257E-3,-3.4221772E-2,2.0209174E-3,-1.511228E-3,-1.270432E-2,-2.695477E-3,9.897351E-4,3.056705E-3,-1.5648187E-3,2.6973486E-3,2.0033035E-3,-6.2720774E-4,6.044328E-3,1.3396229E-3,1.0715694E-3,1.4223755E-4,1.2612343E-5,8.3382014E-4,4.1958693E-4,-7.331908E-4,2.3357572E-4,2.4863721E-3,-2.64287E-3,3.461194E-3,-2.3513676E-3,1.162076E-3,2.5480927E-3,-8.1749563E-4],"categories":[],"categories_nodes":[],"categories_segments":[],"categories_sizes":[],"default_left":[0,0,0,0,0,0,0,0,0,0,0,0,0,0,0,0,0,0,0,0,0,0,0,0,0,0,0,0,0],"id":12,"left_children":[1,3,5,7,9,-1,-1,11,13,-1,15,17,19,21,23,-1,-1,-1,-1,-1,-1,-1,-1,25,27,-1,-1,-1,-1],"loss_changes":[3.3483973E-3,4.766121E-5,2.3472984E-4,1.72683E-5,9.202992E-5,0E0,0E0,1.928419E-5,3.807283E-5,0E0,4.1394287E-6,1.0538059E-5,2.1820448E-5,2.8989482E-5,6.8291476E-5,0E0,0E0,0E0,0E0,0E0,0E0,0E0,0E0,1.3192015E-4,1.7880318E-4,0E0,0E0,0E0,0E0],"parents":[2147483647,0,0,1,1,2,2,3,3,4,4,7,7,8,8,10,10,11,11,12,12,13,13,14,14,23,23,24,24],"right_children":[2,4,6,8,10,-1,-1,12,14,-1,16,18,20,22,24,-1,-1,-1,-1,-1,-1,-1,-1,26,28,-1,-1,-1,-1],"split_conditions":[1E-1,1.8738175E-2,1E0,6.5793324E-4,1E0,-1.270432E-2,-2.695477E-3,1.2328467E-4,1.5199111E-3,-1.5648187E-3,4.3287612E-2,2.3101296E-5,1E0,1E0,3.5111918E-3,1.0715694E-3,1.4223755E-4,1.2612343E-5,8.3382014E-4,4.1958693E-4,-7.331908E-4,2.3357572E-4,2.4863721E-3,1E0,1E0,-2.3513676E-3,1.162076E-3,2.5480927E-3,-8.1749563E-4],"split_indices":[0,0,1,0,1,0,0,0,0,0,0,0,1,1,0,0,0,0,0,0,0,0,0,1,1,0,0,0,0],"split_type":[0,0,0,0,0,0,0,0,0,0,0,0,0,0,0,0,0,0,0,0,0,0,0,0,0,0,0,0,0],"sum_hessian":[2.4E1,2.2E1,2E0,1.8E1,4E0,1E0,1E0,1E1,8E0,2E0,2E0,6E0,4E0,2E0,6E0,1E0,1E0,2E0,4E0,2E0,2E0,1E0,1E0,2E0,4E0,1E0,1E0,2E0,2E0],"tree_param":{"num_deleted":"0","num_feature":"2","num_nodes":"29","size_leaf_vector":"1"}},{"base_weights":[-2.4893447E-3,1.0883419E-3,-2.9088495E-2,1.8303955E-3,-8.6926564E-4,-1.0798671E-2,-2.291152E-3,1.1218309E-3,4.763087E-3,-3.4001917E-3,1.8789768E-3,1.8128294E-3,-2.2464395E-3,3.2200369E-3,-1.0766477E-3,-1.623273E-4,-1.2518585E-3,9.564758E-5,2.2927523E-3,7.412488E-4,5.137682E-3,-1.998666E-3,9.877682E-4,9.1083354E-4,1.20905046E-4,3.778895E-4,-3.182948E-4,1.9853712E-4,2.1134198E-3],"categories":[],"categories_nodes":[],"categories_segments":[],"categories_sizes":[],"default_left":[0,0,0,0,0,0,0,0,0,0,0,0,0,0,0,0,0,0,0,0,0,0,0,0,0,0,0,0,0],"id":13,"left_children":[1,3,5,7,9,-1,-1,11,13,15,17,19,21,-1,-1,-1,-1,-1,23,25,27,-1,-1,-1,-1,-1,-1,-1,-1],"loss_changes":[2.4107439E-3,3.5002042E-5,1.6959338E-4,2.9982635E-5,5.5078068E-5,0E0,0E0,3.8984457E-5,1.8811248E-4,6.578666E-6,1.8512219E-6,4.2508716E-5,9.531278E-5,0E0,0E0,0E0,0E0,0E0,2.9906532E-6,1.16131505E-5,2.0945117E-5,0E0,0E0,0E0,0E0,0E0,0E0,0E0,0E0],"parents":[2147483647,0,0,1,1,2,2,3,3,4,4,7,7,8,8,9,9,10,10,11,11,12,12,18,18,19,19,20,20],"right_children":[2,4,6,8,10,-1,-1,12,14,16,18,20,22,-1,-1,-1,-1,-1,24,26,28,-1,-1,-1,-1,-1,-1,-1,-1],"split_conditions":[1E-1,8.111308E-3,1E0,3.5111918E-3,1E0,-1.0798671E-2,-2.291152E-3,1.5199111E-3,1E0,1.8738175E-2,1.8738175E-2,6.5793324E-4,1E0,3.2200369E-3,-1.0766477E-3,-1.623273E-4,-1.2518585E-3,9.564758E-5,4.3287612E-2,2.848036E-4,1E0,-1.998666E-3,9.877682E-4,9.1083354E-4,1.20905046E-4,3.778895E-4,-3.182948E-4,1.9853712E-4,2.1134198E-3],"split_indices":[0,0,1,0,1,0,0,0,1,0,0,0,1,0,0,0,0,0,0,0,1,0,0,0,0,0,0,0,0],"split_type":[0,0,0,0,0,0,0,0,0,0,0,0,0,0,0,0,0,0,0,0,0,0,0,0,0,0,0,0,0],"sum_hessian":[2.4E1,2.2E1,2E0,1.6E1,6E0,1E0,1E0,1.4E1,2E0,3E0,3E0,1.2E1,2E0,1E0,1E0,1E0,2E0,1E0,2E0,1E1,2E0,1E0,1E0,1E0,1E0,8E0,2E0,1E0,1E0],"tree_param":{"num_deleted":"0","num_feature":"2","num_nodes":"29","size_leaf_vector":"1"}},{"base_weights":[-2.1374442E-3,9.017198E-4,-2.4725221E-2,1.4873954E-3,-6.494522E-4,-9.178869E-3,-1.9474805E-3,8.759896E-4,4.0486255E-3,-2.7336776E-3,1.5971363E-3,1.4514052E-3,-1.9094745E-3,2.7370334E-3,-9.1515185E-4,-1.3798178E-4,-1.0014833E-3,8.129776E-5,1.9488534E-3,5.2428787E-4,4.3670335E-3,-1.6988666E-3,8.3960296E-4,7.742107E-4,1.02773316E-4,4.216552E-4,-1.3329685E-4,1.6875565E-4,1.7964096E-3],"categories":[],"categories_nodes":[],"categories_segments":[],"categories_sizes":[],"default_left":[0,0,0,0,0,0,0,0,0,0,0,0,0,0,0,0,0,0,0,0,0,0,0,0,0,0,0,0,0],"id":14,"left_children":[1,3,5,7,9,-1,-1,11,13,15,17,19,21,-1,-1,-1,-1,-1,23,25,27,-1,-1,-1,-1,-1,-1,-1,-1],"loss_changes":[1.7384943E-3,2.1861113E-5,1.2253074E-4,2.3074615E-5,3.7142832E-5,0E0,0E0,2.6813415E-5,1.3591154E-4,3.9634033E-6,1.3375848E-6,3.28511E-5,6.8863505E-5,0E0,0E0,0E0,0E0,0E0,2.1606802E-6,1.0013754E-5,1.5132951E-5,0E0,0E0,0E0,0E0,0E0,0E0,0E0,0E0],"parents":[2147483647,0,0,1,1,2,2,3,3,4,4,7,7,8,8,9,9,10,10,11,11,12,12,18,18,19,19,20,20],"right_children":[2,4,6,8,10,-1,-1,12,14,16,18,20,22,-1,-1,-1,-1,-1,24,26,28,-1,-1,-1,-1,-1,-1,-1,-1],"split_conditions":[1E-1,8.111308E-3,1E0,3.5111918E-3,1E0,-9.178869E-3,-1.9474805E-3,1.5199111E-3,1E0,1.8738175E-2,1.8738175E-2,6.5793324E-4,1E0,2.7370334E-3,-9.1515185E-4,-1.3798178E-4,-1.0014833E-3,8.129776E-5,4.3287612E-2,1E0,1E0,-1.6988666E-3,8.3960296E-4,7.742107E-4,1.02773316E-4,4.216552E-4,-1.3329685E-4,1.6875565E-4,1.7964096E-3],"split_indices":[0,0,1,0,1,0,0,0,1,0,0,0,1,0,0,0,0,0,0,1,1,0,0,0,0,0,0,0,0],"split_type":[0,0,0,0,0,0,0,0,0,0,0,0,0,0,0,0,0,0,0,0,0,0,0,0,0,0,0,0,0],"sum_hessian":[2.4E1,2.2E1,2E0,1.6E1,6E0,1E0,1E0,1.4E1,2E0,3E0,3E0,1.2E1,2E0,1E0,1E0,1E0,2E0,1E0,2E0,1E1,2E0,1E0,1E0,1E0,1E0,5E0,5E0,1E0,1E0],"tree_param":{"num_deleted":"0","num_feature":"2","num_nodes":"29","size_leaf_vector":"1"}},{"base_weights":[-1.819869E-3,7.6315715E-4,-2.1016447E-2,1.2303591E-3,-4.804986E-4,-7.80204E-3,-1.6553611E-3,7.061402E-4,3.4413338E-3,-2.1984428E-3,4.0727112E-4,1.1893281E-3,-1.6230544E-3,2.3264766E-3,-7.778764E-4,-1.17284064E-4,-8.011878E-4,3.9321184E-4,3.7119787E-3,-1.4440388E-3,7.1366434E-4,3.2272085E-4,-1.9228936E-4,1.4344454E-4,1.5269459E-3],"categories":[],"categories_nodes":[],"categories_segments":[],"categories_sizes":[],"default_left":[0,0,0,0,0,0,0,0,0,0,0,0,0,0,0,0,0,0,0,0,0,0,0,0,0],"id":15,"left_children":[1,3,5,7,9,-1,-1,11,13,15,-1,17,19,-1,-1,-1,-1,21,23,-1,-1,-1,-1,-1,-1],"loss_changes":[1.2556704E-3,1.3955069E-5,8.8527915E-5,1.7273524E-5,2.5088439E-5,0E0,0E0,1.8811925E-5,9.819578E-5,2.369803E-6,0E0,2.4648607E-5,4.9754075E-5,0E0,0E0,0E0,0E0,8.453863E-6,1.0933418E-5,0E0,0E0,0E0,0E0,0E0,0E0],"parents":[2147483647,0,0,1,1,2,2,3,3,4,4,7,7,8,8,9,9,11,11,12,12,17,17,18,18],"right_children":[2,4,6,8,10,-1,-1,12,14,16,-1,18,20,-1,-1,-1,-1,22,24,-1,-1,-1,-1,-1,-1],"split_conditions":[1E-1,8.111308E-3,1E0,3.5111918E-3,1E0,-7.80204E-3,-1.6553611E-3,1.5199111E-3,1E0,1.8738175E-2,4.0727112E-4,6.5793324E-4,1E0,2.3264766E-3,-7.778764E-4,-1.17284064E-4,-8.011878E-4,1.2328467E-4,1E0,-1.4440388E-3,7.1366434E-4,3.2272085E-4,-1.9228936E-4,1.4344454E-4,1.5269459E-3],"split_indices":[0,0,1,0,1,0,0,0,1,0,0,0,1,0,0,0,0,0,1,0,0,0,0,0,0],"split_type":[0,0,0,0,0,0,0,0,0,0,0,0,0,0,0,0,0,0,0,0,0,0,0,0,0],"sum_hessian":[2.4E1,2.2E1,2E0,1.6E1,6E0,1E0,1E0,1.4E1,2E0,3E0,3E0,1.2E1,2E0,1E0,1E0,1E0,2E0,1E1,2E0,1E0,1E0,6E0,4E0,1E0,1E0],"tree_param":{"num_deleted":"0","num_feature":"2","num_nodes":"25","size_leaf_vector":"1"}},{"base_weights":[-1.5678856E-3,6.2586175E-4,-1.7863987E-2,1.0153195E-3,-4.0937323E-4,-6.6317343E-3,-1.4070601E-3,5.656679E-4,2.9251378E-3,-1.7685145E-3,1.0521114E-3,9.7106054E-4,-1.3795892E-3,1.9775033E-3,-6.6119136E-4,-9.9688776E-5,-6.409466E-4,8.010865E-6,1.3850132E-3,2.8711557E-4,3.1551719E-3,-1.2274325E-3,6.0661737E-4,5.9698825E-4,2.6267768E-5,2.870679E-4,-1.2915433E-4,1.21924284E-4,1.2979031E-3],"categories":[],"categories_nodes":[],"categories_segments":[],"categories_sizes":[],"default_left":[0,0,0,0,0,0,0,0,0,0,0,0,0,0,0,0,0,0,0,0,0,0,0,0,0,0,0,0,0],"id":16,"left_children":[1,3,5,7,9,-1,-1,11,13,15,17,19,21,-1,-1,-1,-1,-1,23,25,27,-1,-1,-1,-1,-1,-1,-1,-1],"loss_changes":[9.0491853E-4,9.688793E-6,6.396085E-5,1.2944141E-5,1.5765223E-5,0E0,0E0,1.3168557E-5,7.094611E-5,1.4040188E-6,1.328458E-6,1.851366E-5,3.594742E-5,0E0,0E0,0E0,0E0,0E0,2.1804349E-6,5.699132E-6,7.899513E-6,0E0,0E0,0E0,0E0,0E0,0E0,0E0,0E0],"parents":[2147483647,0,0,1,1,2,2,3,3,4,4,7,7,8,8,9,9,10,10,11,11,12,12,18,18,19,19,20,20],"right_children":[2,4,6,8,10,-1,-1,12,14,16,18,20,22,-1,-1,-1,-1,-1,24,26,28,-1,-1,-1,-1,-1,-1,-1,-1],"split_conditions":[1E-1,8.111308E-3,1E0,3.5111918E-3,1E0,-6.6317343E-3,-1.4070601E-3,1.5199111E-3,1E0,1.8738175E-2,1.8738175E-2,6.5793324E-4,1E0,1.9775033E-3,-6.6119136E-4,-9.9688776E-5,-6.409466E-4,8.010865E-6,4.3287612E-2,1E0,1E0,-1.2274325E-3,6.0661737E-4,5.9698825E-4,2.6267768E-5,2.870679E-4,-1.2915433E-4,1.21924284E-4,1.2979031E-3],"split_indices":[0,0,1,0,1,0,0,0,1,0,0,0,1,0,0,0,0,0,0,1,1,0,0,0,0,0,0,0,0],"split_type":[0,0,0,0,0,0,0,0,0,0,0,0,0,0,0,0,0,0,0,0,0,0,0,0,0,0,0,0,0],"sum_hessian":[2.4E1,2.2E1,2E0,1.6E1,6E0,1E0,1E0,1.4E1,2E0,3E0,3E0,1.2E1,2E0,1E0,1E0,1E0,2E0,1E0,2E0,1E1,2E0,1E0,1E0,1E0,1E0,5E0,5E0,1E0,1E0],"tree_param":{"num_deleted":"0","num_feature":"2","num_nodes":"29","size_leaf_vector":"1"}},{"base_weights":[-1.3325117E-3,5.3218915E-4,-1.518438E-2,8.4445055E-4,-3.0218702E-4,-5.6369742E-3,-1.195997E-3,4.5977035E-4,2.486368E-3,-4.2693617E-4,2.6828796E-4,8.0111396E-4,-1.1726419E-3,1.6808779E-3,-5.620122E-4,2.1534617E-4,2.6818912E-3,-1.0433168E-3,5.156279E-4,2.1944047E-4,-1.6508819E-4,1.0363162E-4,1.1032195E-3],"categories":[],"categories_nodes":[],"categories_segments":[],"categories_sizes":[],"default_left":[0,0,0,0,0,0,0,0,0,0,0,0,0,0,0,0,0,0,0,0,0,0,0],"id":17,"left_children":[1,3,5,7,9,-1,-1,11,13,-1,-1,15,17,-1,-1,19,21,-1,-1,-1,-1,-1,-1],"loss_changes":[6.5382075E-4,6.247683E-6,4.6212284E-5,9.594264E-6,1.06609095E-5,0E0,0E0,9.2976225E-6,5.1258543E-5,0E0,0E0,1.37445495E-5,2.5972107E-5,0E0,0E0,4.749323E-6,5.707545E-6,0E0,0E0,0E0,0E0,0E0,0E0],"parents":[2147483647,0,0,1,1,2,2,3,3,4,4,7,7,8,8,11,11,12,12,15,15,16,16],"right_children":[2,4,6,8,10,-1,-1,12,14,-1,-1,16,18,-1,-1,20,22,-1,-1,-1,-1,-1,-1],"split_conditions":[1E-1,8.111308E-3,1E0,3.5111918E-3,1E0,-5.6369742E-3,-1.195997E-3,1.5199111E-3,1E0,-4.2693617E-4,2.6828796E-4,6.5793324E-4,1E0,1.6808779E-3,-5.620122E-4,1.2328467E-4,1E0,-1.0433168E-3,5.156279E-4,2.1944047E-4,-1.6508819E-4,1.0363162E-4,1.1032195E-3],"split_indices":[0,0,1,0,1,0,0,0,1,0,0,0,1,0,0,0,1,0,0,0,0,0,0],"split_type":[0,0,0,0,0,0,0,0,0,0,0,0,0,0,0,0,0,0,0,0,0,0,0],"sum_hessian":[2.4E1,2.2E1,2E0,1.6E1,6E0,1E0,1E0,1.4E1,2E0,3E0,3E0,1.2E1,2E0,1E0,1E0,1E1,2E0,1E0,1E0,6E0,4E0,1E0,1E0],"tree_param":{"num_deleted":"0","num_feature":"2","num_nodes":"23","size_leaf_vector":"1"}},{"base_weights":[-1.1383274E-3,4.4617188E-4,-1.29067125E-2,-2.1855235E-4,5.92737E-4,-4.791428E-3,-1.0165931E-3,9.3911885E-4,-2.3418665E-4,5.9588597E-4,2.1134217E-3,-1.1029094E-3,6.930828E-4,9.760694E-4,-9.967486E-4,1.4287502E-3,-4.777104E-4,-2.0688773E-5,-4.273713E-4,-3.3429267E-5,9.983977E-4,1.2993217E-4,6.838798E-4,-8.868188E-4,4.3828192E-4,4.6719614E-4,-1.7917157E-5],"categories":[],"categories_nodes":[],"categories_segments":[],"categories_sizes":[],"default_left":[0,0,0,0,0,0,0,0,0,0,0,0,0,0,0,0,0,0,0,0,0,0,0,0,0,0,0],"id":18,"left_children":[1,3,5,-1,7,-1,-1,9,11,13,15,17,19,21,23,-1,-1,-1,-1,-1,25,-1,-1,-1,-1,-1,-1],"loss_changes":[4.7193363E-4,4.3916552E-6,3.338902E-5,0E0,6.234988E-6,0E0,0E0,4.7865333E-6,6.4031888E-6,8.8443085E-6,3.703444E-5,1.2320811E-6,1.0937724E-6,6.798132E-6,1.8764778E-5,0E0,0E0,0E0,0E0,0E0,1.8672338E-6,0E0,0E0,0E0,0E0,0E0,0E0],"parents":[2147483647,0,0,1,1,2,2,4,4,7,7,8,8,9,9,10,10,11,11,12,12,13,13,14,14,20,20],"right_children":[2,4,6,-1,8,-1,-1,10,12,14,16,18,20,22,24,-1,-1,-1,-1,-1,26,-1,-1,-1,-1,-1,-1],"split_conditions":[1E-1,2.3101296E-5,1E0,-2.1855235E-4,8.111308E-3,-4.791428E-3,-1.0165931E-3,3.5111918E-3,1E0,1.5199111E-3,1E0,1.8738175E-2,1.8738175E-2,6.5793324E-4,1E0,1.4287502E-3,-4.777104E-4,-2.0688773E-5,-4.273713E-4,-3.3429267E-5,4.3287612E-2,1.2993217E-4,6.838798E-4,-8.868188E-4,4.3828192E-4,4.6719614E-4,-1.7917157E-5],"split_indices":[0,0,1,0,0,0,0,0,1,0,1,0,0,0,1,0,0,0,0,0,0,0,0,0,0,0,0],"split_type":[0,0,0,0,0,0,0,0,0,0,0,0,0,0,0,0,0,0,0,0,0,0,0,0,0,0,0],"sum_hessian":[2.4E1,2.2E1,2E0,2E0,2E1,1E0,1E0,1.4E1,6E0,1.2E1,2E0,3E0,3E0,1E1,2E0,1E0,1E0,1E0,2E0,1E0,2E0,8E0,2E0,1E0,1E0,1E0,1E0],"tree_param":{"num_deleted":"0","num_feature":"2","num_nodes":"27","size_leaf_vector":"1"}},{"base_weights":[-9.86527E-4,3.5864892E-4,-1.09707E-2,-1.7483832E-4,4.760623E-4,-4.0727146E-3,-8.6410047E-4,7.4513356E-4,-1.6852787E-4,4.4521003E-4,1.7964244E-3,-2.6521683E-4,1.767397E-4,7.572228E-4,-8.4724027E-4,1.2144417E-3,-4.060507E-4,9.5282005E-5,5.4709916E-4,-7.537991E-4,3.7254096E-4],"categories":[],"categories_nodes":[],"categories_segments":[],"categories_sizes":[],"default_left":[0,0,0,0,0,0,0,0,0,0,0,0,0,0,0,0,0,0,0,0,0],"id":19,"left_children":[1,3,5,-1,7,-1,-1,9,11,13,15,-1,-1,17,19,-1,-1,-1,-1,-1,-1],"loss_changes":[3.396963E-4,2.8198208E-6,2.4123932E-5,0E0,3.767831E-6,0E0,0E0,3.9298166E-6,4.3157165E-6,5.8839437E-6,2.675737E-5,0E0,0E0,4.577863E-6,1.3557657E-5,0E0,0E0,0E0,0E0,0E0,0E0],"parents":[2147483647,0,0,1,1,2,2,4,4,7,7,8,8,9,9,10,10,13,13,14,14],"right_children":[2,4,6,-1,8,-1,-1,10,12,14,16,-1,-1,18,20,-1,-1,-1,-1,-1,-1],"split_conditions":[1E-1,2.3101296E-5,1E0,-1.7483832E-4,8.111308E-3,-4.0727146E-3,-8.6410047E-4,3.5111918E-3,1E0,1.5199111E-3,1E0,-2.6521683E-4,1.767397E-4,6.5793324E-4,1E0,1.2144417E-3,-4.060507E-4,9.5282005E-5,5.4709916E-4,-7.537991E-4,3.7254096E-4],"split_indices":[0,0,1,0,0,0,0,0,1,0,1,0,0,0,1,0,0,0,0,0,0],"split_type":[0,0,0,0,0,0,0,0,0,0,0,0,0,0,0,0,0,0,0,0,0],"sum_hessian":[2.4E1,2.2E1,2E0,2E0,2E1,1E0,1E0,1.4E1,6E0,1.2E1,2E0,3E0,3E0,1E1,2E0,1E0,1E0,8E0,2E0,1E0,1E0],"tree_param":{"num_deleted":"0","num_feature":"2","num_nodes":"21","size_leaf_vector":"1"}},{"base_weights":[-8.5580023E-4,2.860997E-4,-9.325099E-3,3.8404408E-4,-1.4846327E-4,-3.4618077E-3,-7.344872E-4,-1.3987423E-4,4.980878E-4,1.0176062E-3,2.9170912E-4,1.993378E-4,1.4966726E-3,-5.9840677E-4,6.697882E-4,-7.653505E-4,8.550525E-4,1.1610658E-3,-4.8756303E-4,2.1439196E-4,-5.1359535E-4,2.1621585E-5,3.4676195E-4],"categories":[],"categories_nodes":[],"categories_segments":[],"categories_sizes":[],"default_left":[0,0,0,0,0,0,0,0,0,0,0,0,0,0,0,0,0,0,0,0,0,0,0],"id":20,"left_children":[1,3,5,7,-1,-1,-1,-1,9,11,13,15,17,19,21,-1,-1,-1,-1,-1,-1,-1,-1],"loss_changes":[2.444452E-4,1.9493777E-6,1.7429382E-5,2.2686106E-6,0E0,0E0,0E0,0E0,1.7402881E-6,1.6616814E-6,5.4488196E-6,2.9144705E-5,2.8519718E-5,8.53435E-6,3.1126438E-6,0E0,0E0,0E0,0E0,0E0,0E0,0E0,0E0],"parents":[2147483647,0,0,1,1,2,2,3,3,8,8,9,9,10,10,11,11,12,12,13,13,14,14],"right_children":[2,4,6,8,-1,-1,-1,-1,10,12,14,16,18,20,22,-1,-1,-1,-1,-1,-1,-1,-1],"split_conditions":[1E-1,4.3287612E-2,1E0,2.3101296E-5,-1.4846327E-4,-3.4618077E-3,-7.344872E-4,-1.3987423E-4,1.2328467E-4,5.336699E-5,6.5793324E-4,1E0,1E0,1E0,1E0,-7.653505E-4,8.550525E-4,1.1610658E-3,-4.8756303E-4,2.1439196E-4,-5.1359535E-4,2.1621585E-5,3.4676195E-4],"split_indices":[0,0,1,0,0,0,0,0,0,0,0,1,1,1,1,0,0,0,0,0,0,0,0],"split_type":[0,0,0,0,0,0,0,0,0,0,0,0,0,0,0,0,0,0,0,0,0,0,0],"sum_hessian":[2.4E1,2.2E1,2E0,2E1,2E0,1E0,1E0,2E0,1.8E1,4E0,1.4E1,2E0,2E0,4E0,1E1,1E0,1E0,1E0,1E0,2E0,2E0,5E0,5E0],"tree_param":{"num_deleted":"0","num_feature":"2","num_nodes":"23","size_leaf_vector":"1"}},{"base_weights":[-7.4515137E-4,2.239217E-4,-7.926327E-3,3.8260221E-4,-1.934341E-4,-2.9425365E-3,-6.24311E-4,1.5278657E-4,1.4041463E-3,-1.9764752E-4,3.2031536E-4,3.7081883E-4,-8.4294874E-4,1.0290295E-3,-3.9716365E-4,-1.06939675E-4,1.9941926E-4,7.3844734E-5,1.3361176E-3,-6.439716E-4,2.6464462E-4,1.0804733E-4,-2.4291278E-4,-9.9813944E-5,7.0106686E-4],"categories":[],"categories_nodes":[],"categories_segments":[],"categories_sizes":[],"default_left":[0,0,0,0,0,0,0,0,0,0,0,0,0,0,0,0,0,0,0,0,0,0,0,0,0],"id":21,"left_children":[1,3,5,7,9,-1,-1,11,13,-1,15,17,19,-1,-1,-1,-1,21,23,-1,-1,-1,-1,-1,-1],"loss_changes":[1.7575198E-4,1.5972117E-6,1.2592995E-5,3.7765012E-6,1.8846922E-6,0E0,0E0,3.5691176E-6,2.1121577E-5,0E0,1.1693292E-6,3.628028E-6,8.640227E-6,0E0,0E0,0E0,0E0,3.074326E-6,5.7878715E-6,0E0,0E0,0E0,0E0,0E0,0E0],"parents":[2147483647,0,0,1,1,2,2,3,3,4,4,7,7,8,8,10,10,11,11,12,12,17,17,18,18],"right_children":[2,4,6,8,10,-1,-1,12,14,-1,16,18,20,-1,-1,-1,-1,22,24,-1,-1,-1,-1,-1,-1],"split_conditions":[1E-1,8.111308E-3,1E0,3.5111918E-3,1E0,-2.9425365E-3,-6.24311E-4,1.5199111E-3,1E0,-1.9764752E-4,1.8738175E-2,6.5793324E-4,1E0,1.0290295E-3,-3.9716365E-4,-1.06939675E-4,1.9941926E-4,2.848036E-4,1E0,-6.439716E-4,2.6464462E-4,1.0804733E-4,-2.4291278E-4,-9.9813944E-5,7.0106686E-4],"split_indices":[0,0,1,0,1,0,0,0,1,0,0,0,1,0,0,0,0,0,1,0,0,0,0,0,0],"split_type":[0,0,0,0,0,0,0,0,0,0,0,0,0,0,0,0,0,0,0,0,0,0,0,0,0],"sum_hessian":[2.4E1,2.2E1,2E0,1.6E1,6E0,1E0,1E0,1.4E1,2E0,3E0,3E0,1.2E1,2E0,1E0,1E0,1E0,2E0,1E1,2E0,1E0,1E0,8E0,2E0,1E0,1E0],"tree_param":{"num_deleted":"0","num_feature":"2","num_nodes":"25","size_leaf_vector":"1"}},{"base_weights":[-6.397378E-4,1.8342164E-4,-6.737381E-3,-1.3350845E-4,2.644658E-4,-2.5011555E-3,-5.3066615E-4,7.7852013E-4,9.7716555E-5,9.739399E-5,1.2001395E-3,-4.2479037E-4,2.911641E-4,-6.667614E-4,7.105887E-4,9.707004E-4,-4.3063762E-4,1.8499495E-4,-3.9739013E-4,1.1357069E-3,3.4364788E-5,-8.483828E-5,5.959064E-4,-2.1495223E-4,8.4251165E-5],"categories":[],"categories_nodes":[],"categories_segments":[],"categories_sizes":[],"default_left":[0,0,0,0,0,0,0,0,0,0,0,0,0,0,0,0,0,0,0,0,0,0,0,0,0],"id":22,"left_children":[1,3,5,-1,7,-1,-1,9,11,13,15,17,19,-1,-1,-1,-1,-1,-1,21,23,-1,-1,-1,-1],"loss_changes":[1.2671911E-4,1.2891351E-6,9.098294E-6,0E0,1.7240073E-6,0E0,0E0,1.3189933E-6,1.8420045E-6,2.10717E-5,2.0739173E-5,5.5025007E-6,2.7803856E-6,0E0,0E0,0E0,0E0,0E0,0E0,4.1816643E-6,2.2369843E-6,0E0,0E0,0E0,0E0],"parents":[2147483647,0,0,1,1,2,2,4,4,7,7,8,8,9,9,10,10,11,11,12,12,19,19,20,20],"right_children":[2,4,6,-1,8,-1,-1,10,12,14,16,18,20,-1,-1,-1,-1,-1,-1,22,24,-1,-1,-1,-1],"split_conditions":[1E-1,2.3101296E-5,1E0,-1.3350845E-4,1.2328467E-4,-2.5011555E-3,-5.3066615E-4,5.336699E-5,6.5793324E-4,1E0,1E0,1E0,1.5199111E-3,-6.667614E-4,7.105887E-4,9.707004E-4,-4.3063762E-4,1.8499495E-4,-3.9739013E-4,1E0,3.5111918E-3,-8.483828E-5,5.959064E-4,-2.1495223E-4,8.4251165E-5],"split_indices":[0,0,1,0,0,0,0,0,0,1,1,1,0,0,0,0,0,0,0,1,0,0,0,0,0],"split_type":[0,0,0,0,0,0,0,0,0,0,0,0,0,0,0,0,0,0,0,0,0,0,0,0,0],"sum_hessian":[2.4E1,2.2E1,2E0,2E0,2E1,1E0,1E0,4E0,1.6E1,2E0,2E0,4E0,1.2E1,1E0,1E0,1E0,1E0,2E0,2E0,2E0,1E1,1E0,1E0,2E0,8E0],"tree_param":{"num_deleted":"0","num_feature":"2","num_nodes":"25","size_leaf_vector":"1"}},{"base_weights":[-5.4435997E-4,1.5527528E-4,-5.726777E-3,3.0175727E-4,-2.2264889E-4,-2.1259827E-3,-4.510671E-4,1.1451642E-4,1.1373758E-3,-1.7213076E-4,5.5240096E-5,-2.3239851E-4,4.471168E-4,8.620441E-4,-3.50225E-4,-4.924715E-4,5.1092106E-4,-2.524058E-4,5.0913694E-4,7.159174E-4,-3.0702353E-4,4.104972E-4,-4.214555E-4],"categories":[],"categories_nodes":[],"categories_segments":[],"categories_sizes":[],"default_left":[0,0,0,0,0,0,0,0,0,0,0,0,0,0,0,0,0,0,0,0,0,0,0],"id":23,"left_children":[1,3,5,7,9,-1,-1,11,13,-1,-1,15,17,-1,-1,-1,19,21,-1,-1,-1,-1,-1],"loss_changes":[9.153426E-5,1.340445E-6,6.5734857E-6,2.529605E-6,1.1054575E-6,0E0,0E0,1.8346699E-6,1.535863E-5,0E0,0E0,9.21844E-6,7.423625E-6,0E0,0E0,0E0,1.9707832E-5,1.3129112E-5,0E0,0E0,0E0,0E0,0E0],"parents":[2147483647,0,0,1,1,2,2,3,3,4,4,7,7,8,8,11,11,12,12,16,16,17,17],"right_children":[2,4,6,8,10,-1,-1,12,14,-1,-1,16,18,-1,-1,-1,20,22,-1,-1,-1,-1,-1],"split_conditions":[1E-1,8.111308E-3,1E0,3.5111918E-3,1E0,-2.1259827E-3,-4.510671E-4,1E0,1E0,-1.7213076E-4,5.5240096E-5,5.336699E-5,6.5793324E-4,8.620441E-4,-3.50225E-4,-4.924715E-4,2.848036E-4,5.336699E-5,5.0913694E-4,7.159174E-4,-3.0702353E-4,4.104972E-4,-4.214555E-4],"split_indices":[0,0,1,0,1,0,0,1,1,0,0,0,0,0,0,0,0,0,0,0,0,0,0],"split_type":[0,0,0,0,0,0,0,0,0,0,0,0,0,0,0,0,0,0,0,0,0,0,0],"sum_hessian":[2.4E1,2.2E1,2E0,1.6E1,6E0,1E0,1E0,1.4E1,2E0,3E0,3E0,7E0,7E0,1E0,1E0,2E0,5E0,5E0,2E0,2E0,3E0,2E0,3E0],"tree_param":{"num_deleted":"0","num_feature":"2","num_nodes":"23","size_leaf_vector":"1"}},{"base_weights":[-4.5175315E-4,1.438882E-4,-4.8677525E-3,6.500738E-5,-1.2410879E-4,-1.8070848E-3,-3.834039E-4],"categories":[],"categories_nodes":[],"categories_segments":[],"categories_sizes":[],"default_left":[0,0,0,0,0,0,0],"id":24,"left_children":[1,3,5,-1,-1,-1,-1],"loss_changes":[6.64592E-5,1.0233025E-6,4.7494905E-6,0E0,0E0,0E0,0E0],"parents":[2147483647,0,0,1,1,2,2],"right_children":[2,4,6,-1,-1,-1,-1],"split_conditions":[1E-1,4.3287612E-2,1E0,6.500738E-5,-1.2410879E-4,-1.8070848E-3,-3.834039E-4],"split_indices":[0,0,1,0,0,0,0],"split_type":[0,0,0,0,0,0,0],"sum_hessian":[2.4E1,2.2E1,2E0,2E1,2E0,1E0,1E0],"tree_param":{"num_deleted":"0","num_feature":"2","num_nodes":"7","size_leaf_vector":"1"}},{"base_weights":[-4.0622978E-4,2.9439772E-5,-4.137598E-3,-1.5360218E-3,-3.2589736E-4],"categories":[],"categories_nodes":[],"categories_segments":[],"categories_sizes":[],"default_left":[0,0,0,0,0],"id":25,"left_children":[1,-1,3,-1,-1],"loss_changes":[4.7455076E-5,0E0,3.4313343E-6,0E0,0E0],"parents":[2147483647,0,0,2,2],"right_children":[2,-1,4,-1,-1],"split_conditions":[1E-1,2.9439772E-5,1E0,-1.5360218E-3,-3.2589736E-4],"split_indices":[0,0,1,0,0],"split_type":[0,0,0,0,0],"sum_hessian":[2.4E1,2.2E1,2E0,1E0,1E0],"tree_param":{"num_deleted":"0","num_feature":"2","num_nodes":"5","size_leaf_vector":"1"}},{"base_weights":[-3.5766364E-4,2.0990423E-5,-3.5169523E-3,-1.3056189E-3,-2.7700962E-4],"categories":[],"categories_nodes":[],"categories_segments":[],"categories_sizes":[],"default_left":[0,0,0,0,0],"id":26,"left_children":[1,-1,3,-1,-1],"loss_changes":[3.402137E-5,0E0,2.479257E-6,0E0,0E0],"parents":[2147483647,0,0,2,2],"right_children":[2,-1,4,-1,-1],"split_conditions":[1E-1,2.0990423E-5,1E0,-1.3056189E-3,-2.7700962E-4],"split_indices":[0,0,1,0,0],"split_type":[0,0,0,0,0],"sum_hessian":[2.4E1,2.2E1,2E0,1E0,1E0],"tree_param":{"num_deleted":"0","num_feature":"2","num_nodes":"5","size_leaf_vector":"1"}},{"base_weights":[-3.1282275E-4,1.4969836E-5,-2.9894188E-3,-1.1097763E-3,-2.354622E-4],"categories":[],"categories_nodes":[],"categories_segments":[],"categories_sizes":[],"default_left":[0,0,0,0,0],"id":27,"left_children":[1,-1,3,-1,-1],"loss_changes":[2.4420691E-5,0E0,1.7911443E-6,0E0,0E0],"parents":[2147483647,0,0,2,2],"right_children":[2,-1,4,-1,-1],"split_conditions":[1E-1,1.4969836E-5,1E0,-1.1097763E-3,-2.354622E-4],"split_indices":[0,0,1,0,0],"split_type":[0,0,0,0,0],"sum_hessian":[2.4E1,2.2E1,2E0,1E0,1E0],"tree_param":{"num_deleted":"0","num_feature":"2","num_nodes":"5","size_leaf_vector":"1"}},{"base_weights":[-2.7217955E-4,1.06767475E-5,-2.541013E-3,-9.4330945E-4,-2.0014645E-4],"categories":[],"categories_nodes":[],"categories_segments":[],"categories_sizes":[],"default_left":[0,0,0,0,0],"id":28,"left_children":[1,-1,3,-1,-1],"loss_changes":[1.754733E-5,0E0,1.294009E-6,0E0,0E0],"parents":[2147483647,0,0,2,2],"right_children":[2,-1,4,-1,-1],"split_conditions":[1E-1,1.06767475E-5,1E0,-9.4330945E-4,-2.0014645E-4],"split_indices":[0,0,1,0,0],"split_type":[0,0,0,0,0],"sum_hessian":[2.4E1,2.2E1,2E0,1E0,1E0],"tree_param":{"num_deleted":"0","num_feature":"2","num_nodes":"5","size_leaf_vector":"1"}},{"base_weights":[-2.3582995E-4,7.6151414E-6,-6.4795767E-4],"categories":[],"categories_nodes":[],"categories_segments":[],"categories_sizes":[],"default_left":[0,0,0],"id":29,"left_children":[1,-1,-1],"loss_changes":[1.2619395E-5,0E0,0E0],"parents":[2147483647,0,0],"right_children":[2,-1,-1],"split_conditions":[1E-1,7.6151414E-6,-6.4795767E-4],"split_indices":[0,0,0],"split_type":[0,0,0],"sum_hessian":[2.4E1,2.2E1,2E0],"tree_param":{"num_deleted":"0","num_feature":"2","num_nodes":"3","size_leaf_vector":"1"}},{"base_weights":[-1.9070714E-4,5.425837E-6,-1.7278865E-3,-7.046197E-4,-7.2929266E-5],"categories":[],"categories_nodes":[],"categories_segments":[],"categories_sizes":[],"default_left":[0,0,0,0,0],"id":30,"left_children":[1,-1,3,-1,-1],"loss_changes":[8.055069E-6,0E0,2.1945025E-6,0E0,0E0],"parents":[2147483647,0,0,2,2],"right_children":[2,-1,4,-1,-1],"split_conditions":[1E-1,5.425837E-6,1E0,-7.046197E-4,-7.2929266E-5],"split_indices":[0,0,1,0,0],"split_type":[0,0,0,0,0],"sum_hessian":[2.4E1,2.2E1,2E0,1E0,1E0],"tree_param":{"num_deleted":"0","num_feature":"2","num_nodes":"5","size_leaf_vector":"1"}},{"base_weights":[-1.6437739E-4,3.8693784E-6,-1.4686957E-3,-5.9892726E-4,-6.1985855E-5],"categories":[],"categories_nodes":[],"categories_segments":[],"categories_sizes":[],"default_left":[0,0,0,0,0],"id":31,"left_children":[1,-1,3,-1,-1],"loss_changes":[5.799529E-6,0E0,1.5856008E-6,0E0,0E0],"parents":[2147483647,0,0,2,2],"right_children":[2,-1,4,-1,-1],"split_conditions":[1E-1,3.8693784E-6,1E0,-5.9892726E-4,-6.1985855E-5],"split_indices":[0,0,1,0,0],"split_type":[0,0,0,0,0],"sum_hessian":[2.4E1,2.2E1,2E0,1E0,1E0],"tree_param":{"num_deleted":"0","num_feature":"2","num_nodes":"5","size_leaf_vector":"1"}},{"base_weights":[-1.4135003E-4,1.986112E-5,-9.848059E-4,-4.135162E-4,-7.888675E-5],"categories":[],"categories_nodes":[],"categories_segments":[],"categories_sizes":[],"default_left":[0,0,0,0,0],"id":32,"left_children":[1,-1,3,-1,-1],"loss_changes":[4.4417584E-6,0E0,1.0580789E-6,0E0,0E0],"parents":[2147483647,0,0,2,2],"right_children":[2,-1,4,-1,-1],"split_conditions":[4.3287612E-2,1.986112E-5,1E0,-4.135162E-4,-7.888675E-5],"split_indices":[0,0,1,0,0],"split_type":[0,0,0,0,0],"sum_hessian":[2.4E1,2E1,4E0,2E0,2E0],"tree_param":{"num_deleted":"0","num_feature":"2","num_nodes":"5","size_leaf_vector":"1"}},{"base_weights":[-1.17838084E-4,4.0023224E-6,-3.2527972E-4],"categories":[],"categories_nodes":[],"categories_segments":[],"categories_sizes":[],"default_left":[0,0,0],"id":33,"left_children":[1,-1,-1],"loss_changes":[3.183844E-6,0E0,0E0],"parents":[2147483647,0,0],"right_children":[2,-1,-1],"split_conditions":[1E-1,4.0023224E-6,-3.2527972E-4],"split_indices":[0,0,0],"split_type":[0,0,0],"sum_hessian":[2.4E1,2.2E1,2E0],"tree_param":{"num_deleted":"0","num_feature":"2","num_nodes":"3","size_leaf_vector":"1"}},{"base_weights":[-9.5330775E-5,2.8563584E-6,-8.6741894E-4,-3.9826895E-4,7.930398E-6],"categories":[],"categories_nodes":[],"categories_segments":[],"categories_sizes":[],"default_left":[0,0,0,0,0],"id":34,"left_children":[1,-1,3,-1,-1],"loss_changes":[2.0321331E-6,0E0,1.2689982E-6,0E0,0E0],"parents":[2147483647,0,0,2,2],"right_children":[2,-1,4,-1,-1],"split_conditions":[1E-1,2.8563584E-6,1E0,-3.9826895E-4,7.930398E-6],"split_indices":[0,0,1,0,0],"split_type":[0,0,0,0,0],"sum_hessian":[2.4E1,2.2E1,2E0,1E0,1E0],"tree_param":{"num_deleted":"0","num_feature":"2","num_nodes":"5","size_leaf_vector":"1"}},{"base_weights":[-8.223474E-5,1.2231725E-5,-1.7472536E-4],"categories":[],"categories_nodes":[],"categories_segments":[],"categories_sizes":[],"default_left":[0,0,0],"id":35,"left_children":[1,-1,-1],"loss_changes":[1.5618991E-6,0E0,0E0],"parents":[2147483647,0,0],"right_children":[2,-1,-1],"split_conditions":[4.3287612E-2,1.2231725E-5,-1.7472536E-4],"split_indices":[0,0,0],"split_type":[0,0,0],"sum_hessian":[2.4E1,2E1,4E0],"tree_param":{"num_deleted":"0","num_feature":"2","num_nodes":"3","size_leaf_vector":"1"}},{"base_weights":[-6.405681E-5,3.4052393E-6,-6.208296E-4,-3.1231978E-4,3.2946467E-5],"categories":[],"categories_nodes":[],"categories_segments":[],"categories_sizes":[],"default_left":[0,0,0,0,0],"id":36,"left_children":[1,-1,3,-1,-1],"loss_changes":[1.0566695E-6,0E0,1.0354701E-6,0E0,0E0],"parents":[2147483647,0,0,2,2],"right_children":[2,-1,4,-1,-1],"split_conditions":[1E-1,3.4052393E-6,1E0,-3.1231978E-4,3.2946467E-5],"split_indices":[0,0,1,0,0],"split_type":[0,0,0,0,0],"sum_hessian":[2.4E1,2.2E1,2E0,1E0,1E0],"tree_param":{"num_deleted":"0","num_feature":"2","num_nodes":"5","size_leaf_vector":"1"}},{"base_weights":[-5.5872202E-5],"categories":[],"categories_nodes":[],"categories_segments":[],"categories_sizes":[],"default_left":[0],"id":37,"left_children":[-1],"loss_changes":[0E0],"parents":[2147483647],"right_children":[-1],"split_conditions":[-1.6761662E-5],"split_indices":[0],"split_type":[0],"sum_hessian":[2.4E1],"tree_param":{"num_deleted":"0","num_feature":"2","num_nodes":"1","size_leaf_vector":"1"}},{"base_weights":[-3.9792656E-5],"categories":[],"categories_nodes":[],"categories_segments":[],"categories_sizes":[],"default_left":[0],"id":38,"left_children":[-1],"loss_changes":[0E0],"parents":[2147483647],"right_children":[-1],"split_conditions":[-1.1937797E-5],"split_indices":[0],"split_type":[0],"sum_hessian":[2.4E1],"tree_param":{"num_deleted":"0","num_feature":"2","num_nodes":"1","size_leaf_vector":"1"}},{"base_weights":[-2.834797E-5],"categories":[],"categories_nodes":[],"categories_segments":[],"categories_sizes":[],"default_left":[0],"id":39,"left_children":[-1],"loss_changes":[0E0],"parents":[2147483647],"right_children":[-1],"split_conditions":[-8.504391E-6],"split_indices":[0],"split_type":[0],"sum_hessian":[2.4E1],"tree_param":{"num_deleted":"0","num_feature":"2","num_nodes":"1","size_leaf_vector":"1"}},{"base_weights":[-2.0166337E-5],"categories":[],"categories_nodes":[],"categories_segments":[],"categories_sizes":[],"default_left":[0],"id":40,"left_children":[-1],"loss_changes":[0E0],"parents":[2147483647],"right_children":[-1],"split_conditions":[-6.0499015E-6],"split_indices":[0],"split_type":[0],"sum_hessian":[2.4E1],"tree_param":{"num_deleted":"0","num_feature":"2","num_nodes":"1","size_leaf_vector":"1"}},{"base_weights":[-1.4331043E-5],"categories":[],"categories_nodes":[],"categories_segments":[],"categories_sizes":[],"default_left":[0],"id":41,"left_children":[-1],"loss_changes":[0E0],"parents":[2147483647],"right_children":[-1],"split_conditions":[-4.299313E-6],"split_indices":[0],"split_type":[0],"sum_hessian":[2.4E1],"tree_param":{"num_deleted":"0","num_feature":"2","num_nodes":"1","size_leaf_vector":"1"}},{"base_weights":[-1.0210872E-5],"categories":[],"categories_nodes":[],"categories_segments":[],"categories_sizes":[],"default_left":[0],"id":42,"left_children":[-1],"loss_changes":[0E0],"parents":[2147483647],"right_children":[-1],"split_conditions":[-3.0632616E-6],"split_indices":[0],"split_type":[0],"sum_hessian":[2.4E1],"tree_param":{"num_deleted":"0","num_feature":"2","num_nodes":"1","size_leaf_vector":"1"}},{"base_weights":[-7.291734E-6],"categories":[],"categories_nodes":[],"categories_segments":[],"categories_sizes":[],"default_left":[0],"id":43,"left_children":[-1],"loss_changes":[0E0],"parents":[2147483647],"right_children":[-1],"split_conditions":[-2.1875203E-6],"split_indices":[0],"split_type":[0],"sum_hessian":[2.4E1],"tree_param":{"num_deleted":"0","num_feature":"2","num_nodes":"1","size_leaf_vector":"1"}},{"base_weights":[-5.175173E-6],"categories":[],"categories_nodes":[],"categories_segments":[],"categories_sizes":[],"default_left":[0],"id":44,"left_children":[-1],"loss_changes":[0E0],"parents":[2147483647],"right_children":[-1],"split_conditions":[-1.552552E-6],"split_indices":[0],"split_type":[0],"sum_hessian":[2.4E1],"tree_param":{"num_deleted":"0","num_feature":"2","num_nodes":"1","size_leaf_vector":"1"}},{"base_weights":[-3.6874414E-6],"categories":[],"categories_nodes":[],"categories_segments":[],"categories_sizes":[],"default_left":[0],"id":45,"left_children":[-1],"loss_changes":[0E0],"parents":[2147483647],"right_children":[-1],"split_conditions":[-1.1062325E-6],"split_indices":[0],"split_type":[0],"sum_hessian":[2.4E1],"tree_param":{"num_deleted":"0","num_feature":"2","num_nodes":"1","size_leaf_vector":"1"}},{"base_weights":[-2.6014447E-6],"categories":[],"categories_nodes":[],"categories_segments":[],"categories_sizes":[],"default_left":[0],"id":46,"left_children":[-1],"loss_changes":[0E0],"parents":[2147483647],"right_children":[-1],"split_conditions":[-7.804335E-7],"split_indices":[0],"split_type":[0],"sum_hessian":[2.4E1],"tree_param":{"num_deleted":"0","num_feature":"2","num_nodes":"1","size_leaf_vector":"1"}},{"base_weights":[-1.8572807E-6],"categories":[],"categories_nodes":[],"categories_segments":[],"categories_sizes":[],"default_left":[0],"id":47,"left_children":[-1],"loss_changes":[0E0],"parents":[2147483647],"right_children":[-1],"split_conditions":[-5.5718425E-7],"split_indices":[0],"split_type":[0],"sum_hessian":[2.4E1],"tree_param":{"num_deleted":"0","num_feature":"2","num_nodes":"1","size_leaf_vector":"1"}},{"base_weights":[-1.3414025E-6],"categories":[],"categories_nodes":[],"categories_segments":[],"categories_sizes":[],"default_left":[0],"id":48,"left_children":[-1],"loss_changes":[0E0],"parents":[2147483647],"right_children":[-1],"split_conditions":[-4.0242077E-7],"split_indices":[0],"split_type":[0],"sum_hessian":[2.4E1],"tree_param":{"num_deleted":"0","num_feature":"2","num_nodes":"1","size_leaf_vector":"1"}},{"base_weights":[-9.4145537E-7],"categories":[],"categories_nodes":[],"categories_segments":[],"categories_sizes":[],"default_left":[0],"id":49,"left_children":[-1],"loss_changes":[0E0],"parents":[2147483647],"right_children":[-1],"split_conditions":[-2.8243662E-7],"split_indices":[0],"split_type":[0],"sum_hessian":[2.4E1],"tree_param":{"num_deleted":"0","num_feature":"2","num_nodes":"1","size_leaf_vector":"1"}},{"base_weights":[-6.559491E-7],"categories":[],"categories_nodes":[],"categories_segments":[],"categories_sizes":[],"default_left":[0],"id":50,"left_children":[-1],"loss_changes":[0E0],"parents":[2147483647],"right_children":[-1],"split_conditions":[-1.9678474E-7],"split_indices":[0],"split_type":[0],"sum_hessian":[2.4E1],"tree_param":{"num_deleted":"0","num_feature":"2","num_nodes":"1","size_leaf_vector":"1"}},{"base_weights":[-4.836917E-7],"categories":[],"categories_nodes":[],"categories_segments":[],"categories_sizes":[],"default_left":[0],"id":51,"left_children":[-1],"loss_changes":[0E0],"parents":[2147483647],"right_children":[-1],"split_conditions":[-1.451075E-7],"split_indices":[0],"split_type":[0],"sum_hessian":[2.4E1],"tree_param":{"num_deleted":"0","num_feature":"2","num_nodes":"1","size_leaf_vector":"1"}},{"base_weights":[-3.683567E-7],"categories":[],"categories_nodes":[],"categories_segments":[],"categories_sizes":[],"default_left":[0],"id":52,"left_children":[-1],"loss_changes":[0E0],"parents":[2147483647],"right_children":[-1],"split_conditions":[-1.1050701E-7],"split_indices":[0],"split_type":[0],"sum_hessian":[2.4E1],"tree_param":{"num_deleted":"0","num_feature":"2","num_nodes":"1","size_leaf_vector":"1"}},{"base_weights":[-2.542138E-7],"categories":[],"categories_nodes":[],"categories_segments":[],"categories_sizes":[],"default_left":[0],"id":53,"left_children":[-1],"loss_changes":[0E0],"parents":[2147483647],"right_children":[-1],"split_conditions":[-7.626414E-8],"split_indices":[0],"split_type":[0],"sum_hessian":[2.4E1],"tree_param":{"num_deleted":"0","num_feature":"2","num_nodes":"1","size_leaf_vector":"1"}},{"base_weights":[-1.9639731E-7],"categories":[],"categories_nodes":[],"categories_segments":[],"categories_sizes":[],"default_left":[0],"id":54,"left_children":[-1],"loss_changes":[0E0],"parents":[2147483647],"right_children":[-1],"split_conditions":[-5.8919195E-8],"split_indices":[0],"split_type":[0],"sum_hessian":[2.4E1],"tree_param":{"num_deleted":"0","num_feature":"2","num_nodes":"1","size_leaf_vector":"1"}},{"base_weights":[-1.3917685E-7],"categories":[],"categories_nodes":[],"categories_segments":[],"categories_sizes":[],"default_left":[0],"id":55,"left_children":[-1],"loss_changes":[0E0],"parents":[2147483647],"right_children":[-1],"split_conditions":[-4.1753054E-8],"split_indices":[0],"split_type":[0],"sum_hessian":[2.4E1],"tree_param":{"num_deleted":"0","num_feature":"2","num_nodes":"1","size_leaf_vector":"1"}},{"base_weights":[-8.255243E-8],"categories":[],"categories_nodes":[],"categories_segments":[],"categories_sizes":[],"default_left":[0],"id":56,"left_children":[-1],"loss_changes":[0E0],"parents":[2147483647],"right_children":[-1],"split_conditions":[-2.476573E-8],"split_indices":[0],"split_type":[0],"sum_hessian":[2.4E1],"tree_param":{"num_deleted":"0","num_feature":"2","num_nodes":"1","size_leaf_vector":"1"}},{"base_weights":[-8.1658364E-8],"categories":[],"categories_nodes":[],"categories_segments":[],"categories_sizes":[],"default_left":[0],"id":57,"left_children":[-1],"loss_changes":[0E0],"parents":[2147483647],"right_children":[-1],"split_conditions":[-2.449751E-8],"split_indices":[0],"split_type":[0],"sum_hessian":[2.4E1],"tree_param":{"num_deleted":"0","num_feature":"2","num_nodes":"1","size_leaf_vector":"1"}},{"base_weights":[-8.0764295E-8],"categories":[],"categories_nodes":[],"categories_segments":[],"categories_sizes":[],"default_left":[0],"id":58,"left_children":[-1],"loss_changes":[0E0],"parents":[2147483647],"right_children":[-1],"split_conditions":[-2.4229289E-8],"split_indices":[0],"split_type":[0],"sum_hessian":[2.4E1],"tree_param":{"num_deleted":"0","num_feature":"2","num_nodes":"1","size_leaf_vector":"1"}},{"base_weights":[-7.9870226E-8],"categories":[],"categories_nodes":[],"categories_segments":[],"categories_sizes":[],"default_left":[0],"id":59,"left_children":[-1],"loss_changes":[0E0],"parents":[2147483647],"right_children":[-1],"split_conditions":[-2.396107E-8],"split_indices":[0],"split_type":[0],"sum_hessian":[2.4E1],"tree_param":{"num_deleted":"0","num_feature":"2","num_nodes":"1","size_leaf_vector":"1"}},{"base_weights":[-7.897616E-8],"categories":[],"categories_nodes":[],"categories_segments":[],"categories_sizes":[],"default_left":[0],"id":60,"left_children":[-1],"loss_changes":[0E0],"parents":[2147483647],"right_children":[-1],"split_conditions":[-2.3692849E-8],"split_indices":[0],"split_type":[0],"sum_hessian":[2.4E1],"tree_param":{"num_deleted":"0","num_feature":"2","num_nodes":"1","size_leaf_vector":"1"}},{"base_weights":[-7.808208E-8],"categories":[],"categories_nodes":[],"categories_segments":[],"categories_sizes":[],"default_left":[0],"id":61,"left_children":[-1],"loss_changes":[0E0],"parents":[2147483647],"right_children":[-1],"split_conditions":[-2.3424626E-8],"split_indices":[0],"split_type":[0],"sum_hessian":[2.4E1],"tree_param":{"num_deleted":"0","num_feature":"2","num_nodes":"1","size_leaf_vector":"1"}},{"base_weights":[-7.718801E-8],"categories":[],"categories_nodes":[],"categories_segments":[],"categories_sizes":[],"default_left":[0],"id":62,"left_children":[-1],"loss_changes":[0E0],"parents":[2147483647],"right_children":[-1],"split_conditions":[-2.3156405E-8],"split_indices":[0],"split_type":[0],"sum_hessian":[2.4E1],"tree_param":{"num_deleted":"0","num_feature":"2","num_nodes":"1","size_leaf_vector":"1"}},{"base_weights":[-7.6293944E-8],"categories":[],"categories_nodes":[],"categories_segments":[],"categories_sizes":[],"default_left":[0],"id":63,"left_children":[-1],"loss_changes":[0E0],"parents":[2147483647],"right_children":[-1],"split_conditions":[-2.2888184E-8],"split_indices":[0],"split_type":[0],"sum_hessian":[2.4E1],"tree_param":{"num_deleted":"0","num_feature":"2","num_nodes":"1","size_leaf_vector":"1"}},{"base_weights":[-7.5399875E-8],"categories":[],"categories_nodes":[],"categories_segments":[],"categories_sizes":[],"default_left":[0],"id":64,"left_children":[-1],"loss_changes":[0E0],"parents":[2147483647],"right_children":[-1],"split_conditions":[-2.2619963E-8],"split_indices":[0],"split_type":[0],"sum_hessian":[2.4E1],"tree_param":{"num_deleted":"0","num_feature":"2","num_nodes":"1","size_leaf_vector":"1"}},{"base_weights":[-7.4505806E-8],"categories":[],"categories_nodes":[],"categories_segments":[],"categories_sizes":[],"default_left":[0],"id":65,"left_children":[-1],"loss_changes":[0E0],"parents":[2147483647],"right_children":[-1],"split_conditions":[-2.2351742E-8],"split_indices":[0],"split_type":[0],"sum_hessian":[2.4E1],"tree_param":{"num_deleted":"0","num_feature":"2","num_nodes":"1","size_leaf_vector":"1"}},{"base_weights":[-7.361174E-8],"categories":[],"categories_nodes":[],"categories_segments":[],"categories_sizes":[],"default_left":[0],"id":66,"left_children":[-1],"loss_changes":[0E0],"parents":[2147483647],"right_children":[-1],"split_conditions":[-2.2083523E-8],"split_indices":[0],"split_type":[0],"sum_hessian":[2.4E1],"tree_param":{"num_deleted":"0","num_feature":"2","num_nodes":"1","size_leaf_vector":"1"}},{"base_weights":[-7.271767E-8],"categories":[],"categories_nodes":[],"categories_segments":[],"categories_sizes":[],"default_left":[0],"id":67,"left_children":[-1],"loss_changes":[0E0],"parents":[2147483647],"right_children":[-1],"split_conditions":[-2.1815302E-8],"split_indices":[0],"split_type":[0],"sum_hessian":[2.4E1],"tree_param":{"num_deleted":"0","num_feature":"2","num_nodes":"1","size_leaf_vector":"1"}},{"base_weights":[-7.18236E-8],"categories":[],"categories_nodes":[],"categories_segments":[],"categories_sizes":[],"default_left":[0],"id":68,"left_children":[-1],"loss_changes":[0E0],"parents":[2147483647],"right_children":[-1],"split_conditions":[-2.154708E-8],"split_indices":[0],"split_type":[0],"sum_hessian":[2.4E1],"tree_param":{"num_deleted":"0","num_feature":"2","num_nodes":"1","size_leaf_vector":"1"}},{"base_weights":[-7.092953E-8],"categories":[],"categories_nodes":[],"categories_segments":[],"categories_sizes":[],"default_left":[0],"id":69,"left_children":[-1],"loss_changes":[0E0],"parents":[2147483647],"right_children":[-1],"split_conditions":[-2.127886E-8],"split_indices":[0],"split_type":[0],"sum_hessian":[2.4E1],"tree_param":{"num_deleted":"0","num_feature":"2","num_nodes":"1","size_leaf_vector":"1"}},{"base_weights":[-7.0035455E-8],"categories":[],"categories_nodes":[],"categories_segments":[],"categories_sizes":[],"default_left":[0],"id":70,"left_children":[-1],"loss_changes":[0E0],"parents":[2147483647],"right_children":[-1],"split_conditions":[-2.1010637E-8],"split_indices":[0],"split_type":[0],"sum_hessian":[2.4E1],"tree_param":{"num_deleted":"0","num_feature":"2","num_nodes":"1","size_leaf_vector":"1"}},{"base_weights":[-6.9141386E-8],"categories":[],"categories_nodes":[],"categories_segments":[],"categories_sizes":[],"default_left":[0],"id":71,"left_children":[-1],"loss_changes":[0E0],"parents":[2147483647],"right_children":[-1],"split_conditions":[-2.0742416E-8],"split_indices":[0],"split_type":[0],"sum_hessian":[2.4E1],"tree_param":{"num_deleted":"0","num_feature":"2","num_nodes":"1","size_leaf_vector":"1"}},{"base_weights":[-6.824732E-8],"categories":[],"categories_nodes":[],"categories_segments":[],"categories_sizes":[],"default_left":[0],"id":72,"left_children":[-1],"loss_changes":[0E0],"parents":[2147483647],"right_children":[-1],"split_conditions":[-2.0474197E-8],"split_indices":[0],"split_type":[0],"sum_hessian":[2.4E1],"tree_param":{"num_deleted":"0","num_feature":"2","num_nodes":"1","size_leaf_vector":"1"}},{"base_weights":[-6.735325E-8],"categories":[],"categories_nodes":[],"categories_segments":[],"categories_sizes":[],"default_left":[0],"id":73,"left_children":[-1],"loss_changes":[0E0],"parents":[2147483647],"right_children":[-1],"split_conditions":[-2.0205976E-8],"split_indices":[0],"split_type":[0],"sum_hessian":[2.4E1],"tree_param":{"num_deleted":"0","num_feature":"2","num_nodes":"1","size_leaf_vector":"1"}},{"base_weights":[-6.645918E-8],"categories":[],"categories_nodes":[],"categories_segments":[],"categories_sizes":[],"default_left":[0],"id":74,"left_children":[-1],"loss_changes":[0E0],"parents":[2147483647],"right_children":[-1],"split_conditions":[-1.9937755E-8],"split_indices":[0],"split_type":[0],"sum_hessian":[2.4E1],"tree_param":{"num_deleted":"0","num_feature":"2","num_nodes":"1","size_leaf_vector":"1"}},{"base_weights":[-6.556511E-8],"categories":[],"categories_nodes":[],"categories_segments":[],"categories_sizes":[],"default_left":[0],"id":75,"left_children":[-1],"loss_changes":[0E0],"parents":[2147483647],"right_children":[-1],"split_conditions":[-1.9669534E-8],"split_indices":[0],"split_type":[0],"sum_hessian":[2.4E1],"tree_param":{"num_deleted":"0","num_feature":"2","num_nodes":"1","size_leaf_vector":"1"}},{"base_weights":[-6.467104E-8],"categories":[],"categories_nodes":[],"categories_segments":[],"categories_sizes":[],"default_left":[0],"id":76,"left_children":[-1],"loss_changes":[0E0],"parents":[2147483647],"right_children":[-1],"split_conditions":[-1.9401313E-8],"split_indices":[0],"split_type":[0],"sum_hessian":[2.4E1],"tree_param":{"num_deleted":"0","num_feature":"2","num_nodes":"1","size_leaf_vector":"1"}},{"base_weights":[-6.377697E-8],"categories":[],"categories_nodes":[],"categories_segments":[],"categories_sizes":[],"default_left":[0],"id":77,"left_children":[-1],"loss_changes":[0E0],"parents":[2147483647],"right_children":[-1],"split_conditions":[-1.9133093E-8],"split_indices":[0],"split_type":[0],"sum_hessian":[2.4E1],"tree_param":{"num_deleted":"0","num_feature":"2","num_nodes":"1","size_leaf_vector":"1"}},{"base_weights":[-6.28829E-8],"categories":[],"categories_nodes":[],"categories_segments":[],"categories_sizes":[],"default_left":[0],"id":78,"left_children":[-1],"loss_changes":[0E0],"parents":[2147483647],"right_children":[-1],"split_conditions":[-1.886487E-8],"split_indices":[0],"split_type":[0],"sum_hessian":[2.4E1],"tree_param":{"num_deleted":"0","num_feature":"2","num_nodes":"1","size_leaf_vector":"1"}},{"base_weights":[-6.198883E-8],"categories":[],"categories_nodes":[],"categories_segments":[],"categories_sizes":[],"default_left":[0],"id":79,"left_children":[-1],"loss_changes":[0E0],"parents":[2147483647],"right_children":[-1],"split_conditions":[-1.859665E-8],"split_indices":[0],"split_type":[0],"sum_hessian":[2.4E1],"tree_param":{"num_deleted":"0","num_feature":"2","num_nodes":"1","size_leaf_vector":"1"}},{"base_weights":[-6.139278E-8],"categories":[],"categories_nodes":[],"categories_segments":[],"categories_sizes":[],"default_left":[0],"id":80,"left_children":[-1],"loss_changes":[0E0],"parents":[2147483647],"right_children":[-1],"split_conditions":[-1.8417836E-8],"split_indices":[0],"split_type":[0],"sum_hessian":[2.4E1],"tree_param":{"num_deleted":"0","num_feature":"2","num_nodes":"1","size_leaf_vector":"1"}},{"base_weights":[-6.079674E-8],"categories":[],"categories_nodes":[],"categories_segments":[],"categories_sizes":[],"default_left":[0],"id":81,"left_children":[-1],"loss_changes":[0E0],"parents":[2147483647],"right_children":[-1],"split_conditions":[-1.8239021E-8],"split_indices":[0],"split_type":[0],"sum_hessian":[2.4E1],"tree_param":{"num_deleted":"0","num_feature":"2","num_nodes":"1","size_leaf_vector":"1"}},{"base_weights":[-6.020069E-8],"categories":[],"categories_nodes":[],"categories_segments":[],"categories_sizes":[],"default_left":[0],"id":82,"left_children":[-1],"loss_changes":[0E0],"parents":[2147483647],"right_children":[-1],"split_conditions":[-1.8060208E-8],"split_indices":[0],"split_type":[0],"sum_hessian":[2.4E1],"tree_param":{"num_deleted":"0","num_feature":"2","num_nodes":"1","size_leaf_vector":"1"}},{"base_weights":[-5.9604645E-8],"categories":[],"categories_nodes":[],"categories_segments":[],"categories_sizes":[],"default_left":[0],"id":83,"left_children":[-1],"loss_changes":[0E0],"parents":[2147483647],"right_children":[-1],"split_conditions":[-1.7881394E-8],"split_indices":[0],"split_type":[0],"sum_hessian":[2.4E1],"tree_param":{"num_deleted":"0","num_feature":"2","num_nodes":"1","size_leaf_vector":"1"}},{"base_weights":[-5.90086E-8],"categories":[],"categories_nodes":[],"categories_segments":[],"categories_sizes":[],"default_left":[0],"id":84,"left_children":[-1],"loss_changes":[0E0],"parents":[2147483647],"right_children":[-1],"split_conditions":[-1.770258E-8],"split_indices":[0],"split_type":[0],"sum_hessian":[2.4E1],"tree_param":{"num_deleted":"0","num_feature":"2","num_nodes":"1","size_leaf_vector":"1"}},{"base_weights":[-5.8412553E-8],"categories":[],"categories_nodes":[],"categories_segments":[],"categories_sizes":[],"default_left":[0],"id":85,"left_children":[-1],"loss_changes":[0E0],"parents":[2147483647],"right_children":[-1],"split_conditions":[-1.7523767E-8],"split_indices":[0],"split_type":[0],"sum_hessian":[2.4E1],"tree_param":{"num_deleted":"0","num_feature":"2","num_nodes":"1","size_leaf_vector":"1"}},{"base_weights":[-5.7816507E-8],"categories":[],"categories_nodes":[],"categories_segments":[],"categories_sizes":[],"default_left":[0],"id":86,"left_children":[-1],"loss_changes":[0E0],"parents":[2147483647],"right_children":[-1],"split_conditions":[-1.7344952E-8],"split_indices":[0],"split_type":[0],"sum_hessian":[2.4E1],"tree_param":{"num_deleted":"0","num_feature":"2","num_nodes":"1","size_leaf_vector":"1"}},{"base_weights":[-5.7220458E-8],"categories":[],"categories_nodes":[],"categories_segments":[],"categories_sizes":[],"default_left":[0],"id":87,"left_children":[-1],"loss_changes":[0E0],"parents":[2147483647],"right_children":[-1],"split_conditions":[-1.7166139E-8],"split_indices":[0],"split_type":[0],"sum_hessian":[2.4E1],"tree_param":{"num_deleted":"0","num_feature":"2","num_nodes":"1","size_leaf_vector":"1"}},{"base_weights":[-5.6624412E-8],"categories":[],"categories_nodes":[],"categories_segments":[],"categories_sizes":[],"default_left":[0],"id":88,"left_children":[-1],"loss_changes":[0E0],"parents":[2147483647],"right_children":[-1],"split_conditions":[-1.6987324E-8],"split_indices":[0],"split_type":[0],"sum_hessian":[2.4E1],"tree_param":{"num_deleted":"0","num_feature":"2","num_nodes":"1","size_leaf_vector":"1"}},{"base_weights":[-5.6028366E-8],"categories":[],"categories_nodes":[],"categories_segments":[],"categories_sizes":[],"default_left":[0],"id":89,"left_children":[-1],"loss_changes":[0E0],"parents":[2147483647],"right_children":[-1],"split_conditions":[-1.680851E-8],"split_indices":[0],"split_type":[0],"sum_hessian":[2.4E1],"tree_param":{"num_deleted":"0","num_feature":"2","num_nodes":"1","size_leaf_vector":"1"}},{"base_weights":[-5.543232E-8],"categories":[],"categories_nodes":[],"categories_segments":[],"categories_sizes":[],"default_left":[0],"id":90,"left_children":[-1],"loss_changes":[0E0],"parents":[2147483647],"right_children":[-1],"split_conditions":[-1.6629697E-8],"split_indices":[0],"split_type":[0],"sum_hessian":[2.4E1],"tree_param":{"num_deleted":"0","num_feature":"2","num_nodes":"1","size_leaf_vector":"1"}},{"base_weights":[-5.4836274E-8],"categories":[],"categories_nodes":[],"categories_segments":[],"categories_sizes":[],"default_left":[0],"id":91,"left_children":[-1],"loss_changes":[0E0],"parents":[2147483647],"right_children":[-1],"split_conditions":[-1.6450883E-8],"split_indices":[0],"split_type":[0],"sum_hessian":[2.4E1],"tree_param":{"num_deleted":"0","num_feature":"2","num_nodes":"1","size_leaf_vector":"1"}},{"base_weights":[-5.424023E-8],"categories":[],"categories_nodes":[],"categories_segments":[],"categories_sizes":[],"default_left":[0],"id":92,"left_children":[-1],"loss_changes":[0E0],"parents":[2147483647],"right_children":[-1],"split_conditions":[-1.627207E-8],"split_indices":[0],"split_type":[0],"sum_hessian":[2.4E1],"tree_param":{"num_deleted":"0","num_feature":"2","num_nodes":"1","size_leaf_vector":"1"}},{"base_weights":[-5.364418E-8],"categories":[],"categories_nodes":[],"categories_segments":[],"categories_sizes":[],"default_left":[0],"id":93,"left_children":[-1],"loss_changes":[0E0],"parents":[2147483647],"right_children":[-1],"split_conditions":[-1.6093255E-8],"split_indices":[0],"split_type":[0],"sum_hessian":[2.4E1],"tree_param":{"num_deleted":"0","num_feature":"2","num_nodes":"1","size_leaf_vector":"1"}},{"base_weights":[-5.3048133E-8],"categories":[],"categories_nodes":[],"categories_segments":[],"categories_sizes":[],"default_left":[0],"id":94,"left_children":[-1],"loss_changes":[0E0],"parents":[2147483647],"right_children":[-1],"split_conditions":[-1.5914441E-8],"split_indices":[0],"split_type":[0],"sum_hessian":[2.4E1],"tree_param":{"num_deleted":"0","num_feature":"2","num_nodes":"1","size_leaf_vector":"1"}},{"base_weights":[-5.2452087E-8],"categories":[],"categories_nodes":[],"categories_segments":[],"categories_sizes":[],"default_left":[0],"id":95,"left_children":[-1],"loss_changes":[0E0],"parents":[2147483647],"right_children":[-1],"split_conditions":[-1.5735626E-8],"split_indices":[0],"split_type":[0],"sum_hessian":[2.4E1],"tree_param":{"num_deleted":"0","num_feature":"2","num_nodes":"1","size_leaf_vector":"1"}},{"base_weights":[-5.185604E-8],"categories":[],"categories_nodes":[],"categories_segments":[],"categories_sizes":[],"default_left":[0],"id":96,"left_children":[-1],"loss_changes":[0E0],"parents":[2147483647],"right_children":[-1],"split_conditions":[-1.5556813E-8],"split_indices":[0],"split_type":[0],"sum_hessian":[2.4E1],"tree_param":{"num_deleted":"0","num_feature":"2","num_nodes":"1","size_leaf_vector":"1"}},{"base_weights":[-5.1259995E-8],"categories":[],"categories_nodes":[],"categories_segments":[],"categories_sizes":[],"default_left":[0],"id":97,"left_children":[-1],"loss_changes":[0E0],"parents":[2147483647],"right_children":[-1],"split_conditions":[-1.5378E-8],"split_indices":[0],"split_type":[0],"sum_hessian":[2.4E1],"tree_param":{"num_deleted":"0","num_feature":"2","num_nodes":"1","size_leaf_vector":"1"}},{"base_weights":[-5.066395E-8],"categories":[],"categories_nodes":[],"categories_segments":[],"categories_sizes":[],"default_left":[0],"id":98,"left_children":[-1],"loss_changes":[0E0],"parents":[2147483647],"right_children":[-1],"split_conditions":[-1.5199186E-8],"split_indices":[0],"split_type":[0],"sum_hessian":[2.4E1],"tree_param":{"num_deleted":"0","num_feature":"2","num_nodes":"1","size_leaf_vector":"1"}},{"base_weights":[-5.00679E-8],"categories":[],"categories_nodes":[],"categories_segments":[],"categories_sizes":[],"default_left":[0],"id":99,"left_children":[-1],"loss_changes":[0E0],"parents":[2147483647],"right_children":[-1],"split_conditions":[-1.502037E-8],"split_indices":[0],"split_type":[0],"sum_hessian":[2.4E1],"tree_param":{"num_deleted":"0","num_feature":"2","num_nodes":"1","size_leaf_vector":"1"}}]},"name":"gbtree"},"learner_model_param":{"base_score":"6.954333E-1","boost_from_average":"1","num_class":"0","num_feature":"2","num_target":"1"},"objective":{"name":"reg:squarederror","reg_loss_param":{"scale_pos_weight":"1"}}},"version":[3,0,2]}