{"learner":{"attributes":{"scikit_learn":"{\"_estimator_type\": \"regressor\"}"},"feature_names":[],"feature_types":[],"gradient_booster":{"model":{"gbtree_model_param":{"num_parallel_tree":"1","num_trees":"100"},"iteration_indptr":[0,1,2,3,4,5,6,7,8,9,10,11,12,13,14,15,16,17,18,19,20,21,22,23,24,25,26,27,28,29,30,31,32,33,34,35,36,37,38,39,40,41,42,43,44,45,46,47,48,49,50,51,52,53,54,55,56,57,58,59,60,61,62,63,64,65,66,67,68,69,70,71,72,73,74,75,76,77,78,79,80,81,82,83,84,85,86,87,88,89,90,91,92,93,94,95,96,97,98,99,100],"tree_info":[0,0,0,0,0,0,0,0,0,0,0,0,0,0,0,0,0,0,0,0,0,0,0,0,0,0,0,0,0,0,0,0,0,0,0,0,0,0,0,0,0,0,0,0,0,0,0,0,0,0,0,0,0,0,0,0,0,0,0,0,0,0,0,0,0,0,0,0,0,0,0,0,0,0,0,0,0,0,0,0,0,0,0,0,0,0,0,0,0,0,0,0,0,0,0,0,0,0,0,0],"trees":[{"base_weights":[-1.3876913E-9,6.744559E-3,-9.1595486E-2,1.0798558E-2,-1.7357705E-2,-3.7776988E-2,-1.0916889E-1,-1.5663221E-2,1.32442275E-2,3.177861E-4,-3.5855424E-2,-2.4500841E-2,-1.8482089E-2,-5.405646E-4,-8.563683E-3,1.4290733E-2,-1.391188E-3,6.4823413E-3,-3.05403E-2,-9.055799E-3,-1.124874E-2,2.9596686E-3,1.5409275E-2,1.0637692E-2,-2.1284746E-2,7.5694066E-3,1.2930366E-3,-1.3456273E-2,-1.245488E-2,-2.1459162E-3,-7.339067E-3,3.0233052E-3,-1.3066971E-3,1.8913142E-2,1.17961215E-2,1.43665895E-2,5.579084E-3,-9.036267E-3,-2.9276276E-2,6.4004804E-3,9.235079E-3,3.1837344E-3,-8.562684E-4,-2.3023288E-4,-6.659067E-3,-2.0164535E-3,1.9437432E-3,1.392864E-2,2.0024978E-2,3.9396174E-3,6.1838194E-3,4.6683443E-3,9.007037E-4,-1.2635589E-3,2.4211677E-3,1.9364357E-3,-5.0990647E-3,-1.6793043E-3,-1.0138951E-2,1.2497554E-3,2.4428295E-3,3.5069145E-3,1.6383445E-3,-8.635521E-4,1.8509328E-3,3.9031107E-3,-5.330225E-3,-6.8930094E-4,5.8569614E-4,2.785519E-4,9.007037E-4,5.5833054E-3,2.4953056E-3,6.6508483E-3,1.7529147E-2,9.960482E-3,-1.3936257E-2,-8.69304E-4,3.0070246E-4,-5.393028E-4,1.410699E-3,-9.59301E-4,5.707026E-4,1.8607021E-3,-1.0430217E-4,-2.5430025E-4,-2.144301E-3,1.315278E-2,6.390318E-3,1.2250464E-2,6.9043087E-3,-4.330218E-3,-5.6690634E-3,4.096903E-3,1.270938E-3,3.948784E-3,1.9570292E-4,6.0698392E-5,2.233784E-3,-2.444297E-3,4.9569906E-4],"categories":[],"categories_nodes":[],"categories_segments":[],"categories_sizes":[],"default_left":[0,0,0,0,0,0,0,0,0,0,0,0,0,0,0,0,0,0,0,0,0,0,0,0,0,0,0,0,0,0,0,0,0,0,0,0,0,0,0,0,0,0,0,0,0,0,0,0,0,0,0,0,0,0,0,0,0,0,0,0,0,0,0,0,0,0,0,0,0,0,0,0,0,0,0,0,0,0,0,0,0,0,0,0,0,0,0,0,0,0,0,0,0,0,0,0,0,0,0,0,0],"id":0,"left_children":[1,3,5,7,9,11,-1,13,15,17,-1,19,-1,-1,-1,21,23,25,27,29,-1,31,33,35,37,39,41,43,-1,45,-1,-1,-1,47,49,51,53,55,57,59,61,63,65,67,-1,-1,69,71,73,-1,75,-1,-1,77,-1,79,-1,-1,-1,-1,-1,-1,-1,81,-1,83,85,-1,-1,-1,-1,-1,-1,-1,87,89,91,-1,-1,-1,-1,-1,-1,-1,-1,-1,-1,93,-1,95,97,99,-1,-1,-1,-1,-1,-1,-1,-1,-1],"loss_changes":[2.7923262E-1,4.132358E-2,4.4055247E-1,2.3570202E-2,1.10187784E-1,7.032577E-3,0E0,5.4841465E-3,5.089499E-3,1.0279971E-2,0E0,3.473891E-3,0E0,0E0,0E0,3.870733E-3,5.730257E-3,2.4406263E-4,1.1289697E-3,1.0121611E-3,0E0,1.5539422E-3,3.3343583E-3,2.0279305E-4,6.164084E-4,1.2931647E-5,3.9299302E-5,5.729082E-4,0E0,1.6276591E-4,0E0,0E0,0E0,5.0249696E-4,9.759646E-4,6.188208E-5,1.4658377E-4,4.6966056E-4,3.459812E-4,6.341247E-5,5.6587975E-5,6.5754764E-5,1.2727073E-4,1.802266E-5,0E0,0E0,2.5859645E-6,6.07105E-4,2.1620095E-4,0E0,2.3424274E-3,0E0,0E0,1.401273E-5,0E0,3.9437735E-5,0E0,0E0,0E0,0E0,0E0,0E0,0E0,2.5450829E-5,0E0,3.147698E-5,1.8381557E-5,0E0,0E0,0E0,0E0,0E0,0E0,0E0,6.607454E-4,9.038346E-5,1.5643198E-4,0E0,0E0,0E0,0E0,0E0,0E0,0E0,0E0,0E0,0E0,7.2353054E-5,0E0,1.2894312E-4,4.5684108E-5,8.197666E-5,0E0,0E0,0E0,0E0,0E0,0E0,0E0,0E0,0E0],"parents":[2147483647,0,0,1,1,2,2,3,3,4,4,5,5,7,7,8,8,9,9,11,11,15,15,16,16,17,17,18,18,19,19,21,21,22,22,23,23,24,24,25,25,26,26,27,27,29,29,33,33,34,34,35,35,36,36,37,37,38,38,39,39,40,40,41,41,42,42,43,43,46,46,47,47,48,48,50,50,53,53,55,55,63,63,65,65,66,66,74,74,75,75,76,76,87,87,89,89,90,90,91,91],"right_children":[2,4,6,8,10,12,-1,14,16,18,-1,20,-1,-1,-1,22,24,26,28,30,-1,32,34,36,38,40,42,44,-1,46,-1,-1,-1,48,50,52,54,56,58,60,62,64,66,68,-1,-1,70,72,74,-1,76,-1,-1,78,-1,80,-1,-1,-1,-1,-1,-1,-1,82,-1,84,86,-1,-1,-1,-1,-1,-1,-1,88,90,92,-1,-1,-1,-1,-1,-1,-1,-1,-1,-1,94,-1,96,98,100,-1,-1,-1,-1,-1,-1,-1,-1,-1],"split_conditions":[1E-1,2.6826957E-2,3.7275937E-3,1.9306977E-5,3.7275937E-3,7.196857E-5,-1.0916889E-1,1E0,1E-2,5.179475E-4,-3.5855424E-2,1E0,-1.8482089E-2,-5.405646E-4,-8.563683E-3,3.727594E-5,1.9306977E-3,7.196857E-5,1.3894954E-3,1E-5,-1.124874E-2,1E0,1E-3,1E0,1E0,3.7275938E-6,5.1794745E-2,5.1794745E-2,-1.245488E-2,1.9306977E-7,-7.339067E-3,3.0233052E-3,-1.3066971E-3,7.196857E-5,1.3894955E-2,1E-3,7.196857E-5,7.1968567E-3,3.7275937E-3,1E0,5.1794745E-2,1.9306978E-4,1.9306978E-4,1E0,-6.659067E-3,-2.0164535E-3,3.7275938E-6,1E0,2.682696E-4,3.9396174E-3,1.3894954E-3,4.6683443E-3,9.007037E-4,3.727594E-5,2.4211677E-3,3.7275937E-3,-5.0990647E-3,-1.6793043E-3,-1.0138951E-2,1.2497554E-3,2.4428295E-3,3.5069145E-3,1.6383445E-3,1E0,1.8509328E-3,1E0,1E0,-6.8930094E-4,5.8569614E-4,2.785519E-4,9.007037E-4,5.5833054E-3,2.4953056E-3,6.6508483E-3,1E0,1E0,3.7275937E-3,-8.69304E-4,3.0070246E-4,-5.393028E-4,1.410699E-3,-9.59301E-4,5.707026E-4,1.8607021E-3,-1.0430217E-4,-2.5430025E-4,-2.144301E-3,3.7275937E-3,6.390318E-3,5.179475E-4,2.6826958E-8,1E0,-5.6690634E-3,4.096903E-3,1.270938E-3,3.948784E-3,1.9570292E-4,6.0698392E-5,2.233784E-3,-2.444297E-3,4.9569906E-4],"split_indices":[0,0,2,0,2,2,0,1,2,2,0,1,0,0,0,0,0,2,2,2,0,1,0,1,1,2,0,0,0,2,0,0,0,0,0,0,0,0,0,1,0,2,2,1,0,0,2,1,0,0,2,0,0,0,0,0,0,0,0,0,0,0,0,1,0,1,1,0,0,0,0,0,0,0,1,1,2,0,0,0,0,0,0,0,0,0,0,2,0,2,2,1,0,0,0,0,0,0,0,0,0],"split_type":[0,0,0,0,0,0,0,0,0,0,0,0,0,0,0,0,0,0,0,0,0,0,0,0,0,0,0,0,0,0,0,0,0,0,0,0,0,0,0,0,0,0,0,0,0,0,0,0,0,0,0,0,0,0,0,0,0,0,0,0,0,0,0,0,0,0,0,0,0,0,0,0,0,0,0,0,0,0,0,0,0,0,0,0,0,0,0,0,0,0,0,0,0,0,0,0,0,0,0,0,0],"sum_hessian":[4.5E2,4.2E2,3E1,3.6E2,6E1,2.6E1,4E0,3E1,3.3E2,5.2E1,8E0,1.8E1,8E0,1.5E1,1.5E1,3.08E2,2.2E1,4.4E1,8E0,9E0,9E0,2.8E1,2.8E2,1.4E1,8E0,3.6E1,8E0,4E0,4E0,7E0,2E0,1.4E1,1.4E1,1.4E2,1.4E2,7E0,7E0,4E0,4E0,2.4E1,1.2E1,4E0,4E0,2E0,2E0,3E0,4E0,2.8E1,1.12E2,1.12E2,2.8E1,6E0,1E0,2E0,5E0,2E0,2E0,1E0,3E0,1.2E1,1.2E1,6E0,6E0,2E0,2E0,2E0,2E0,1E0,1E0,3E0,1E0,1.4E1,1.4E1,5.6E1,5.6E1,2.4E1,4E0,1E0,1E0,1E0,1E0,1E0,1E0,1E0,1E0,1E0,1E0,2.8E1,2.8E1,1.2E1,1.2E1,2E0,2E0,2.6E1,2E0,1.1E1,1E0,1E0,1.1E1,1E0,1E0],"tree_param":{"num_deleted":"0","num_feature":"3","num_nodes":"101","size_leaf_vector":"1"}},{"base_weights":[-3.9746682E-4,4.644751E-3,-6.886122E-2,7.595648E-3,-1.2894898E-2,-2.7847849E-2,-2.7656117E-1,-1.1257939E-2,9.338444E-3,3.2651522E-3,-7.281394E-2,-1.8172944E-2,-1.3553533E-2,-1.01335295E-1,-1.23150975E-1,-3.8853363E-4,-6.1551435E-3,1.0103714E-2,-1.3488013E-3,4.752266E-3,-1.0771906E-2,-3.1552374E-2,-2.629398E-2,-7.156688E-3,-2.7371908E-2,-5.1858973E-2,-3.5589696E-3,2.1309585E-3,1.0890569E-2,7.941167E-3,-1.6682215E-2,5.5374517E-3,9.962519E-4,-1.9568205E-4,-5.327249E-3,-1.2278093E-2,-1.1660318E-2,-1.6067922E-3,-5.8712545E-3,-8.632418E-3,-2.2119822E-3,2.1767737E-3,-9.408176E-4,1.3427044E-2,8.276855E-3,3.4372013E-6,9.162092E-3,-7.1709277E-3,-2.2857059E-2,4.427033E-3,6.5834136E-3,7.752371E-4,-7.9087017E-4,-5.859018E-4,4.978448E-4,8.339256E-4,-6.081069E-3,-1.5627579E-3,1.5964865E-3,1.0028638E-2,1.4180378E-2,9.075127E-3,3.2831486E-3,7.4045063E-4,-7.3890394E-4,1.1583651E-2,5.4316605E-3,1.6459624E-3,-4.0792525E-3,-1.4274091E-3,-7.857692E-3,2.7681263E-3,1.7050445E-3,2.4834455E-3,1.2471557E-3,8.787752E-4,-4.2473674E-3,2.1588207E-4,7.656008E-4,4.0199854E-3,1.7966247E-3,1.563531E-2,1.2476668E-2,1.0033528E-2,7.967953E-3,2.985703E-3,-6.714927E-3,3.7990778E-3,7.656008E-4,5.287528E-4,6.546819E-3,-4.5840742E-4,1.1990905E-3,1.2431861E-3,4.1698388E-4,-8.865595E-5,-1.8226594E-3,5.4331673E-3,1.2620914E-2,9.392023E-3,4.5393254E-3,2.4403303E-3,1.1045524E-2,9.660571E-3,5.14416E-3,-4.0943624E-4,-1.1677432E-2,2.186291E-3,5.375326E-4,2.9470671E-3,4.3730633E-3,3.4766567E-3,2.287757E-3,3.4883406E-3,1.0004328E-3,3.0145242E-3,1.1846289E-3,4.7669653E-4,1.7237009E-3,1.8530071E-3,-2.0577253E-3,-1.242596E-3,-4.59612E-3],"categories":[],"categories_nodes":[],"categories_segments":[],"categories_sizes":[],"default_left":[0,0,0,0,0,0,0,0,0,0,0,0,0,0,0,0,0,0,0,0,0,0,0,0,0,0,0,0,0,0,0,0,0,0,0,0,0,0,0,0,0,0,0,0,0,0,0,0,0,0,0,0,0,0,0,0,0,0,0,0,0,0,0,0,0,0,0,0,0,0,0,0,0,0,0,0,0,0,0,0,0,0,0,0,0,0,0,0,0,0,0,0,0,0,0,0,0,0,0,0,0,0,0,0,0,0,0,0,0,0,0,0,0,0,0,0,0,0,0,0,0,0,0],"id":1,"left_children":[1,3,5,7,9,11,13,15,17,19,21,23,-1,-1,25,-1,-1,27,29,31,33,35,-1,37,39,-1,-1,41,43,45,47,49,51,53,-1,-1,55,57,-1,-1,-1,-1,-1,59,61,63,65,67,69,71,73,-1,75,-1,-1,-1,-1,-1,77,79,81,83,85,-1,-1,87,89,91,-1,-1,-1,93,-1,-1,-1,-1,95,-1,-1,-1,-1,97,99,101,103,-1,105,-1,-1,-1,107,-1,-1,-1,-1,-1,-1,-1,109,111,-1,-1,113,115,117,119,121,-1,-1,-1,-1,-1,-1,-1,-1,-1,-1,-1,-1,-1,-1,-1,-1],"loss_changes":[1.5600917E-1,2.1887936E-2,2.5637108E-1,1.1966854E-2,5.930373E-2,3.7061125E-3,5.3628087E-3,2.8331117E-3,2.7207527E-3,1.0740517E-3,5.1907822E-3,1.7295326E-3,0E0,0E0,1.4546379E-2,0E0,0E0,1.9152723E-3,3.4087552E-3,1.2719585E-4,3.6593102E-4,4.5517832E-4,0E0,6.575267E-4,6.83805E-5,0E0,0E0,8.055583E-4,1.751788E-3,1.45339E-4,3.6467006E-4,1.382886E-5,2.7583192E-5,1.3021354E-5,0E0,0E0,4.293293E-4,1.00632344E-4,0E0,0E0,0E0,0E0,0E0,2.1876954E-4,5.322797E-4,2.4316545E-5,5.4516597E-5,3.0569328E-4,1.7719995E-4,2.8038397E-5,3.5487115E-5,0E0,7.6734534E-5,0E0,0E0,0E0,0E0,0E0,2.3529246E-6,3.1472323E-4,8.502789E-5,4.844833E-5,1.4670907E-3,0E0,0E0,3.5957957E-5,1.7102982E-5,2.849365E-5,0E0,0E0,0E0,1.5097641E-5,0E0,0E0,0E0,0E0,1.9878436E-5,0E0,0E0,0E0,0E0,1.96727E-4,3.2460038E-4,2.7384609E-5,2.4186028E-4,0E0,2.7683808E-4,0E0,0E0,0E0,4.5552733E-6,0E0,0E0,0E0,0E0,0E0,0E0,0E0,1.547765E-5,2.4144305E-5,0E0,0E0,1.2734672E-4,4.228647E-5,4.4331944E-5,2.547574E-4,7.380004E-5,0E0,0E0,0E0,0E0,0E0,0E0,0E0,0E0,0E0,0E0,0E0,0E0,0E0,0E0,0E0,0E0],"parents":[2147483647,0,0,1,1,2,2,3,3,4,4,5,5,6,6,7,7,8,8,9,9,10,10,11,11,14,14,17,17,18,18,19,19,20,20,21,21,23,23,24,24,27,27,28,28,29,29,30,30,31,31,32,32,33,33,36,36,37,37,43,43,44,44,45,45,46,46,47,47,48,48,49,49,50,50,52,52,58,58,59,59,60,60,61,61,62,62,65,65,66,66,67,67,71,71,76,76,81,81,82,82,83,83,84,84,86,86,90,90,98,98,99,99,102,102,103,103,104,104,105,105,106,106],"right_children":[2,4,6,8,10,12,14,16,18,20,22,24,-1,-1,26,-1,-1,28,30,32,34,36,-1,38,40,-1,-1,42,44,46,48,50,52,54,-1,-1,56,58,-1,-1,-1,-1,-1,60,62,64,66,68,70,72,74,-1,76,-1,-1,-1,-1,-1,78,80,82,84,86,-1,-1,88,90,92,-1,-1,-1,94,-1,-1,-1,-1,96,-1,-1,-1,-1,98,100,102,104,-1,106,-1,-1,-1,108,-1,-1,-1,-1,-1,-1,-1,110,112,-1,-1,114,116,118,120,122,-1,-1,-1,-1,-1,-1,-1,-1,-1,-1,-1,-1,-1,-1,-1,-1],"split_conditions":[1E-1,2.6826957E-2,3.7275937E-3,1.9306977E-5,1.3894954E-3,7.196857E-5,1E0,1E0,1E-2,5.179475E-4,3.7275937E-3,1E0,-1.3553533E-2,-1.01335295E-1,1E-2,-3.8853363E-4,-6.1551435E-3,3.727594E-5,1.9306977E-3,7.196857E-5,5.1794745E-2,1E0,-2.629398E-2,1E-5,2.6826958E-5,-5.1858973E-2,-3.5589696E-3,1E0,1E-3,3.727594E-5,1E0,1.3894955E-6,1E0,1E0,-5.327249E-3,-1.2278093E-2,5.1794745E-2,1.9306977E-7,-5.8712545E-3,-8.632418E-3,-2.2119822E-3,2.1767737E-3,-9.408176E-4,7.196857E-5,1.3894954E-3,1E0,1E0,7.1968567E-3,3.7275937E-3,1E0,5.1794745E-2,7.752371E-4,5.1794745E-2,-5.859018E-4,4.978448E-4,8.339256E-4,-6.081069E-3,-1.5627579E-3,3.7275938E-6,1E0,2.682696E-4,1E0,7.1968567E-3,7.4045063E-4,-7.3890394E-4,1E-3,1.3894954E-4,3.7275937E-3,-4.0792525E-3,-1.4274091E-3,-7.857692E-3,7.1968564E-8,1.7050445E-3,2.4834455E-3,1.2471557E-3,8.787752E-4,1.9306978E-4,2.1588207E-4,7.656008E-4,4.0199854E-3,1.7966247E-3,1E0,1E0,3.7275937E-3,7.1968567E-3,2.985703E-3,1E0,3.7990778E-3,7.656008E-4,5.287528E-4,1E-3,-4.5840742E-4,1.1990905E-3,1.2431861E-3,4.1698388E-4,-8.865595E-5,-1.8226594E-3,5.4331673E-3,1.3894954E-4,1.3894955E-6,4.5393254E-3,2.4403303E-3,5.179475E-4,5.179475E-4,7.1968564E-8,1.3894955E-2,3.7275937E-3,2.186291E-3,5.375326E-4,2.9470671E-3,4.3730633E-3,3.4766567E-3,2.287757E-3,3.4883406E-3,1.0004328E-3,3.0145242E-3,1.1846289E-3,4.7669653E-4,1.7237009E-3,1.8530071E-3,-2.0577253E-3,-1.242596E-3,-4.59612E-3],"split_indices":[0,0,2,0,2,2,1,1,2,2,2,1,0,0,2,0,0,0,0,2,0,1,0,2,2,0,0,1,0,0,1,2,1,1,0,0,0,2,0,0,0,0,0,0,2,1,1,0,0,1,0,0,0,0,0,0,0,0,2,1,0,1,0,0,0,0,0,0,0,0,0,2,0,0,0,0,2,0,0,0,0,1,1,0,0,0,1,0,0,0,0,0,0,0,0,0,0,0,0,2,0,0,2,2,2,0,2,0,0,0,0,0,0,0,0,0,0,0,0,0,0,0,0],"split_type":[0,0,0,0,0,0,0,0,0,0,0,0,0,0,0,0,0,0,0,0,0,0,0,0,0,0,0,0,0,0,0,0,0,0,0,0,0,0,0,0,0,0,0,0,0,0,0,0,0,0,0,0,0,0,0,0,0,0,0,0,0,0,0,0,0,0,0,0,0,0,0,0,0,0,0,0,0,0,0,0,0,0,0,0,0,0,0,0,0,0,0,0,0,0,0,0,0,0,0,0,0,0,0,0,0,0,0,0,0,0,0,0,0,0,0,0,0,0,0,0,0,0,0],"sum_hessian":[4.5E2,4.2E2,3E1,3.6E2,6E1,2.6E1,4E0,3E1,3.3E2,4.8E1,1.2E1,1.8E1,8E0,2E0,2E0,1.5E1,1.5E1,3.08E2,2.2E1,4.4E1,4E0,4E0,8E0,9E0,9E0,1E0,1E0,2.8E1,2.8E2,1.4E1,8E0,3.6E1,8E0,2E0,2E0,2E0,2E0,7E0,2E0,8E0,1E0,1.4E1,1.4E1,1.4E2,1.4E2,2E0,1.2E1,4E0,4E0,2E1,1.6E1,4E0,4E0,1E0,1E0,1E0,1E0,3E0,4E0,2.8E1,1.12E2,1.2E2,2E1,1E0,1E0,6E0,6E0,2E0,2E0,1E0,3E0,1E1,1E1,8E0,8E0,2E0,2E0,3E0,1E0,1.4E1,1.4E1,5.6E1,5.6E1,6E1,6E1,1.2E1,8E0,5E0,1E0,2E0,4E0,1E0,1E0,4E0,6E0,1E0,1E0,2.8E1,2.8E1,2.8E1,2.8E1,2.4E1,3.6E1,3.6E1,2.4E1,4E0,4E0,3E0,1E0,1.4E1,1.4E1,1E1,1.8E1,3.3E1,3E0,3.3E1,3E0,4E0,2E1,2E0,2E0,2E0,2E0],"tree_param":{"num_deleted":"0","num_feature":"3","num_nodes":"123","size_leaf_vector":"1"}},{"base_weights":[-7.2382897E-4,3.2195842E-3,-5.4254577E-2,5.3973766E-3,-9.721443E-3,-2.0636095E-2,-6.748304E-2,-8.091634E-3,6.644392E-3,2.3146528E-3,-5.4340463E-2,-1.1111887E-2,-3.0038174E-2,-2.7925038E-4,-4.4240123E-3,7.2032823E-3,-1.1530675E-3,3.4785548E-3,-8.623397E-3,-2.559172E-2,-1.928225E-2,-1.1974126E-3,-5.891213E-3,-1.9962592E-2,-1.0746777E-2,1.5342872E-3,7.762704E-3,6.0800673E-3,-1.3080173E-2,4.0679947E-3,6.6879723E-4,-1.6631682E-4,-4.261804E-3,-9.822477E-3,-9.911279E-3,-4.037112E-3,1.3138294E-3,-5.6824386E-3,-8.775629E-3,1.5672803E-3,-6.7739375E-4,9.29097E-3,5.408372E-3,2.9206276E-6,7.014788E-3,-5.687344E-3,-1.7856967E-2,3.3485936E-3,5.1385346E-3,1.9639493E-3,-7.6011417E-4,-4.9801474E-4,4.2317214E-4,7.0883636E-4,-5.168912E-3,-3.1742157E-4,-1.4032305E-3,1.6730727E-4,6.507576E-4,-4.697007E-3,3.6360475E-3,9.8983385E-3,7.923887E-3,6.1872057E-3,6.4630015E-4,6.2938035E-4,-6.280661E-4,8.760648E-3,4.2668157E-3,1.3990799E-3,-1.0877986E-2,-1.2132972E-3,-6.0897144E-3,2.150311E-3,1.2867877E-3,6.5551484E-3,8.9635345E-4,7.5574714E-4,2.5175016E-3,7.030249E-4,-3.6102731E-3,7.2206343E-3,3.2086375E-3,5.8522904E-3,2.9166741E-3,7.5563993E-3,4.691742E-3,4.417497E-3,-9.288073E-3,3.0749345E-3,1.007563E-3,1.7628372E-4,1.4346242E-3,-3.8964453E-4,1.0192306E-3,-3.9325478E-3,-9.625465E-4,9.4482425E-4,4.0689908E-4,8.128703E-4,2.2654403E-3,-9.3169214E-4,1.2717784E-3,1.4653177E-3,-3.3244194E-4,-7.536114E-5,-1.5492619E-3,2.8943922E-3,4.311919E-3,6.4478186E-3,-1.4582276E-3,2.5433134E-3,1.597043E-3,5.5068946E-3,3.6889196E-3,1.9778193E-3,-3.8142205E-4,-2.5805633E-3,-1.2899558E-2,1.3492712E-3,2.5691988E-4,2.2717558E-3,1.4587679E-3,-1.7931015E-3,1.136899E-3,1.7792819E-3,1.2607574E-4,8.2353986E-4,1.7170914E-3,1.4824093E-3,-1.6731203E-3,-1.7689884E-3,6.0773495E-4,-7.0028007E-4,-5.1045213E-3],"categories":[],"categories_nodes":[],"categories_segments":[],"categories_sizes":[],"default_left":[0,0,0,0,0,0,0,0,0,0,0,0,0,0,0,0,0,0,0,0,0,0,0,0,0,0,0,0,0,0,0,0,0,0,0,0,0,0,0,0,0,0,0,0,0,0,0,0,0,0,0,0,0,0,0,0,0,0,0,0,0,0,0,0,0,0,0,0,0,0,0,0,0,0,0,0,0,0,0,0,0,0,0,0,0,0,0,0,0,0,0,0,0,0,0,0,0,0,0,0,0,0,0,0,0,0,0,0,0,0,0,0,0,0,0,0,0,0,0,0,0,0,0,0,0,0,0,0,0,0,0,0,0,0,0],"id":2,"left_children":[1,3,5,7,9,11,-1,13,15,17,19,21,23,-1,-1,25,27,29,31,33,-1,35,-1,37,-1,39,41,43,45,47,49,51,-1,-1,53,55,57,59,-1,-1,-1,61,63,65,67,69,71,73,75,77,79,-1,-1,-1,-1,-1,-1,-1,-1,-1,-1,81,83,85,87,-1,-1,89,91,93,95,-1,-1,97,-1,99,-1,101,103,-1,105,107,-1,109,-1,111,113,115,117,-1,-1,-1,-1,-1,-1,-1,-1,-1,-1,-1,-1,-1,-1,-1,-1,-1,-1,-1,119,121,123,-1,-1,125,127,-1,129,131,133,-1,-1,-1,-1,-1,-1,-1,-1,-1,-1,-1,-1,-1,-1,-1,-1],"loss_changes":[9.5378004E-2,1.1917461E-2,1.7324537E-1,6.126145E-3,3.288515E-2,2.0839972E-3,0E0,1.4635981E-3,1.4507808E-3,6.5380713E-4,2.0676665E-3,1.2443721E-3,4.254654E-5,0E0,0E0,9.6803904E-4,2.0637466E-3,7.180753E-5,2.3370047E-4,2.3605442E-4,0E0,6.235346E-5,0E0,7.6236576E-4,0E0,4.1760455E-4,9.6080266E-4,8.51861E-5,2.1626754E-4,1.1288561E-5,1.8148743E-5,9.407977E-6,0E0,0E0,3.101907E-4,2.681125E-6,2.0241241E-6,9.000318E-4,0E0,0E0,0E0,6.189011E-5,4.1510235E-4,1.7568565E-5,2.4988374E-5,1.9913465E-4,8.656189E-5,1.8957275E-5,2.0021282E-5,1.44142E-6,5.268815E-5,0E0,0E0,0E0,0E0,0E0,0E0,0E0,0E0,0E0,0E0,1.6396586E-4,1.554545E-4,1.6316283E-4,6.779261E-4,0E0,0E0,2.1886837E-5,1.0460353E-5,2.0586696E-5,9.2621485E-6,0E0,0E0,6.0408456E-6,0E0,6.3587504E-6,0E0,5.3519212E-5,3.1157077E-5,0E0,1.4362035E-5,1.6315142E-4,0E0,1.3565738E-4,0E0,5.56726E-5,1.9740663E-5,1.382186E-4,8.7832246E-5,0E0,0E0,0E0,0E0,0E0,0E0,0E0,0E0,0E0,0E0,0E0,0E0,0E0,0E0,0E0,0E0,0E0,0E0,0E0,5.771115E-6,1.1317548E-5,9.379298E-5,0E0,0E0,5.1431707E-5,3.2296375E-5,0E0,1.6583485E-4,5.7770114E-5,9.0727E-5,0E0,0E0,0E0,0E0,0E0,0E0,0E0,0E0,0E0,0E0,0E0,0E0,0E0,0E0,0E0,0E0],"parents":[2147483647,0,0,1,1,2,2,3,3,4,4,5,5,7,7,8,8,9,9,10,10,11,11,12,12,15,15,16,16,17,17,18,18,19,19,21,21,23,23,25,25,26,26,27,27,28,28,29,29,30,30,31,31,34,34,35,35,36,36,37,37,41,41,42,42,43,43,44,44,45,45,46,46,47,47,48,48,49,49,50,50,61,61,62,62,63,63,64,64,67,67,68,68,69,69,70,70,73,73,75,75,77,77,78,78,80,80,81,81,83,83,85,85,86,86,87,87,88,88,108,108,109,109,110,110,113,113,114,114,116,116,117,117,118,118],"right_children":[2,4,6,8,10,12,-1,14,16,18,20,22,24,-1,-1,26,28,30,32,34,-1,36,-1,38,-1,40,42,44,46,48,50,52,-1,-1,54,56,58,60,-1,-1,-1,62,64,66,68,70,72,74,76,78,80,-1,-1,-1,-1,-1,-1,-1,-1,-1,-1,82,84,86,88,-1,-1,90,92,94,96,-1,-1,98,-1,100,-1,102,104,-1,106,108,-1,110,-1,112,114,116,118,-1,-1,-1,-1,-1,-1,-1,-1,-1,-1,-1,-1,-1,-1,-1,-1,-1,-1,-1,120,122,124,-1,-1,126,128,-1,130,132,134,-1,-1,-1,-1,-1,-1,-1,-1,-1,-1,-1,-1,-1,-1,-1,-1],"split_conditions":[1E-1,2.6826957E-2,3.7275937E-3,1.9306977E-5,1.3894954E-3,1E-5,-6.748304E-2,1E0,1E-2,5.179475E-4,3.7275937E-3,1E0,1.9306978E-4,-2.7925038E-4,-4.4240123E-3,3.727594E-5,1.9306977E-3,7.196857E-5,5.1794745E-2,1E0,-1.928225E-2,1.9306977E-7,-5.891213E-3,1E0,-1.0746777E-2,1E0,1.9306977E-3,3.727594E-5,1E0,3.7275938E-6,1E0,1E0,-4.261804E-3,-9.822477E-3,5.1794745E-2,2.6826958E-8,3.7275938E-6,7.196857E-5,-8.775629E-3,1.5672803E-3,-6.7739375E-4,5.179475E-4,1.3894954E-3,1E0,1E0,7.1968567E-3,3.7275937E-3,1E0,5.1794745E-2,5.1794745E-2,5.1794745E-2,-4.9801474E-4,4.2317214E-4,7.0883636E-4,-5.168912E-3,-3.1742157E-4,-1.4032305E-3,1.6730727E-4,6.507576E-4,-4.697007E-3,3.6360475E-3,7.196857E-5,1E0,1E0,1.3894955E-2,6.2938035E-4,-6.280661E-4,5.179475E-4,7.196857E-5,3.7275937E-3,1.3894955E-2,-1.2132972E-3,-6.0897144E-3,7.1968564E-8,1.2867877E-3,1E-5,8.9635345E-4,1.9306978E-4,1.9306978E-4,7.030249E-4,1.9306978E-4,1E0,3.2086375E-3,3.7275937E-3,2.9166741E-3,2.6826958E-5,7.1968567E-3,7.1968567E-3,3.7275937E-3,3.0749345E-3,1.007563E-3,1.7628372E-4,1.4346242E-3,-3.8964453E-4,1.0192306E-3,-3.9325478E-3,-9.625465E-4,9.4482425E-4,4.0689908E-4,8.128703E-4,2.2654403E-3,-9.3169214E-4,1.2717784E-3,1.4653177E-3,-3.3244194E-4,-7.536114E-5,-1.5492619E-3,2.8943922E-3,3.7275937E-3,1E-3,1E-3,2.5433134E-3,1.597043E-3,5.179475E-4,7.196857E-5,1.9778193E-3,1E0,1E0,1E0,1.3492712E-3,2.5691988E-4,2.2717558E-3,1.4587679E-3,-1.7931015E-3,1.136899E-3,1.7792819E-3,1.2607574E-4,8.2353986E-4,1.7170914E-3,1.4824093E-3,-1.6731203E-3,-1.7689884E-3,6.0773495E-4,-7.0028007E-4,-5.1045213E-3],"split_indices":[0,0,2,0,2,2,0,1,2,2,2,1,2,0,0,0,0,2,0,1,0,2,0,1,0,1,0,0,1,2,1,1,0,0,0,2,2,2,0,0,0,0,2,1,1,0,0,1,0,0,0,0,0,0,0,0,0,0,0,0,0,0,1,1,0,0,0,0,0,0,0,0,0,2,0,2,0,2,2,0,2,1,0,2,0,2,0,0,2,0,0,0,0,0,0,0,0,0,0,0,0,0,0,0,0,0,0,0,2,0,0,0,0,2,2,0,1,1,1,0,0,0,0,0,0,0,0,0,0,0,0,0,0,0,0],"split_type":[0,0,0,0,0,0,0,0,0,0,0,0,0,0,0,0,0,0,0,0,0,0,0,0,0,0,0,0,0,0,0,0,0,0,0,0,0,0,0,0,0,0,0,0,0,0,0,0,0,0,0,0,0,0,0,0,0,0,0,0,0,0,0,0,0,0,0,0,0,0,0,0,0,0,0,0,0,0,0,0,0,0,0,0,0,0,0,0,0,0,0,0,0,0,0,0,0,0,0,0,0,0,0,0,0,0,0,0,0,0,0,0,0,0,0,0,0,0,0,0,0,0,0,0,0,0,0,0,0,0,0,0,0,0,0],"sum_hessian":[4.5E2,4.2E2,3E1,3.6E2,6E1,2.6E1,4E0,3E1,3.3E2,4.8E1,1.2E1,1.4E1,1.2E1,1.5E1,1.5E1,3.08E2,2.2E1,4.4E1,4E0,4E0,8E0,7E0,7E0,6E0,6E0,2.8E1,2.8E2,1.4E1,8E0,3.6E1,8E0,2E0,2E0,2E0,2E0,3E0,4E0,3E0,3E0,1.4E1,1.4E1,1.68E2,1.12E2,2E0,1.2E1,4E0,4E0,2.4E1,1.2E1,4E0,4E0,1E0,1E0,1E0,1E0,1E0,2E0,3E0,1E0,2E0,1E0,1.12E2,5.6E1,9.6E1,1.6E1,1E0,1E0,6E0,6E0,2E0,2E0,1E0,3E0,1.2E1,1.2E1,6E0,6E0,2E0,2E0,2E0,2E0,2.8E1,8.4E1,2.8E1,2.8E1,4.8E1,4.8E1,1.2E1,4E0,4E0,2E0,1E0,5E0,1E0,1E0,1E0,1E0,4E0,8E0,2E0,4E0,1E0,1E0,1E0,1E0,1E0,1E0,1.4E1,1.4E1,2.6E1,2E0,3.2E1,1.6E1,2.4E1,2.4E1,8E0,4E0,2E0,2E0,1.3E1,1E0,1.3E1,1.3E1,1E0,1E0,2.2E1,2E0,1.8E1,6E0,2E0,2E0,1E0,1E0,1E0,1E0],"tree_param":{"num_deleted":"0","num_feature":"3","num_nodes":"135","size_leaf_vector":"1"}},{"base_weights":[-7.687171E-4,2.198321E-3,-4.103821E-2,3.7987162E-3,-7.3089073E-3,-1.5459238E-2,-1.7095703E-1,-5.815852E-3,4.6876976E-3,1.6779559E-3,-4.0620245E-2,-9.939062E-3,-7.618575E-3,-6.757163E-2,-5.968963E-2,-2.0071195E-4,-3.1797523E-3,5.3009056E-3,6.726225E-4,2.5941876E-3,-6.90372E-3,-2.0770704E-2,-4.7134407E-2,-4.5184195E-3,-1.4365798E-2,-3.3957668E-2,7.097331E-3,1.1618115E-3,5.708778E-3,4.36319E-3,-8.747482E-3,3.0263178E-3,5.2940845E-4,-1.4138222E-4,-3.4094455E-3,-2.6193261E-2,-8.42458E-3,-2.4370968E-2,-6.047096E-2,-9.510219E-4,-3.757602E-3,-1.5544342E-2,-5.6383613E-4,1.1525248E-3,-4.8033384E-4,6.923263E-3,4.450714E-3,1.3486148E-4,4.9417573E-3,-2.185762E-3,-1.405956E-2,2.4495362E-3,3.9027196E-3,1.6693473E-3,-7.164121E-4,-4.2331518E-4,3.596932E-4,-9.920982E-3,-1.865986E-3,6.0251355E-4,-4.393575E-3,5.4272595E-3,-5.8709145E-2,-1.0770913E-1,6.924192E-3,-3.256157E-3,1.0832906E-3,-7.567212E-3,-5.481512E-3,5.282091E-3,7.2793425E-3,4.8165526E-3,2.8631687E-3,6.203771E-4,-5.5294635E-4,1.6450947E-3,1.2439489E-3,1.6077162E-3,-6.275499E-3,-5.596459E-3,-7.043463E-3,1.6091741E-3,9.3044183E-4,5.02835E-3,6.6586735E-4,6.423791E-4,2.1398664E-3,5.624175E-4,-3.0687451E-3,2.2404403E-3,-2.8659556E-2,-4.9449556E-2,9.804458E-4,5.6904405E-3,-2.5745542E-3,-2.6981236E-4,-1.122588E-3,1.2966245E-4,5.5314304E-4,-5.1334444E-3,1.3180375E-3,2.0826638E-3,9.734031E-4,8.208009E-3,6.2133297E-3,5.365142E-3,4.1770847E-3,3.5888837E-3,-1.0477543E-3,1.5303076E-3,-9.083331E-4,-1.212875E-3,-9.24629E-3,-1.3035834E-2,3.7084024E-3,7.180596E-4,9.946227E-4,6.5029267E-4,1.7217315E-3,-7.9194014E-4,1.0810108E-3,1.2455196E-3,-2.8257968E-4,-6.406009E-5,-1.3168752E-3,-7.0844294E-4,1.3015599E-3,2.980137E-3,6.178229E-3,4.42908E-3,2.330237E-3,3.980553E-3,6.551023E-3,5.024451E-3,1.4576742E-3,1.4086049E-3,2.6857455E-3,-3.8375657E-3,6.2739255E-4,4.9442056E-5,-5.9523585E-4,-3.3426674E-3,-8.181632E-4,-8.2477037E-4,-5.0413553E-3,-1.5985966E-4,1.8286408E-3,3.9153098E-4,1.3987899E-3,1.2573225E-3,2.3172244E-3,1.7811429E-3,9.5782214E-4,6.189389E-4,1.3290432E-3,2.2047097E-3,1.4166567E-3,1.9113958E-3,1.2419953E-3,7.552317E-4,-1.8478901E-3,2.290019E-4,1.1647602E-3,-2.2326708E-4,-1.5036375E-3,-3.9379598E-4,5.8956153E-4,6.3620805E-4,6.318689E-5],"categories":[],"categories_nodes":[],"categories_segments":[],"categories_sizes":[],"default_left":[0,0,0,0,0,0,0,0,0,0,0,0,0,0,0,0,0,0,0,0,0,0,0,0,0,0,0,0,0,0,0,0,0,0,0,0,0,0,0,0,0,0,0,0,0,0,0,0,0,0,0,0,0,0,0,0,0,0,0,0,0,0,0,0,0,0,0,0,0,0,0,0,0,0,0,0,0,0,0,0,0,0,0,0,0,0,0,0,0,0,0,0,0,0,0,0,0,0,0,0,0,0,0,0,0,0,0,0,0,0,0,0,0,0,0,0,0,0,0,0,0,0,0,0,0,0,0,0,0,0,0,0,0,0,0,0,0,0,0,0,0,0,0,0,0,0,0,0,0,0,0,0,0,0,0,0,0,0,0,0,0,0,0,0,0,0,0,0,0],"id":3,"left_children":[1,3,5,7,9,11,13,15,17,19,21,23,-1,-1,25,-1,-1,27,29,31,33,35,37,39,41,-1,-1,43,45,47,49,51,53,55,-1,57,59,61,63,65,-1,67,-1,-1,-1,69,71,73,75,77,79,81,83,85,87,-1,-1,-1,-1,-1,-1,-1,89,91,93,95,97,99,-1,101,103,105,107,-1,-1,-1,109,-1,111,113,-1,115,-1,117,-1,119,121,-1,123,-1,-1,-1,-1,-1,-1,-1,-1,-1,-1,-1,125,-1,-1,127,129,131,133,135,137,-1,-1,139,141,143,145,-1,147,-1,-1,-1,-1,-1,-1,-1,-1,-1,-1,-1,149,151,-1,153,155,157,159,-1,161,163,-1,-1,-1,-1,-1,-1,-1,-1,-1,165,167,-1,-1,-1,-1,-1,-1,-1,-1,-1,-1,-1,-1,-1,-1,-1,-1,-1,-1,-1,-1],"loss_changes":[5.3976204E-2,6.433415E-3,1.0037604E-1,3.112792E-3,1.832939E-2,1.2285053E-3,1.6754508E-2,7.560933E-4,8.113822E-4,4.0318692E-4,7.019248E-4,3.9100857E-4,0E0,0E0,1.6055781E-2,0E0,0E0,4.7788676E-4,1.6026157E-3,3.8549246E-5,1.4923043E-4,1.14070484E-4,1.2585372E-3,2.7372682E-4,1.17942225E-4,0E0,0E0,2.0607162E-4,3.679674E-4,8.006382E-5,4.2240194E-4,9.143347E-6,1.3977373E-5,6.7972537E-6,0E0,2.063564E-4,2.2411314E-4,8.352409E-3,1.6663918E-2,4.1042287E-5,0E0,5.754293E-5,0E0,0E0,0E0,3.8104597E-5,6.229221E-5,2.292964E-5,5.12891E-5,2.4962492E-4,4.2658218E-4,8.705756E-6,1.34693255E-5,1.041436E-6,3.6229143E-5,0E0,0E0,0E0,0E0,0E0,0E0,0E0,8.023924E-3,1.9556668E-2,7.230431E-4,1.2142955E-6,1.6788949E-6,3.617664E-4,0E0,6.879837E-5,5.294755E-5,1.4423858E-5,8.0392085E-5,0E0,0E0,0E0,9.7826625E-5,0E0,6.398535E-5,3.9445382E-4,0E0,3.885707E-6,0E0,1.7925049E-6,0E0,3.8667677E-5,2.251114E-5,0E0,1.0376498E-5,0E0,0E0,0E0,0E0,0E0,0E0,0E0,0E0,0E0,0E0,0E0,4.3587206E-5,0E0,0E0,1.2428337E-4,1.12563604E-4,6.0947146E-5,1.1480588E-4,1.0373216E-5,5.1812498E-5,0E0,0E0,3.514584E-6,6.6920475E-6,7.010123E-5,3.3620632E-5,0E0,1.6460781E-6,0E0,0E0,0E0,0E0,0E0,0E0,0E0,0E0,0E0,0E0,0E0,5.0567556E-5,3.1385163E-5,0E0,1.4135556E-5,4.700967E-6,2.127327E-5,1.2852227E-4,0E0,3.1547002E-5,7.1697978E-6,0E0,0E0,0E0,0E0,0E0,0E0,0E0,0E0,0E0,1.5988784E-5,3.842044E-6,0E0,0E0,0E0,0E0,0E0,0E0,0E0,0E0,0E0,0E0,0E0,0E0,0E0,0E0,0E0,0E0,0E0,0E0,0E0,0E0],"parents":[2147483647,0,0,1,1,2,2,3,3,4,4,5,5,6,6,7,7,8,8,9,9,10,10,11,11,14,14,17,17,18,18,19,19,20,20,21,21,22,22,23,23,24,24,27,27,28,28,29,29,30,30,31,31,32,32,33,33,35,35,36,36,37,37,38,38,39,39,41,41,45,45,46,46,47,47,48,48,49,49,50,50,51,51,52,52,53,53,54,54,62,62,63,63,64,64,65,65,66,66,67,67,69,69,70,70,71,71,72,72,76,76,78,78,79,79,81,81,83,83,85,85,86,86,88,88,100,100,103,103,104,104,105,105,106,106,107,107,108,108,111,111,112,112,113,113,114,114,116,116,128,128,129,129,131,131,132,132,133,133,134,134,136,136,137,137,147,147,148,148],"right_children":[2,4,6,8,10,12,14,16,18,20,22,24,-1,-1,26,-1,-1,28,30,32,34,36,38,40,42,-1,-1,44,46,48,50,52,54,56,-1,58,60,62,64,66,-1,68,-1,-1,-1,70,72,74,76,78,80,82,84,86,88,-1,-1,-1,-1,-1,-1,-1,90,92,94,96,98,100,-1,102,104,106,108,-1,-1,-1,110,-1,112,114,-1,116,-1,118,-1,120,122,-1,124,-1,-1,-1,-1,-1,-1,-1,-1,-1,-1,-1,126,-1,-1,128,130,132,134,136,138,-1,-1,140,142,144,146,-1,148,-1,-1,-1,-1,-1,-1,-1,-1,-1,-1,-1,150,152,-1,154,156,158,160,-1,162,164,-1,-1,-1,-1,-1,-1,-1,-1,-1,166,168,-1,-1,-1,-1,-1,-1,-1,-1,-1,-1,-1,-1,-1,-1,-1,-1,-1,-1,-1,-1],"split_conditions":[1E-1,2.6826957E-2,3.7275937E-3,1.9306977E-5,1.3894954E-3,7.196857E-5,1E0,1E0,3.7275937E-3,5.179475E-4,3.7275937E-3,1E0,-7.618575E-3,-6.757163E-2,1E-2,-2.0071195E-4,-3.1797523E-3,3.727594E-5,3.7275937E-3,7.196857E-5,5.1794745E-2,1E0,1E0,1E-5,2.6826958E-5,-3.3957668E-2,7.097331E-3,1E0,1E-3,3.727594E-5,1E0,3.7275938E-6,1E0,1E0,-3.4094455E-3,5.1794745E-2,5.1794745E-2,1E-2,1E-2,1.9306977E-7,-3.757602E-3,1.9306977E-7,-5.6383613E-4,1.1525248E-3,-4.8033384E-4,7.196857E-5,1.3894955E-2,1E0,1.9306977E-3,7.1968567E-3,1.3894955E-2,1E0,5.1794745E-2,5.1794745E-2,5.1794745E-2,-4.2331518E-4,3.596932E-4,-9.920982E-3,-1.865986E-3,6.0251355E-4,-4.393575E-3,5.4272595E-3,5.1794745E-2,5.1794745E-2,5.1794745E-2,2.6826958E-8,3.7275938E-6,2.6826958E-8,-5.481512E-3,1E0,2.682696E-4,1E0,5.179475E-4,6.203771E-4,-5.5294635E-4,1.6450947E-3,1E-2,1.6077162E-3,1E-2,7.1968567E-3,-7.043463E-3,7.1968564E-8,9.3044183E-4,1E-5,6.6586735E-4,1.9306978E-4,1.9306978E-4,5.624175E-4,1.9306978E-4,2.2404403E-3,-2.8659556E-2,-4.9449556E-2,9.804458E-4,5.6904405E-3,-2.5745542E-3,-2.6981236E-4,-1.122588E-3,1.2966245E-4,5.5314304E-4,-5.1334444E-3,7.1968564E-8,2.0826638E-3,9.734031E-4,1E0,1E0,3.7275937E-3,7.1968567E-3,5.1794746E-7,1E0,1.5303076E-3,-9.083331E-4,1.3894955E-2,1.3894955E-2,1E-2,1E-2,7.180596E-4,5.1794745E-2,6.5029267E-4,1.7217315E-3,-7.9194014E-4,1.0810108E-3,1.2455196E-3,-2.8257968E-4,-6.406009E-5,-1.3168752E-3,-7.0844294E-4,1.3015599E-3,2.980137E-3,1.3894954E-4,1.3894955E-6,2.330237E-3,1.9306977E-7,2.6826958E-5,1.9306977E-3,1.3894954E-3,1.4086049E-3,1E-5,1.3894954E-3,6.2739255E-4,4.9442056E-5,-5.9523585E-4,-3.3426674E-3,-8.181632E-4,-8.2477037E-4,-5.0413553E-3,-1.5985966E-4,1.8286408E-3,5.1794746E-7,5.1794746E-7,1.2573225E-3,2.3172244E-3,1.7811429E-3,9.5782214E-4,6.189389E-4,1.3290432E-3,2.2047097E-3,1.4166567E-3,1.9113958E-3,1.2419953E-3,7.552317E-4,-1.8478901E-3,2.290019E-4,1.1647602E-3,-2.2326708E-4,-1.5036375E-3,-3.9379598E-4,5.8956153E-4,6.3620805E-4,6.318689E-5],"split_indices":[0,0,2,0,2,2,1,1,2,2,2,1,0,0,2,0,0,0,0,2,0,1,1,2,2,0,0,1,0,0,1,2,1,1,0,0,0,2,2,2,0,2,0,0,0,0,0,1,0,0,0,1,0,0,0,0,0,0,0,0,0,0,0,0,0,2,2,2,0,1,0,1,2,0,0,0,2,0,2,0,0,2,0,2,0,2,2,0,2,0,0,0,0,0,0,0,0,0,0,0,2,0,0,1,1,0,0,2,1,0,0,0,0,2,2,0,0,0,0,0,0,0,0,0,0,0,0,0,0,2,0,2,2,0,2,0,2,2,0,0,0,0,0,0,0,0,0,2,2,0,0,0,0,0,0,0,0,0,0,0,0,0,0,0,0,0,0,0,0],"split_type":[0,0,0,0,0,0,0,0,0,0,0,0,0,0,0,0,0,0,0,0,0,0,0,0,0,0,0,0,0,0,0,0,0,0,0,0,0,0,0,0,0,0,0,0,0,0,0,0,0,0,0,0,0,0,0,0,0,0,0,0,0,0,0,0,0,0,0,0,0,0,0,0,0,0,0,0,0,0,0,0,0,0,0,0,0,0,0,0,0,0,0,0,0,0,0,0,0,0,0,0,0,0,0,0,0,0,0,0,0,0,0,0,0,0,0,0,0,0,0,0,0,0,0,0,0,0,0,0,0,0,0,0,0,0,0,0,0,0,0,0,0,0,0,0,0,0,0,0,0,0,0,0,0,0,0,0,0,0,0,0,0,0,0,0,0,0,0,0,0],"sum_hessian":[4.5E2,4.2E2,3E1,3.6E2,6E1,2.6E1,4E0,3E1,3.3E2,4.8E1,1.2E1,1.8E1,8E0,2E0,2E0,1.5E1,1.5E1,2.86E2,4.4E1,4.4E1,4E0,4E0,8E0,9E0,9E0,1E0,1E0,2.6E1,2.6E2,3.2E1,1.2E1,3.6E1,8E0,2E0,2E0,2E0,2E0,4E0,4E0,7E0,2E0,8E0,1E0,1.3E1,1.3E1,1.3E2,1.3E2,4E0,2.8E1,6E0,6E0,2.4E1,1.2E1,4E0,4E0,1E0,1E0,1E0,1E0,1E0,1E0,2E0,2E0,2E0,2E0,3E0,4E0,3E0,5E0,2.6E1,1.04E2,1.04E2,2.6E1,2E0,2E0,2.4E1,4E0,2E0,4E0,4E0,2E0,1.2E1,1.2E1,6E0,6E0,2E0,2E0,2E0,2E0,1E0,1E0,1E0,1E0,1E0,1E0,1E0,2E0,3E0,1E0,1E0,2E0,1.3E1,1.3E1,5.2E1,5.2E1,5.2E1,5.2E1,2.2E1,4E0,2E0,2E0,2E0,2E0,2E0,2E0,4E0,8E0,2E0,4E0,1E0,1E0,1E0,1E0,1E0,1E0,1E0,1E0,2.6E1,2.6E1,2.6E1,2.6E1,2.6E1,2.6E1,3.9E1,1.3E1,8E0,1.4E1,2E0,2E0,1E0,1E0,1E0,1E0,1E0,1E0,1E0,1E0,4E0,4E0,1.3E1,1.3E1,1E1,1.6E1,6E0,2E1,1.6E1,1E1,1.3E1,2.6E1,1.2E1,1E0,6E0,8E0,1E0,1E0,2E0,2E0,2E0,2E0],"tree_param":{"num_deleted":"0","num_feature":"3","num_nodes":"169","size_leaf_vector":"1"}},{"base_weights":[-9.531465E-4,1.3723598E-3,-3.2504275E-2,2.6848603E-3,-6.417558E-3,-1.1661148E-2,-1.3855632E-1,-4.180166E-3,3.319697E-3,1.2264531E-3,-3.473594E-2,-6.3619534E-3,-1.6878592E-2,-1.8019101E-1,-5.0736178E-2,-4.80894E-4,-2.2854535E-3,3.651911E-3,-1.287862E-3,1.949607E-3,-5.527222E-3,-1.7655099E-2,-4.0365748E-2,-7.544011E-4,-3.3522786E-3,-3.939081E-3,-7.498873E-3,-1.3505477E-2,-6.7580484E-2,-2.8864017E-2,6.0327356E-3,-8.372813E-5,-2.6071072E-4,8.0104324E-4,3.9331326E-3,3.315127E-3,-8.8164145E-3,2.269284E-3,4.1875575E-4,-1.20182835E-4,-2.7275563E-3,-2.2264281E-2,-7.160882E-3,-2.1258032E-2,-5.1400315E-2,-7.882208E-4,8.948803E-4,8.1637385E-4,-3.5176874E-4,4.247621E-3,1.0538636E-3,5.010657E-3,1.2052059E-3,-4.1419505E-3,-1.1727596E-2,1.7161653E-3,2.8190613E-3,4.2568802E-4,-6.6519977E-4,-3.5981834E-4,3.057361E-4,-8.432839E-3,-1.5860886E-3,5.1214104E-4,-3.734538E-3,4.370493E-3,-4.999836E-2,-9.155276E-2,5.8855615E-3,1.0049344E-4,4.7017337E-4,5.017385E-3,3.6005937E-3,2.4608541E-3,-6.191862E-3,5.8858194E-3,4.7703387E-4,-9.1929734E-4,2.6637674E-3,9.5607835E-4,-7.85933E-3,-6.0431063E-3,-5.169833E-3,1.0260507E-3,2.250265E-3,1.084904E-3,1.7085472E-3,4.4993163E-4,-2.6084383E-3,1.8613548E-3,-2.436062E-2,-4.2032123E-2,8.3338027E-4,4.836872E-3,-2.1883696E-3,3.7262256E-3,1.6196612E-3,4.2960877E-3,3.2826148E-3,2.8196573E-3,1.3851286E-4,-1.9013882E-3,-8.418381E-3,4.4192077E-4,1.9421269E-3,-4.509151E-4,-6.710887E-5,1.0014386E-3,-5.0514936E-6,-1.949519E-4,6.251872E-4,-2.841264E-3,-6.954342E-4,-1.1511564E-2,1.5543402E-3,-2.811551E-4,4.6993693E-4,8.081854E-4,1.6911824E-4,6.7494396E-4,8.25572E-4,-5.4448847E-5,-1.1193485E-3,1.5095699E-3,2.1721362E-3,4.644878E-3,2.5398466E-3,1.3632937E-3,3.478548E-3,2.2179892E-3,1.7071009E-3,-1.2780905E-3,4.2246582E-4,-5.05954E-4,-3.2823177E-3,-8.950532E-4,-4.285151E-3,-3.1982662E-4,3.9592982E-4,-8.860827E-5,5.013943E-4,7.287947E-4,1.0009408E-4,1.1741911E-3,1.8477241E-3,1.5248717E-3,-1.5335441E-4,7.512301E-4,-1.4185906E-6,1.1556618E-3,8.4872876E-4,9.4082544E-4,5.8829788E-5],"categories":[],"categories_nodes":[],"categories_segments":[],"categories_sizes":[],"default_left":[0,0,0,0,0,0,0,0,0,0,0,0,0,0,0,0,0,0,0,0,0,0,0,0,0,0,0,0,0,0,0,0,0,0,0,0,0,0,0,0,0,0,0,0,0,0,0,0,0,0,0,0,0,0,0,0,0,0,0,0,0,0,0,0,0,0,0,0,0,0,0,0,0,0,0,0,0,0,0,0,0,0,0,0,0,0,0,0,0,0,0,0,0,0,0,0,0,0,0,0,0,0,0,0,0,0,0,0,0,0,0,0,0,0,0,0,0,0,0,0,0,0,0,0,0,0,0,0,0,0,0,0,0,0,0,0,0,0,0,0,0,0,0,0,0,0,0,0,0,0,0,0,0],"id":4,"left_children":[1,3,5,7,9,11,13,15,17,19,21,23,25,27,29,31,-1,33,35,37,39,41,43,45,-1,-1,-1,-1,-1,-1,-1,-1,-1,47,49,51,53,55,57,59,-1,61,63,65,67,-1,69,-1,-1,71,73,75,77,79,81,83,85,-1,87,-1,-1,-1,-1,-1,-1,-1,89,91,93,-1,-1,95,97,99,101,103,-1,105,107,109,111,113,-1,115,117,-1,119,-1,121,-1,-1,-1,-1,-1,-1,123,-1,125,127,129,-1,131,133,-1,-1,-1,-1,-1,-1,-1,-1,-1,-1,135,-1,-1,-1,-1,137,-1,139,-1,-1,-1,141,143,145,147,149,151,-1,-1,-1,-1,-1,-1,-1,-1,-1,-1,-1,-1,-1,-1,-1,-1,-1,-1,-1,-1,-1,-1,-1],"loss_changes":[3.3135537E-2,4.321648E-3,6.690842E-2,1.5871767E-3,1.324703E-2,6.3912175E-4,9.13962E-3,3.9059884E-4,5.113636E-4,2.5008927E-4,5.374439E-4,3.9634918E-4,6.735115E-5,8.13847E-3,1.1600304E-2,1.010691E-6,0E0,2.4458207E-4,8.262659E-4,2.1071755E-5,9.5277865E-5,8.2416926E-5,8.049393E-4,2.7064061E-5,0E0,0E0,0E0,0E0,0E0,0E0,0E0,0E0,0E0,1.130928E-4,2.4996838E-4,4.762264E-5,7.38987E-5,6.4134365E-6,1.0701485E-5,4.910974E-6,0E0,1.4909275E-4,1.6192225E-4,5.8766957E-3,1.2039674E-2,0E0,1.3572985E-6,0E0,0E0,1.07943546E-4,3.108826E-4,1.4589139E-5,2.7238544E-5,1.0227065E-4,5.233125E-5,5.4315096E-6,8.873045E-6,0E0,2.4947349E-5,0E0,0E0,0E0,0E0,0E0,0E0,0E0,5.765033E-3,1.4129696E-2,5.2239816E-4,0E0,0E0,3.554183E-5,1.707999E-5,1.6630627E-5,3.1757503E-5,6.030212E-6,0E0,1.28801E-6,9.094689E-6,6.788081E-6,4.8352667E-6,3.0516012E-4,0E0,1.3138433E-5,9.701544E-6,0E0,2.443936E-6,0E0,7.4971595E-6,0E0,0E0,0E0,0E0,0E0,0E0,4.7914917E-5,0E0,1.331768E-5,3.3239718E-5,2.3650005E-5,0E0,2.9420673E-5,3.249476E-5,0E0,0E0,0E0,0E0,0E0,0E0,0E0,0E0,0E0,0E0,2.8310256E-5,0E0,0E0,0E0,0E0,5.670852E-6,0E0,5.2337427E-6,0E0,0E0,0E0,6.2818E-6,1.2416043E-5,7.242878E-5,1.7178983E-5,1.1184835E-5,3.465449E-5,0E0,0E0,0E0,0E0,0E0,0E0,0E0,0E0,0E0,0E0,0E0,0E0,0E0,0E0,0E0,0E0,0E0,0E0,0E0,0E0,0E0,0E0,0E0],"parents":[2147483647,0,0,1,1,2,2,3,3,4,4,5,5,6,6,7,7,8,8,9,9,10,10,11,11,12,12,13,13,14,14,15,15,17,17,18,18,19,19,20,20,21,21,22,22,23,23,33,33,34,34,35,35,36,36,37,37,38,38,39,39,41,41,42,42,43,43,44,44,46,46,49,49,50,50,51,51,52,52,53,53,54,54,55,55,56,56,58,58,66,66,67,67,68,68,71,71,72,72,73,73,74,74,75,75,77,77,78,78,79,79,80,80,81,81,83,83,84,84,86,86,88,88,95,95,97,97,98,98,99,99,101,101,102,102,113,113,118,118,120,120,124,124,125,125,126,126,127,127,128,128,129,129],"right_children":[2,4,6,8,10,12,14,16,18,20,22,24,26,28,30,32,-1,34,36,38,40,42,44,46,-1,-1,-1,-1,-1,-1,-1,-1,-1,48,50,52,54,56,58,60,-1,62,64,66,68,-1,70,-1,-1,72,74,76,78,80,82,84,86,-1,88,-1,-1,-1,-1,-1,-1,-1,90,92,94,-1,-1,96,98,100,102,104,-1,106,108,110,112,114,-1,116,118,-1,120,-1,122,-1,-1,-1,-1,-1,-1,124,-1,126,128,130,-1,132,134,-1,-1,-1,-1,-1,-1,-1,-1,-1,-1,136,-1,-1,-1,-1,138,-1,140,-1,-1,-1,142,144,146,148,150,152,-1,-1,-1,-1,-1,-1,-1,-1,-1,-1,-1,-1,-1,-1,-1,-1,-1,-1,-1,-1,-1,-1,-1],"split_conditions":[1E-1,2.6826957E-2,3.7275937E-3,1.9306977E-5,1.3894954E-3,1E-5,1E0,1E0,1E-2,5.179475E-4,3.7275937E-3,1E0,1.3894954E-3,1E-2,1E-2,5.179475E-4,-2.2854535E-3,3.727594E-5,1.9306977E-3,7.196857E-5,5.1794745E-2,1E0,1E0,1.9306977E-7,-3.3522786E-3,-3.939081E-3,-7.498873E-3,-1.3505477E-2,-6.7580484E-2,-2.8864017E-2,6.0327356E-3,-8.372813E-5,-2.6071072E-4,1E0,1.3894955E-2,1E0,1E0,1.3894955E-6,1E0,1E0,-2.7275563E-3,5.1794745E-2,5.1794745E-2,5.1794745E-2,1E-2,-7.882208E-4,3.7275938E-6,8.1637385E-4,-3.5176874E-4,5.179475E-4,1.3894954E-3,5.179475E-4,1.3894954E-4,7.1968567E-3,1.3894955E-2,5.1794745E-2,5.1794745E-2,4.2568802E-4,5.1794745E-2,-3.5981834E-4,3.057361E-4,-8.432839E-3,-1.5860886E-3,5.1214104E-4,-3.734538E-3,4.370493E-3,1E-2,5.1794745E-2,5.1794745E-2,1.0049344E-4,4.7017337E-4,7.196857E-5,5.1794746E-7,1.9306978E-4,3.7275937E-3,3.727594E-5,4.7703387E-4,3.727594E-5,1E-3,3.7275937E-3,1.3894955E-2,7.1968567E-3,-5.169833E-3,2.6826958E-8,5.1794746E-7,1.084904E-3,1E-5,4.4993163E-4,1.9306978E-4,1.8613548E-3,-2.436062E-2,-4.2032123E-2,8.3338027E-4,4.836872E-3,-2.1883696E-3,1E0,1.6196612E-3,7.1968567E-3,1.3894955E-6,7.196857E-5,1.3851286E-4,1E0,1E0,4.4192077E-4,1.9421269E-3,-4.509151E-4,-6.710887E-5,1.0014386E-3,-5.0514936E-6,-1.949519E-4,6.251872E-4,-2.841264E-3,-6.954342E-4,3.7275937E-3,1.5543402E-3,-2.811551E-4,4.6993693E-4,8.081854E-4,1E0,6.7494396E-4,2.6826958E-5,-5.4448847E-5,-1.1193485E-3,1.5095699E-3,1.3894954E-3,3.7275937E-3,1E0,1E0,3.7275937E-3,3.7275938E-6,1.7071009E-3,-1.2780905E-3,4.2246582E-4,-5.05954E-4,-3.2823177E-3,-8.950532E-4,-4.285151E-3,-3.1982662E-4,3.9592982E-4,-8.860827E-5,5.013943E-4,7.287947E-4,1.0009408E-4,1.1741911E-3,1.8477241E-3,1.5248717E-3,-1.5335441E-4,7.512301E-4,-1.4185906E-6,1.1556618E-3,8.4872876E-4,9.4082544E-4,5.8829788E-5],"split_indices":[0,0,2,0,2,2,1,1,2,2,2,1,2,2,2,2,0,0,0,2,0,1,1,2,0,0,0,0,0,0,0,0,0,1,0,1,1,2,1,1,0,0,0,0,2,0,2,0,0,0,2,0,0,0,0,0,0,0,0,0,0,0,0,0,0,0,2,0,0,0,0,0,2,2,2,0,0,0,0,0,0,0,0,2,2,0,2,0,2,0,0,0,0,0,0,1,0,0,2,2,0,1,1,0,0,0,0,0,0,0,0,0,0,0,0,0,0,0,1,0,2,0,0,0,2,0,1,1,0,2,0,0,0,0,0,0,0,0,0,0,0,0,0,0,0,0,0,0,0,0,0,0,0],"split_type":[0,0,0,0,0,0,0,0,0,0,0,0,0,0,0,0,0,0,0,0,0,0,0,0,0,0,0,0,0,0,0,0,0,0,0,0,0,0,0,0,0,0,0,0,0,0,0,0,0,0,0,0,0,0,0,0,0,0,0,0,0,0,0,0,0,0,0,0,0,0,0,0,0,0,0,0,0,0,0,0,0,0,0,0,0,0,0,0,0,0,0,0,0,0,0,0,0,0,0,0,0,0,0,0,0,0,0,0,0,0,0,0,0,0,0,0,0,0,0,0,0,0,0,0,0,0,0,0,0,0,0,0,0,0,0,0,0,0,0,0,0,0,0,0,0,0,0,0,0,0,0,0,0],"sum_hessian":[4.5E2,4.2E2,3E1,3.6E2,6E1,2.6E1,4E0,3E1,3.3E2,4.8E1,1.2E1,1.4E1,1.2E1,2E0,2E0,1.5E1,1.5E1,3.08E2,2.2E1,4.4E1,4E0,4E0,8E0,7E0,7E0,1E1,2E0,1E0,1E0,1E0,1E0,1.1E1,4E0,2.8E1,2.8E2,1.4E1,8E0,3.6E1,8E0,2E0,2E0,2E0,2E0,4E0,4E0,3E0,4E0,1.4E1,1.4E1,2.52E2,2.8E1,7E0,7E0,4E0,4E0,2E1,1.6E1,4E0,4E0,1E0,1E0,1E0,1E0,1E0,1E0,2E0,2E0,2E0,2E0,3E0,1E0,1.12E2,1.4E2,2.4E1,4E0,5E0,2E0,3E0,4E0,2E0,2E0,3E0,1E0,1E1,1E1,8E0,8E0,2E0,2E0,1E0,1E0,1E0,1E0,1E0,1E0,2.8E1,8.4E1,4E1,1E2,2E1,4E0,2E0,2E0,1E0,4E0,1E0,2E0,3E0,1E0,1E0,1E0,1E0,1E0,2E0,1E0,2E0,8E0,8E0,2E0,4E0,4E0,1E0,1E0,1.4E1,1.4E1,3.2E1,8E0,1E1,9E1,1.8E1,2E0,1E0,1E0,1E0,1E0,1E0,1E0,1E0,1E0,2E0,2E0,1.2E1,2E0,2.4E1,8E0,4E0,4E0,5E0,5E0,5.4E1,3.6E1,1.2E1,6E0],"tree_param":{"num_deleted":"0","num_feature":"3","num_nodes":"153","size_leaf_vector":"1"}},{"base_weights":[-1.088703E-3,7.915977E-4,-2.6589282E-2,1.8754759E-3,-5.635806E-3,-8.718643E-3,-1.1777287E-1,-3.0109326E-3,2.3274492E-3,8.619026E-4,-2.9693644E-2,-5.9805373E-3,-1.568744E-2,-1.5316236E-1,-4.312576E-2,-1.0744259E-4,-1.642662E-3,2.7150246E-3,-1.9614167E-4,1.430224E-3,-4.4253706E-3,-1.5006828E-2,-3.455369E-2,5.0336664E-4,-1.1920756E-2,-7.665454E-3,-1.9015074E-3,-1.1479658E-2,-5.7443406E-2,-2.4534414E-2,5.1278207E-3,6.145018E-4,2.9219177E-3,2.239697E-3,-6.3643362E-3,1.6762195E-3,2.5999546E-4,-1.0214249E-4,-2.1820427E-3,-1.8924633E-2,-6.0867467E-3,-1.8506384E-2,-4.3690264E-2,-2.662486E-3,4.824284E-3,-7.980192E-3,-7.698959E-3,8.763154E-3,-5.084324E-3,6.0405646E-4,-2.4852328E-4,3.558073E-3,2.2634577E-3,1.6784668E-5,2.5457267E-3,-1.7270276E-3,-1.0092454E-2,1.2860942E-3,2.2975206E-3,1.078403E-3,-6.1041117E-4,-3.0584336E-4,2.5987925E-4,-7.167909E-3,-1.3481766E-3,4.3532255E-4,-3.1743587E-3,3.7186267E-3,-4.3239396E-2,-7.781985E-2,5.002737E-3,-8.1483525E-4,-2.8937012E-3,-8.949552E-3,1.1160672E-4,3.606713E-3,3.3670664E-4,2.7562291E-3,3.7303749E-3,2.362136E-3,9.722276E-4,3.7047864E-4,-3.620863E-4,2.802863E-3,7.508993E-4,1.1387825E-3,-4.6954034E-3,-4.5503257E-3,-4.7895554E-3,7.681113E-4,1.7051467E-3,2.9287678E-3,1.3380562E-3,2.6224056E-4,1.5350977E-3,3.5994055E-4,-2.2171538E-3,1.2488008E-3,-2.0706529E-2,-3.5727303E-2,7.083714E-4,4.111344E-3,-1.8601121E-3,-2.0362437E-3,1.3524294E-4,-3.9179176E-3,-3.2437148E-3,1.0819815E-3,5.1269407E-4,4.280213E-3,3.1101524E-3,2.691098E-3,1.9944506E-3,2.5141325E-3,-1.3808847E-3,1.3118268E-3,3.024402E-3,9.931148E-4,-6.1766506E-4,-3.4356714E-4,-6.680449E-3,-9.934981E-3,2.3511052E-3,1.4580607E-3,2.9946037E-4,8.077281E-4,7.0769194E-4,3.7876666E-3,1.3376772E-3,2.0213525E-3,6.6046714E-4,-7.3699956E-4,8.550078E-4,9.948403E-4,-3.040463E-4,-4.6277048E-5,-9.5144217E-4,-1.1110604E-4,-7.404268E-4,7.40552E-4,-4.3369533E-4,-3.860584E-3,3.3551853E-3,1.6513203E-3,2.897499E-3,1.8777472E-3,4.2273668E-3,1.8336177E-3,3.197744E-3,1.4737534E-3,3.366802E-3,1.0471791E-3,1.0057659E-3,6.7390996E-4,-2.9753845E-3,7.427454E-4,-8.683205E-5,3.5468661E-3,1.9336873E-3,-2.415079E-3,-5.911231E-4,-8.283645E-4,-3.6423774E-3,-2.631873E-4,1.3211847E-3,4.9022835E-4,1.9398729E-3,-1.8570424E-4,7.247329E-4,-4.6001375E-4,1.8735379E-3,2.0493865E-4,1.3784409E-3,6.208479E-4,-1.2866558E-4,2.7304888E-5,8.8230375E-4,-7.088185E-5,4.0111542E-4,7.788241E-5,3.9964917E-4,-9.933115E-5,1.6091645E-3,4.5589E-4,1.2205201E-3,3.3341805E-4,1.5082277E-3,1.504598E-3,9.4123575E-4,7.8332314E-4,1.820261E-4,1.0342572E-3,8.2553925E-5,1.6467259E-4,6.1460776E-4,1.891458E-3,2.9204428E-4,-1.4462472E-4,5.1528815E-4,1.3896347E-3,-1.0863752E-3,-1.6980172E-3,3.5909415E-4,1.7396783E-3,2.3643291E-4,-3.3022286E-4,1.374414E-3,-3.2549503E-4,5.4609776E-4,8.368403E-4,3.6102534E-5,-4.09019E-4,3.161669E-4,3.473282E-4,1.5038252E-5,-4.409671E-4,3.854424E-4,8.662761E-4,-1.7529131E-4],"categories":[],"categories_nodes":[],"categories_segments":[],"categories_sizes":[],"default_left":[0,0,0,0,0,0,0,0,0,0,0,0,0,0,0,0,0,0,0,0,0,0,0,0,0,0,0,0,0,0,0,0,0,0,0,0,0,0,0,0,0,0,0,0,0,0,0,0,0,0,0,0,0,0,0,0,0,0,0,0,0,0,0,0,0,0,0,0,0,0,0,0,0,0,0,0,0,0,0,0,0,0,0,0,0,0,0,0,0,0,0,0,0,0,0,0,0,0,0,0,0,0,0,0,0,0,0,0,0,0,0,0,0,0,0,0,0,0,0,0,0,0,0,0,0,0,0,0,0,0,0,0,0,0,0,0,0,0,0,0,0,0,0,0,0,0,0,0,0,0,0,0,0,0,0,0,0,0,0,0,0,0,0,0,0,0,0,0,0,0,0,0,0,0,0,0,0,0,0,0,0,0,0,0,0,0,0,0,0,0,0,0,0,0,0,0,0,0,0,0,0,0,0,0,0,0,0,0,0,0,0,0,0,0,0,0,0,0,0],"id":5,"left_children":[1,3,5,7,9,11,13,15,17,19,21,23,25,27,29,-1,-1,31,33,35,37,39,41,43,45,-1,47,-1,-1,-1,-1,49,51,53,55,57,59,61,-1,63,65,67,69,71,-1,73,-1,75,-1,-1,-1,77,79,81,83,85,87,89,91,93,95,-1,-1,-1,-1,-1,-1,-1,97,99,101,103,-1,105,-1,-1,-1,107,109,111,113,-1,-1,115,117,-1,119,121,-1,123,125,127,129,131,133,-1,135,-1,-1,-1,-1,-1,-1,137,139,141,-1,-1,-1,143,145,147,149,151,153,155,157,-1,-1,-1,159,161,163,165,167,169,-1,171,173,175,177,-1,-1,-1,-1,-1,-1,-1,-1,179,-1,-1,181,-1,183,185,187,189,191,193,195,197,-1,199,201,-1,-1,203,205,-1,-1,-1,-1,-1,-1,207,209,211,213,215,217,-1,-1,-1,-1,-1,-1,-1,-1,-1,-1,-1,-1,-1,-1,-1,-1,-1,-1,-1,-1,-1,-1,-1,-1,-1,-1,-1,-1,-1,-1,-1,-1,-1,-1,-1,-1,-1,-1,-1,-1,-1,-1,-1,-1,-1,-1,-1,-1],"loss_changes":[2.1645937E-2,2.9434757E-3,4.9487956E-2,8.0428587E-4,9.561162E-3,4.2137597E-4,6.603375E-3,2.0071969E-4,3.2427756E-4,1.5356792E-4,4.0938146E-4,8.1483246E-4,9.033119E-4,5.8800355E-3,8.381216E-3,0E0,0E0,1.2292992E-4,6.903669E-4,1.2518387E-5,6.082211E-5,5.9546204E-5,5.110074E-4,5.852948E-4,3.908854E-4,0E0,7.9036795E-4,0E0,0E0,0E0,0E0,5.6171935E-5,1.0127504E-4,2.2406428E-5,2.0731974E-4,6.013426E-6,7.0693955E-6,3.5481978E-6,0E0,1.0771898E-4,1.1698916E-4,4.3574437E-3,8.69867E-3,1.21165234E-4,0E0,8.4292435E-5,0E0,6.121579E-5,0E0,0E0,0E0,7.817056E-6,1.4394987E-5,8.9439545E-6,1.1279277E-5,1.3258323E-4,1.5518512E-4,4.1168096E-6,3.954716E-6,1.4611201E-6,1.7202876E-5,0E0,0E0,0E0,0E0,0E0,0E0,0E0,3.9537274E-3,1.0208702E-2,3.7743262E-4,1.0719288E-5,0E0,4.1995663E-5,0E0,0E0,0E0,1.7881379E-5,2.2495282E-5,9.268231E-6,4.338275E-5,0E0,0E0,4.290574E-6,4.277365E-5,0E0,2.7585731E-5,2.0916737E-4,0E0,3.7668597E-6,5.7224206E-6,4.4994267E-6,1.9059216E-6,2.810939E-5,1.697823E-5,0E0,5.4167695E-6,0E0,0E0,0E0,0E0,0E0,0E0,1.9635645E-6,6.8121562E-6,3.0357388E-4,0E0,0E0,0E0,7.376418E-5,6.503565E-5,2.0637352E-5,3.862752E-5,5.09874E-6,1.8386989E-5,1.0035904E-5,5.108508E-6,0E0,0E0,0E0,3.4933182E-6,1.3957266E-5,2.3745723E-5,1.3805866E-6,1.9915303E-6,1.0320055E-5,0E0,6.8842965E-6,6.058769E-6,5.0580775E-6,3.3495094E-6,0E0,0E0,0E0,0E0,0E0,0E0,0E0,0E0,1.0768199E-6,0E0,0E0,2.398991E-5,0E0,3.737783E-5,5.9584287E-5,7.4525014E-6,2.2261636E-5,2.6061229E-5,2.3335015E-5,1.063698E-4,4.9291993E-6,0E0,6.777743E-5,4.037928E-5,0E0,0E0,7.619738E-5,7.735107E-5,0E0,0E0,0E0,0E0,0E0,0E0,8.260578E-6,4.3019018E-6,8.7361705E-6,1.4025786E-6,8.936745E-6,1.1656717E-5,0E0,0E0,0E0,0E0,0E0,0E0,0E0,0E0,0E0,0E0,0E0,0E0,0E0,0E0,0E0,0E0,0E0,0E0,0E0,0E0,0E0,0E0,0E0,0E0,0E0,0E0,0E0,0E0,0E0,0E0,0E0,0E0,0E0,0E0,0E0,0E0,0E0,0E0,0E0,0E0,0E0,0E0,0E0,0E0,0E0,0E0,0E0,0E0],"parents":[2147483647,0,0,1,1,2,2,3,3,4,4,5,5,6,6,7,7,8,8,9,9,10,10,11,11,12,12,13,13,14,14,17,17,18,18,19,19,20,20,21,21,22,22,23,23,24,24,26,26,31,31,32,32,33,33,34,34,35,35,36,36,37,37,39,39,40,40,41,41,42,42,43,43,45,45,47,47,51,51,52,52,53,53,54,54,55,55,56,56,57,57,58,58,59,59,60,60,68,68,69,69,70,70,71,71,73,73,77,77,78,78,79,79,80,80,83,83,84,84,86,86,87,87,89,89,90,90,91,91,92,92,93,93,94,94,96,96,103,103,104,104,105,105,109,109,110,110,111,111,112,112,113,113,114,114,115,115,116,116,120,120,121,121,122,122,123,123,124,124,125,125,127,127,128,128,129,129,130,130,139,139,142,142,144,144,145,145,146,146,147,147,148,148,149,149,150,150,151,151,153,153,154,154,157,157,158,158,165,165,166,166,167,167,168,168,169,169,170,170],"right_children":[2,4,6,8,10,12,14,16,18,20,22,24,26,28,30,-1,-1,32,34,36,38,40,42,44,46,-1,48,-1,-1,-1,-1,50,52,54,56,58,60,62,-1,64,66,68,70,72,-1,74,-1,76,-1,-1,-1,78,80,82,84,86,88,90,92,94,96,-1,-1,-1,-1,-1,-1,-1,98,100,102,104,-1,106,-1,-1,-1,108,110,112,114,-1,-1,116,118,-1,120,122,-1,124,126,128,130,132,134,-1,136,-1,-1,-1,-1,-1,-1,138,140,142,-1,-1,-1,144,146,148,150,152,154,156,158,-1,-1,-1,160,162,164,166,168,170,-1,172,174,176,178,-1,-1,-1,-1,-1,-1,-1,-1,180,-1,-1,182,-1,184,186,188,190,192,194,196,198,-1,200,202,-1,-1,204,206,-1,-1,-1,-1,-1,-1,208,210,212,214,216,218,-1,-1,-1,-1,-1,-1,-1,-1,-1,-1,-1,-1,-1,-1,-1,-1,-1,-1,-1,-1,-1,-1,-1,-1,-1,-1,-1,-1,-1,-1,-1,-1,-1,-1,-1,-1,-1,-1,-1,-1,-1,-1,-1,-1,-1,-1,-1,-1],"split_conditions":[1E-1,2.6826957E-2,3.7275937E-3,1.9306977E-5,1.3894954E-3,1.9306978E-4,1E0,1E0,3.7275937E-3,5.179475E-4,3.7275937E-3,1E0,1E0,1E-2,1E-2,-1.0744259E-4,-1.642662E-3,3.727594E-5,3.7275937E-3,7.196857E-5,5.1794745E-2,1E0,1E0,7.196857E-5,7.196857E-5,-7.665454E-3,1.3894954E-3,-1.1479658E-2,-5.7443406E-2,-2.4534414E-2,5.1278207E-3,1E0,1E-3,3.727594E-5,1E0,3.7275938E-6,1E0,1E0,-2.1820427E-3,5.1794745E-2,5.1794745E-2,1E-2,1E-2,2.6826958E-5,4.824284E-3,2.6826958E-5,-7.698959E-3,5.179475E-4,-5.084324E-3,6.0405646E-4,-2.4852328E-4,7.196857E-5,1.3894954E-3,1E0,1.9306977E-3,7.1968567E-3,1.3894955E-2,1E0,5.1794745E-2,5.1794745E-2,5.1794745E-2,-3.0584336E-4,2.5987925E-4,-7.167909E-3,-1.3481766E-3,4.3532255E-4,-3.1743587E-3,3.7186267E-3,5.1794745E-2,5.1794745E-2,5.1794745E-2,1.9306977E-7,-2.8937012E-3,1.9306977E-7,1.1160672E-4,3.606713E-3,3.3670664E-4,1E0,2.682696E-4,1E0,7.1968567E-3,3.7047864E-4,-3.620863E-4,7.196857E-5,1E-2,1.1387825E-3,1E-2,7.1968567E-3,-4.7895554E-3,7.1968564E-8,1.9306977E-7,1E0,1E-5,1.9306978E-4,1.9306978E-4,3.5994055E-4,1.9306978E-4,1.2488008E-3,-2.0706529E-2,-3.5727303E-2,7.083714E-4,4.111344E-3,-1.8601121E-3,2.6826958E-8,1E-5,2.6826958E-8,-3.2437148E-3,1.0819815E-3,5.1269407E-4,1E0,1E0,3.7275937E-3,7.196857E-5,1E0,1E0,1E0,5.179475E-4,9.931148E-4,-6.1766506E-4,-3.4356714E-4,1.3894955E-2,1E-2,1E-2,2.6826958E-8,5.1794745E-2,5.1794745E-2,7.0769194E-4,1E-5,2.6826958E-5,1E0,2.6826958E-5,-7.3699956E-4,8.550078E-4,9.948403E-4,-3.040463E-4,-4.6277048E-5,-9.5144217E-4,-1.1110604E-4,-7.404268E-4,3.7275938E-6,-4.3369533E-4,-3.860584E-3,7.1968564E-8,1.6513203E-3,1.3894954E-4,5.179475E-4,5.179475E-4,1E-5,5.179475E-4,3.7275937E-3,3.7275937E-3,1.9306977E-3,1.0057659E-3,1.3894955E-2,1.3894955E-2,7.427454E-4,-8.683205E-5,1E0,1E0,-2.415079E-3,-5.911231E-4,-8.283645E-4,-3.6423774E-3,-2.631873E-4,1.3211847E-3,5.1794745E-2,5.1794745E-2,5.1794746E-7,5.1794746E-7,7.1968564E-8,7.1968564E-8,2.0493865E-4,1.3784409E-3,6.208479E-4,-1.2866558E-4,2.7304888E-5,8.8230375E-4,-7.088185E-5,4.0111542E-4,7.788241E-5,3.9964917E-4,-9.933115E-5,1.6091645E-3,4.5589E-4,1.2205201E-3,3.3341805E-4,1.5082277E-3,1.504598E-3,9.4123575E-4,7.8332314E-4,1.820261E-4,1.0342572E-3,8.2553925E-5,1.6467259E-4,6.1460776E-4,1.891458E-3,2.9204428E-4,-1.4462472E-4,5.1528815E-4,1.3896347E-3,-1.0863752E-3,-1.6980172E-3,3.5909415E-4,1.7396783E-3,2.3643291E-4,-3.3022286E-4,1.374414E-3,-3.2549503E-4,5.4609776E-4,8.368403E-4,3.6102534E-5,-4.09019E-4,3.161669E-4,3.473282E-4,1.5038252E-5,-4.409671E-4,3.854424E-4,8.662761E-4,-1.7529131E-4],"split_indices":[0,0,2,0,2,2,1,1,2,2,2,1,1,2,2,0,0,0,0,2,0,1,1,2,2,0,2,0,0,0,0,1,0,0,1,2,1,1,0,0,0,2,2,2,0,2,0,2,0,0,0,0,2,1,0,0,0,1,0,0,0,0,0,0,0,0,0,0,0,0,0,2,0,2,0,0,0,1,0,1,0,0,0,0,2,0,2,0,0,2,2,1,2,2,2,0,2,0,0,0,0,0,0,2,2,2,0,0,0,1,1,0,2,1,1,1,0,0,0,0,0,2,2,2,0,0,0,2,2,1,2,0,0,0,0,0,0,0,0,2,0,0,2,0,0,2,0,2,2,0,0,0,0,0,0,0,0,1,1,0,0,0,0,0,0,0,0,2,2,2,2,0,0,0,0,0,0,0,0,0,0,0,0,0,0,0,0,0,0,0,0,0,0,0,0,0,0,0,0,0,0,0,0,0,0,0,0,0,0,0,0,0,0,0,0,0,0,0,0],"split_type":[0,0,0,0,0,0,0,0,0,0,0,0,0,0,0,0,0,0,0,0,0,0,0,0,0,0,0,0,0,0,0,0,0,0,0,0,0,0,0,0,0,0,0,0,0,0,0,0,0,0,0,0,0,0,0,0,0,0,0,0,0,0,0,0,0,0,0,0,0,0,0,0,0,0,0,0,0,0,0,0,0,0,0,0,0,0,0,0,0,0,0,0,0,0,0,0,0,0,0,0,0,0,0,0,0,0,0,0,0,0,0,0,0,0,0,0,0,0,0,0,0,0,0,0,0,0,0,0,0,0,0,0,0,0,0,0,0,0,0,0,0,0,0,0,0,0,0,0,0,0,0,0,0,0,0,0,0,0,0,0,0,0,0,0,0,0,0,0,0,0,0,0,0,0,0,0,0,0,0,0,0,0,0,0,0,0,0,0,0,0,0,0,0,0,0,0,0,0,0,0,0,0,0,0,0,0,0,0,0,0,0,0,0,0,0,0,0,0,0],"sum_hessian":[4.5E2,4.2E2,3E1,3.6E2,6E1,2.6E1,4E0,3E1,3.3E2,4.8E1,1.2E1,2E1,6E0,2E0,2E0,1.5E1,1.5E1,2.86E2,4.4E1,4.4E1,4E0,4E0,8E0,1E1,1E1,3E0,3E0,1E0,1E0,1E0,1E0,2.6E1,2.6E2,3.2E1,1.2E1,3.6E1,8E0,2E0,2E0,2E0,2E0,4E0,4E0,9E0,1E0,9E0,1E0,2E0,1E0,1.3E1,1.3E1,1.3E2,1.3E2,4E0,2.8E1,6E0,6E0,2.4E1,1.2E1,4E0,4E0,1E0,1E0,1E0,1E0,1E0,1E0,2E0,2E0,2E0,2E0,8E0,1E0,8E0,1E0,1E0,1E0,2.6E1,1.04E2,1.2E2,1E1,2E0,2E0,2.4E1,4E0,2E0,4E0,4E0,2E0,1.2E1,1.2E1,6E0,6E0,2E0,2E0,2E0,2E0,1E0,1E0,1E0,1E0,1E0,1E0,3E0,5E0,3E0,5E0,1.3E1,1.3E1,5.2E1,5.2E1,6E1,6E1,6E0,4E0,4E0,2E1,2E0,2E0,2E0,2E0,2E0,2E0,4E0,8E0,6E0,6E0,3E0,3E0,2E0,4E0,1E0,1E0,1E0,1E0,1E0,1E0,1E0,2E0,4E0,1E0,1E0,2E0,2.6E1,2.6E1,2.6E1,2.6E1,2.4E1,3.6E1,4.5E1,1.5E1,3E0,3E0,2E0,2E0,2E0,2E0,1.2E1,8E0,1E0,1E0,1E0,1E0,1E0,1E0,2E0,2E0,4E0,4E0,3E0,3E0,1E0,2E0,2E0,1E0,1E0,1E0,2E0,2E0,3E0,1E0,1E0,1E0,1.3E1,1.3E1,2.2E1,4E0,1.3E1,1.3E1,1.4E1,1E1,3.3E1,3E0,1.8E1,2.7E1,6E0,9E0,1E0,2E0,1E0,1E0,1E0,1E0,6E0,6E0,4E0,4E0,1E0,1E0,1E0,1E0,2E0,2E0,2E0,2E0,2E0,1E0,2E0,1E0],"tree_param":{"num_deleted":"0","num_feature":"3","num_nodes":"219","size_leaf_vector":"1"}},{"base_weights":[-1.112747E-3,4.3784652E-4,-2.2134911E-2,1.3018788E-3,-5.102673E-3,-6.875835E-3,-1.0010694E-1,-2.0356223E-3,1.5638571E-3,-5.032128E-4,-2.9577216E-2,-3.995159E-3,-1.0702713E-2,-1.30188E-1,-3.6656905E-2,-4.2472144E-5,-1.1352808E-3,1.9526085E-3,-5.707752E-4,1.1803089E-3,-5.256066E-3,-1.6102279E-2,-3.713671E-2,-6.601413E-4,-6.8862704E-3,-7.83207E-3,-4.724121E-3,-9.757707E-3,-4.8826896E-2,-2.0854251E-2,4.3586437E-3,4.4334377E-4,2.1012581E-3,6.842431E-4,-1.2755799E-2,-2.4250865E-3,1.690814E-3,-1.524789E-3,-8.236476E-3,2.9996517E-3,-3.683597E-2,-6.614685E-2,4.2523346E-3,-1.6382635E-3,1.0196368E-4,-3.7332415E-3,-2.5986135E-3,-9.967935E-3,-4.129791E-3,1.4526333E-3,-1.7928398E-4,2.4888709E-3,1.5016726E-3,1.1387706E-3,-3.5433532E-3,-1.6085923E-2,-5.173743E-3,-2.1362306E-4,-9.989203E-4,1.3422966E-5,1.9217154E-3,9.1102126E-4,-3.9567472E-3,-3.8677691E-3,-3.831649E-3,1.0243625E-3,-1.760055E-2,-3.0368203E-2,6.021202E-4,3.4946413E-3,-1.5810907E-3,-9.4440584E-5,-5.92345E-4,1.8416406E-4,-3.6864282E-4,-3.281495E-3,8.0260634E-4,3.646652E-3,-6.0779634E-3,-1.4331658E-2,7.4486732E-3,4.6090395E-4,5.465448E-5,2.3465627E-3,3.1463958E-3,2.0564334E-3,9.185784E-4,1.336101E-3,2.0099348E-4,-8.68241E-5,-1.7456294E-3,-6.0927183E-3,-1.145947E-3,3.700197E-4,-2.698204E-3,2.9637813E-4,-2.8966667E-4,2.109046E-3,6.007195E-4,-2.7485492E-4,-5.6783953E-3,-8.4447265E-3,1.9984443E-3,2.8519232E-3,-8.0180174E-4,-2.4596483E-3,4.1006417E-3,9.4869734E-5,-6.5441164E-3,3.0657025E-3,2.8620067E-4,2.6721135E-3,1.7339429E-3,4.2549134E-4,1.0224053E-3,1.1141043E-3,1.6792853E-3,-1.2248092E-4,1.1063775E-3,1.0085154E-3,1.8632963E-3,9.1663597E-4,-5.548477E-4,-2.5996866E-4,2.208978E-4,1.0494709E-3,2.260895E-3,7.9448824E-4,-1.6470948E-3,-2.0528198E-3,-5.0245825E-4,-7.041067E-4,-3.0960203E-3,-2.2370518E-4,1.1230052E-3,-8.4427E-5,1.3677925E-3,2.493175E-3,3.4713745E-3,2.7092958E-3,6.892324E-4,2.0856052E-3,3.8810572E-4,9.0293883E-4,-1.1234045E-3,3.9236546E-3,7.3582225E-4,6.425335E-4,1.2969191E-3,2.3466605E-3,1.1137469E-3,2.2290151E-4,1.3048252E-3,2.8795004E-4,-1.8845797E-3,5.941987E-4,-6.9463254E-5,2.634805E-3,1.4695922E-3,-7.3054434E-5,-6.6813827E-4,8.156976E-4,3.7253686E-4,1.3223239E-3,6.117276E-4,1.0042727E-3,5.5878254E-4,-5.6761043E-4,9.652445E-4,3.1639962E-4,1.1663318E-3,3.6898974E-4,-7.642388E-4,4.807711E-5,4.0339233E-4,-5.303383E-4,-3.1363965E-5,1.6157388E-3,3.460884E-4,-1.0607924E-5,4.4158954E-4,3.7180426E-4,7.187327E-5,1.9685373E-4,5.257155E-4,2.2067428E-4,8.531928E-4,5.154431E-4,1.5850784E-4,-6.2644784E-4,7.267535E-4,8.4561115E-4,-2.584398E-4,-3.9339066E-5,-8.087218E-4,1.2923318E-3,1.7563105E-4,-2.5097252E-4,1.0445524E-3],"categories":[],"categories_nodes":[],"categories_segments":[],"categories_sizes":[],"default_left":[0,0,0,0,0,0,0,0,0,0,0,0,0,0,0,0,0,0,0,0,0,0,0,0,0,0,0,0,0,0,0,0,0,0,0,0,0,0,0,0,0,0,0,0,0,0,0,0,0,0,0,0,0,0,0,0,0,0,0,0,0,0,0,0,0,0,0,0,0,0,0,0,0,0,0,0,0,0,0,0,0,0,0,0,0,0,0,0,0,0,0,0,0,0,0,0,0,0,0,0,0,0,0,0,0,0,0,0,0,0,0,0,0,0,0,0,0,0,0,0,0,0,0,0,0,0,0,0,0,0,0,0,0,0,0,0,0,0,0,0,0,0,0,0,0,0,0,0,0,0,0,0,0,0,0,0,0,0,0,0,0,0,0,0,0,0,0,0,0,0,0,0,0,0,0,0,0,0,0,0,0,0,0,0,0,0,0,0,0,0,0,0,0,0,0,0,0,0,0],"id":6,"left_children":[1,3,5,7,9,11,13,15,17,19,21,23,25,27,29,-1,-1,31,33,35,37,39,41,43,45,47,-1,-1,-1,-1,-1,49,51,53,55,57,59,61,63,-1,65,67,69,71,73,75,-1,77,79,81,-1,83,85,87,89,91,93,-1,-1,95,97,-1,99,101,-1,-1,-1,-1,-1,-1,-1,-1,-1,-1,-1,-1,103,105,-1,107,109,-1,-1,111,113,115,117,119,121,123,-1,-1,-1,-1,-1,-1,-1,125,127,-1,129,131,133,135,-1,-1,-1,-1,-1,-1,-1,137,139,-1,-1,-1,141,143,145,147,149,151,153,-1,-1,155,157,-1,159,-1,-1,-1,-1,-1,-1,-1,-1,161,163,165,167,169,171,173,175,177,179,181,183,185,187,189,191,-1,193,-1,-1,195,197,-1,-1,-1,-1,-1,-1,-1,-1,-1,-1,-1,-1,-1,-1,-1,-1,-1,-1,-1,-1,-1,-1,-1,-1,-1,-1,-1,-1,-1,-1,-1,-1,-1,-1,-1,-1,-1,-1,-1,-1],"loss_changes":[1.4710861E-2,2.022049E-3,3.6194902E-2,3.2232224E-4,6.4015887E-3,2.548888E-4,4.770927E-3,8.888884E-5,2.8243067E-4,3.9827882E-4,3.18788E-4,1.5936652E-4,3.595394E-5,4.2483285E-3,6.0554254E-3,0E0,0E0,6.345729E-5,8.192268E-4,7.220157E-5,1.3201067E-4,3.074179E-3,6.2847883E-3,6.8759296E-6,1.8054125E-5,3.0002557E-5,0E0,0E0,0E0,0E0,0E0,2.9235041E-5,5.6920806E-5,9.8191435E-5,4.3021457E-5,5.37732E-6,1.2755503E-5,8.966969E-5,8.930586E-5,0E0,2.8366367E-3,7.375789E-3,2.726944E-4,1.1583252E-6,4.8418096E-6,1.7218478E-4,0E0,7.7448343E-4,6.9736165E-4,1.209055E-6,0E0,7.3073898E-6,3.207616E-5,8.058796E-6,3.881992E-5,7.782731E-5,8.452424E-5,0E0,0E0,5.7239918E-6,5.9094746E-6,0E0,2.0971464E-5,1.5112336E-4,0E0,0E0,0E0,0E0,0E0,0E0,0E0,0E0,0E0,0E0,0E0,0E0,3.6110046E-5,4.6821983E-4,0E0,3.3568748E-4,4.4228276E-5,0E0,0E0,2.1892134E-5,6.469083E-6,2.689015E-5,1.0497537E-5,4.510788E-6,5.376802E-6,2.5635966E-6,0E0,0E0,0E0,0E0,0E0,0E0,0E0,1.6496488E-6,2.7374828E-5,0E0,2.5237678E-6,1.008439E-5,1.7156093E-5,1.7332584E-5,0E0,0E0,0E0,0E0,0E0,0E0,0E0,3.501831E-6,4.8061775E-5,0E0,0E0,0E0,2.279898E-5,1.0251666E-5,4.4090935E-5,1.8054488E-6,2.0963853E-6,1.0556532E-6,1.1879483E-5,0E0,0E0,6.4229616E-6,2.3413013E-6,0E0,1.9000281E-6,0E0,0E0,0E0,0E0,0E0,0E0,0E0,0E0,1.7252256E-5,8.447139E-6,7.275361E-6,1.6923976E-4,5.9069178E-5,3.2789347E-5,1.424733E-6,3.0978913E-6,1.40376505E-5,2.3327753E-5,2.8294467E-6,2.6439811E-6,3.5165285E-6,1.5688474E-6,2.030889E-5,1.2266721E-5,0E0,3.9134875E-6,0E0,0E0,4.2048923E-5,4.467806E-5,0E0,0E0,0E0,0E0,0E0,0E0,0E0,0E0,0E0,0E0,0E0,0E0,0E0,0E0,0E0,0E0,0E0,0E0,0E0,0E0,0E0,0E0,0E0,0E0,0E0,0E0,0E0,0E0,0E0,0E0,0E0,0E0,0E0,0E0,0E0,0E0,0E0,0E0,0E0,0E0],"parents":[2147483647,0,0,1,1,2,2,3,3,4,4,5,5,6,6,7,7,8,8,9,9,10,10,11,11,12,12,13,13,14,14,17,17,18,18,19,19,20,20,21,21,22,22,23,23,24,24,25,25,31,31,32,32,33,33,34,34,35,35,36,36,37,37,38,38,40,40,41,41,42,42,43,43,44,44,45,45,47,47,48,48,49,49,51,51,52,52,53,53,54,54,55,55,56,56,59,59,60,60,62,62,63,63,76,76,77,77,79,79,80,80,83,83,84,84,85,85,86,86,87,87,88,88,89,89,97,97,98,98,100,100,101,101,102,102,103,103,111,111,112,112,116,116,117,117,118,118,119,119,120,120,121,121,122,122,125,125,126,126,128,128,137,137,138,138,139,139,140,140,141,141,142,142,143,143,144,144,145,145,146,146,147,147,148,148,149,149,150,150,151,151,152,152,154,154,157,157,158,158],"right_children":[2,4,6,8,10,12,14,16,18,20,22,24,26,28,30,-1,-1,32,34,36,38,40,42,44,46,48,-1,-1,-1,-1,-1,50,52,54,56,58,60,62,64,-1,66,68,70,72,74,76,-1,78,80,82,-1,84,86,88,90,92,94,-1,-1,96,98,-1,100,102,-1,-1,-1,-1,-1,-1,-1,-1,-1,-1,-1,-1,104,106,-1,108,110,-1,-1,112,114,116,118,120,122,124,-1,-1,-1,-1,-1,-1,-1,126,128,-1,130,132,134,136,-1,-1,-1,-1,-1,-1,-1,138,140,-1,-1,-1,142,144,146,148,150,152,154,-1,-1,156,158,-1,160,-1,-1,-1,-1,-1,-1,-1,-1,162,164,166,168,170,172,174,176,178,180,182,184,186,188,190,192,-1,194,-1,-1,196,198,-1,-1,-1,-1,-1,-1,-1,-1,-1,-1,-1,-1,-1,-1,-1,-1,-1,-1,-1,-1,-1,-1,-1,-1,-1,-1,-1,-1,-1,-1,-1,-1,-1,-1,-1,-1,-1,-1,-1,-1],"split_conditions":[1E-1,3.7275937E-3,3.7275937E-3,1.9306977E-5,2.6826957E-2,2.6826958E-5,1E0,1E0,2.6826957E-2,3.7275937E-3,1E0,1E0,1.3894954E-3,1E-2,1E-2,-4.2472144E-5,-1.1352808E-3,3.727594E-5,1.3894954E-3,1.9306977E-5,1E0,5.1794745E-2,1E-2,1.9306977E-7,5.1794746E-7,1E0,-4.724121E-3,-9.757707E-3,-4.8826896E-2,-2.0854251E-2,4.3586437E-3,1E0,1.9306977E-3,5.179475E-4,1E0,1E0,3.727594E-5,7.1968567E-3,1.3894955E-2,2.9996517E-3,1E-2,5.1794745E-2,5.1794745E-2,2.6826958E-8,1E-5,2.6826958E-8,-2.5986135E-3,1.9306978E-4,1.9306978E-4,1.3894954E-3,-1.7928398E-4,5.179475E-4,1E0,7.196857E-5,5.1794745E-2,5.1794745E-2,5.1794745E-2,-2.1362306E-4,-9.989203E-4,1E0,1.9306977E-3,9.1102126E-4,1E-2,7.1968567E-3,-3.831649E-3,1.0243625E-3,-1.760055E-2,-3.0368203E-2,6.021202E-4,3.4946413E-3,-1.5810907E-3,-9.4440584E-5,-5.92345E-4,1.8416406E-4,-3.6864282E-4,-3.281495E-3,1.9306977E-7,7.196857E-5,-6.0779634E-3,7.196857E-5,5.179475E-4,4.6090395E-4,5.465448E-5,1E-5,7.196857E-5,7.1968564E-8,7.1968564E-8,3.7275938E-6,1E0,1E0,-1.7456294E-3,-6.0927183E-3,-1.145947E-3,3.700197E-4,-2.698204E-3,2.9637813E-4,-2.8966667E-4,7.196857E-5,1E-2,-2.7485492E-4,1.3894955E-2,1E-2,1E-2,7.1968564E-8,-8.0180174E-4,-2.4596483E-3,4.1006417E-3,9.4869734E-5,-6.5441164E-3,3.0657025E-3,2.8620067E-4,3.7275938E-6,2.682696E-4,4.2549134E-4,1.0224053E-3,1.1141043E-3,1.3894955E-2,7.1968567E-3,1.9306977E-7,1E0,5.1794745E-2,5.1794745E-2,5.1794745E-2,-2.5996866E-4,2.208978E-4,1E0,5.179475E-4,7.9448824E-4,1E0,-2.0528198E-3,-5.0245825E-4,-7.041067E-4,-3.0960203E-3,-2.2370518E-4,1.1230052E-3,-8.4427E-5,1.3677925E-3,1E-3,1E0,1E0,1E0,7.1968567E-3,5.179475E-4,3.7275937E-3,1.3894955E-2,7.1968567E-3,2.6826958E-5,7.1968564E-8,1.9306977E-7,1E-5,1E-5,1.9306978E-4,1.9306978E-4,2.8795004E-4,1.9306978E-4,5.941987E-4,-6.9463254E-5,1E0,1E0,-7.3054434E-5,-6.6813827E-4,8.156976E-4,3.7253686E-4,1.3223239E-3,6.117276E-4,1.0042727E-3,5.5878254E-4,-5.6761043E-4,9.652445E-4,3.1639962E-4,1.1663318E-3,3.6898974E-4,-7.642388E-4,4.807711E-5,4.0339233E-4,-5.303383E-4,-3.1363965E-5,1.6157388E-3,3.460884E-4,-1.0607924E-5,4.4158954E-4,3.7180426E-4,7.187327E-5,1.9685373E-4,5.257155E-4,2.2067428E-4,8.531928E-4,5.154431E-4,1.5850784E-4,-6.2644784E-4,7.267535E-4,8.4561115E-4,-2.584398E-4,-3.9339066E-5,-8.087218E-4,1.2923318E-3,1.7563105E-4,-2.5097252E-4,1.0445524E-3],"split_indices":[0,2,2,0,0,2,1,1,0,0,1,1,2,2,2,0,0,0,2,0,1,0,2,2,2,1,0,0,0,0,0,1,0,2,1,1,0,0,0,0,2,0,0,2,2,2,0,2,2,2,0,2,1,2,0,0,0,0,0,1,0,0,2,0,0,0,0,0,0,0,0,0,0,0,0,0,2,2,0,2,2,0,0,2,0,2,2,2,1,1,0,0,0,0,0,0,0,0,2,0,0,2,2,2,0,0,0,0,0,0,0,2,0,0,0,0,0,0,2,1,0,0,0,0,0,1,0,0,1,0,0,0,0,0,0,0,0,0,1,1,1,0,2,0,0,0,2,2,2,2,2,2,2,0,2,0,0,1,1,0,0,0,0,0,0,0,0,0,0,0,0,0,0,0,0,0,0,0,0,0,0,0,0,0,0,0,0,0,0,0,0,0,0,0,0,0,0,0,0],"split_type":[0,0,0,0,0,0,0,0,0,0,0,0,0,0,0,0,0,0,0,0,0,0,0,0,0,0,0,0,0,0,0,0,0,0,0,0,0,0,0,0,0,0,0,0,0,0,0,0,0,0,0,0,0,0,0,0,0,0,0,0,0,0,0,0,0,0,0,0,0,0,0,0,0,0,0,0,0,0,0,0,0,0,0,0,0,0,0,0,0,0,0,0,0,0,0,0,0,0,0,0,0,0,0,0,0,0,0,0,0,0,0,0,0,0,0,0,0,0,0,0,0,0,0,0,0,0,0,0,0,0,0,0,0,0,0,0,0,0,0,0,0,0,0,0,0,0,0,0,0,0,0,0,0,0,0,0,0,0,0,0,0,0,0,0,0,0,0,0,0,0,0,0,0,0,0,0,0,0,0,0,0,0,0,0,0,0,0,0,0,0,0,0,0,0,0,0,0,0,0],"sum_hessian":[4.5E2,4.2E2,3E1,3.64E2,5.6E1,2.6E1,4E0,2.6E1,3.38E2,4.8E1,8E0,1.6E1,1E1,2E0,2E0,1.3E1,1.3E1,2.86E2,5.2E1,3.6E1,1.2E1,4E0,4E0,8E0,8E0,8E0,2E0,1E0,1E0,1E0,1E0,2.6E1,2.6E2,4.8E1,4E0,4E0,3.2E1,6E0,6E0,2E0,2E0,2E0,2E0,3E0,5E0,4E0,4E0,4E0,4E0,1.3E1,1.3E1,1.56E2,1.04E2,4.4E1,4E0,2E0,2E0,2E0,2E0,4E0,2.8E1,2E0,4E0,4E0,2E0,1E0,1E0,1E0,1E0,1E0,1E0,1E0,2E0,4E0,1E0,1E0,3E0,2E0,2E0,2E0,2E0,1.2E1,1E0,1.32E2,2.4E1,5.2E1,5.2E1,3.6E1,8E0,2E0,2E0,1E0,1E0,1E0,1E0,2E0,2E0,2.4E1,4E0,2E0,2E0,2E0,2E0,2E0,1E0,1E0,1E0,1E0,1E0,1E0,1E0,8.4E1,4.8E1,4E0,2E1,8E0,4.4E1,8E0,4.4E1,2.4E1,1.2E1,4E0,4E0,1E0,1E0,4E0,2E1,2E0,2E0,1E0,1E0,1E0,1E0,1E0,1E0,1E0,1E0,7.2E1,1.2E1,2.4E1,2.4E1,3.3E1,1.1E1,4E0,4E0,4E0,4E1,1.2E1,1.2E1,6E0,6E0,2E0,2E0,2E0,2E0,2E0,2E0,1.2E1,8E0,1E0,1E0,6E1,1.2E1,6E0,6E0,1.2E1,1.2E1,1.2E1,1.2E1,2.2E1,1.1E1,9E0,2E0,2E0,2E0,2E0,2E0,2E0,2E0,2E1,2E1,4E0,8E0,6E0,6E0,2E0,4E0,2E0,4E0,1E0,1E0,1E0,1E0,1E0,1E0,6E0,6E0,4E0,4E0],"tree_param":{"num_deleted":"0","num_feature":"3","num_nodes":"199","size_leaf_vector":"1"}},{"base_weights":[-1.0897696E-3,1.9584317E-4,-1.8514067E-2,9.1642106E-4,-4.42182E-3,-5.4993164E-3,-8.5090905E-2,-1.4685392E-3,1.1036703E-3,-4.9547275E-4,-2.5307285E-2,-3.1654239E-3,-8.6063035E-3,-1.106598E-1,-3.1158378E-2,-3.0633382E-5,-8.190215E-4,1.406377E-3,-5.563385E-4,8.70368E-4,-4.344752E-3,-1.398691E-2,-3.1566203E-2,-5.5891275E-4,-5.420221E-3,-6.3196025E-3,-3.779292E-3,-8.294052E-3,-4.150286E-2,-1.7726116E-2,3.7048461E-3,3.2279006E-4,1.5130838E-3,5.046166E-4,-1.084243E-2,-1.9400716E-3,1.2698174E-3,-1.3415047E-3,-6.7273206E-3,2.5725008E-3,-3.1886518E-2,-5.6224823E-2,3.6144853E-3,-3.955454E-4,4.0620565E-5,-2.7892739E-3,-3.773354E-3,-7.864952E-3,-3.5103322E-3,3.160958E-4,-1.2933869E-4,1.783811E-3,1.0938718E-3,8.6472434E-4,-2.8372766E-3,-1.3673027E-2,-4.3976903E-3,-1.7089843E-4,-7.991374E-4,1.0752678E-5,1.4431106E-3,7.288218E-4,-3.3357502E-3,-3.2876015E-3,-3.065324E-3,6.1153475E-4,-1.4960469E-2,-2.5812972E-2,5.118013E-4,2.9704482E-3,-1.3439298E-3,4.665375E-4,-3.1334462E-4,2.424121E-3,-1.8729598E-3,3.0996602E-3,-4.862374E-3,-1.2181918E-2,6.331364E-3,1.2596338E-3,1.8782306E-3,1.7594044E-3,7.7803E-4,1.0140265E-3,1.5484625E-4,-7.379055E-5,-4.6550035E-3,-5.178809E-3,-9.7405317E-4,3.1451584E-4,-2.2934766E-3,2.3710729E-4,-2.3173094E-4,4.7633174E-4,4.3118E-4,-2.198875E-4,-4.8266253E-3,-7.1780086E-3,1.6986728E-3,1.8914045E-5,3.1207502E-4,-7.1766975E-5,1.1626214E-3,-2.0907016E-3,3.4855485E-3,8.063615E-5,-5.562499E-3,2.6058466E-3,2.4326742E-4,5.4303877E-4,1.8574938E-4,2.2263043E-3,1.6209377E-3,2.234522E-3,1.1807926E-3,1.18319986E-4,1.0987386E-3,2.2578049E-4,1.4387644E-3,2.33742E-4,-5.0041673E-4,-2.2096933E-4,1.8776358E-4,-4.1737856E-4,-1.6773731E-3,6.3559413E-4,-1.4000138E-3,-1.7448933E-3,-4.2708815E-4,-5.9849024E-4,-2.6316138E-3,-1.9015075E-4,9.5455354E-4,9.014117E-4,1.3654475E-3,8.759871E-4,6.976095E-4,1.6387334E-3,1.0010004E-3,-9.7990036E-5,2.328376E-3,-2.1270087E-3,9.39319E-4,1.9391775E-3,7.737537E-4,1.8364361E-3,8.3555497E-4,2.3036005E-4,-1.6018947E-3,-6.209314E-5,-5.6791306E-4,1.1918843E-4,6.708205E-4,-1.5419893E-4,4.6928262E-4,8.1700284E-4,-1.9239308E-4,2.1670104E-4,-2.6961567E-4,9.782661E-4,2.7905704E-4,4.3463858E-4,-1.5513182E-3,5.487759E-4,-2.542811E-4,2.8665463E-4,9.965802E-4,4.444013E-4,-1.9395123E-4,1.7091037E-4,1.0006548E-3,4.1611076E-4,-1.0862947E-4,-3.3438206E-5,-6.8741443E-4],"categories":[],"categories_nodes":[],"categories_segments":[],"categories_sizes":[],"default_left":[0,0,0,0,0,0,0,0,0,0,0,0,0,0,0,0,0,0,0,0,0,0,0,0,0,0,0,0,0,0,0,0,0,0,0,0,0,0,0,0,0,0,0,0,0,0,0,0,0,0,0,0,0,0,0,0,0,0,0,0,0,0,0,0,0,0,0,0,0,0,0,0,0,0,0,0,0,0,0,0,0,0,0,0,0,0,0,0,0,0,0,0,0,0,0,0,0,0,0,0,0,0,0,0,0,0,0,0,0,0,0,0,0,0,0,0,0,0,0,0,0,0,0,0,0,0,0,0,0,0,0,0,0,0,0,0,0,0,0,0,0,0,0,0,0,0,0,0,0,0,0,0,0,0,0,0,0,0,0,0,0,0,0,0,0,0,0,0,0,0,0,0,0,0,0],"id":7,"left_children":[1,3,5,7,9,11,13,15,17,19,21,23,25,27,29,-1,-1,31,33,35,37,39,41,43,45,47,-1,-1,-1,-1,-1,49,51,53,55,57,59,61,63,-1,65,67,69,-1,71,-1,73,75,77,-1,-1,79,81,83,85,87,89,-1,-1,91,93,-1,95,97,-1,-1,-1,-1,-1,-1,-1,99,-1,101,-1,103,-1,105,107,109,111,113,115,117,119,121,123,-1,-1,-1,-1,-1,-1,-1,125,-1,127,129,131,-1,-1,-1,-1,-1,-1,-1,-1,-1,-1,-1,-1,133,135,137,139,141,143,-1,145,-1,147,-1,-1,-1,-1,-1,149,-1,-1,-1,-1,-1,-1,-1,151,153,-1,155,-1,157,159,161,163,165,167,169,171,-1,173,-1,-1,-1,-1,-1,-1,-1,-1,-1,-1,-1,-1,-1,-1,-1,-1,-1,-1,-1,-1,-1,-1,-1,-1,-1,-1],"loss_changes":[1.0106432E-2,1.4048817E-3,2.6392967E-2,1.6462326E-4,4.6616653E-3,1.6854459E-4,3.4469925E-3,4.6263645E-5,1.711284E-4,2.6139917E-4,1.9616587E-4,9.6882184E-5,2.078485E-5,3.0694157E-3,4.375046E-3,0E0,0E0,3.269635E-5,5.8386463E-4,4.4000786E-5,8.399604E-5,2.2926736E-3,4.54076E-3,4.152055E-6,2.2386404E-5,1.1463126E-5,0E0,0E0,0E0,0E0,0E0,1.5331561E-5,2.7670118E-5,6.14221E-5,3.10826E-5,3.4415043E-6,7.18467E-6,6.074474E-5,5.0450704E-5,0E0,1.9317404E-3,5.3290064E-3,1.9702225E-4,0E0,3.2602713E-6,0E0,1.3758868E-4,5.0762563E-4,5.038437E-4,0E0,0E0,5.404465E-6,2.0702442E-5,4.612368E-6,2.477282E-5,5.6230405E-5,6.106884E-5,0E0,0E0,3.6633912E-6,3.5606317E-6,0E0,1.5864473E-5,1.0918627E-4,0E0,0E0,0E0,0E0,0E0,0E0,0E0,1.0918538E-6,0E0,1.2522891E-5,0E0,3.3828925E-4,0E0,2.4253372E-4,3.195514E-5,8.398769E-6,8.123257E-6,6.4334818E-6,1.5314949E-5,3.0255505E-6,4.071584E-6,1.8521672E-6,1.388049E-6,0E0,0E0,0E0,0E0,0E0,0E0,0E0,1.8416531E-5,0E0,1.823435E-6,7.2859402E-6,1.2395302E-5,0E0,0E0,0E0,0E0,0E0,0E0,0E0,0E0,0E0,0E0,0E0,0E0,3.1412084E-5,3.9419334E-5,5.695074E-6,2.5175823E-5,4.8083257E-5,1.1882927E-5,0E0,1.5839905E-6,0E0,8.214973E-6,0E0,0E0,0E0,0E0,0E0,1.3727908E-6,0E0,0E0,0E0,0E0,0E0,0E0,0E0,2.1869757E-5,3.90724E-5,0E0,3.3894947E-5,0E0,6.560911E-6,8.701165E-6,8.368634E-5,3.1765096E-5,1.4507979E-5,3.8140897E-5,1.1392305E-5,5.125623E-6,0E0,2.8275044E-6,0E0,0E0,0E0,0E0,0E0,0E0,0E0,0E0,0E0,0E0,0E0,0E0,0E0,0E0,0E0,0E0,0E0,0E0,0E0,0E0,0E0,0E0,0E0,0E0,0E0,0E0],"parents":[2147483647,0,0,1,1,2,2,3,3,4,4,5,5,6,6,7,7,8,8,9,9,10,10,11,11,12,12,13,13,14,14,17,17,18,18,19,19,20,20,21,21,22,22,23,23,24,24,25,25,31,31,32,32,33,33,34,34,35,35,36,36,37,37,38,38,40,40,41,41,42,42,44,44,46,46,47,47,48,48,51,51,52,52,53,53,54,54,55,55,56,56,59,59,60,60,62,62,63,63,71,71,73,73,75,75,77,77,78,78,79,79,80,80,81,81,82,82,83,83,84,84,85,85,86,86,94,94,96,96,97,97,98,98,111,111,112,112,113,113,114,114,115,115,116,116,118,118,120,120,126,126,134,134,135,135,137,137,139,139,140,140,141,141,142,142,143,143,144,144,145,145,146,146,148,148],"right_children":[2,4,6,8,10,12,14,16,18,20,22,24,26,28,30,-1,-1,32,34,36,38,40,42,44,46,48,-1,-1,-1,-1,-1,50,52,54,56,58,60,62,64,-1,66,68,70,-1,72,-1,74,76,78,-1,-1,80,82,84,86,88,90,-1,-1,92,94,-1,96,98,-1,-1,-1,-1,-1,-1,-1,100,-1,102,-1,104,-1,106,108,110,112,114,116,118,120,122,124,-1,-1,-1,-1,-1,-1,-1,126,-1,128,130,132,-1,-1,-1,-1,-1,-1,-1,-1,-1,-1,-1,-1,134,136,138,140,142,144,-1,146,-1,148,-1,-1,-1,-1,-1,150,-1,-1,-1,-1,-1,-1,-1,152,154,-1,156,-1,158,160,162,164,166,168,170,172,-1,174,-1,-1,-1,-1,-1,-1,-1,-1,-1,-1,-1,-1,-1,-1,-1,-1,-1,-1,-1,-1,-1,-1,-1,-1,-1,-1],"split_conditions":[1E-1,3.7275937E-3,3.7275937E-3,1.9306977E-5,2.6826957E-2,2.6826958E-5,1E0,1E0,2.6826957E-2,3.7275937E-3,1E0,1E0,1.3894954E-3,1E-2,1E-2,-3.0633382E-5,-8.190215E-4,3.727594E-5,1.3894954E-3,1.9306977E-5,1E0,1E-2,1E-2,1.9306977E-7,2.6826958E-8,1E0,-3.779292E-3,-8.294052E-3,-4.150286E-2,-1.7726116E-2,3.7048461E-3,1E0,1.9306977E-3,5.179475E-4,1E0,1E0,3.727594E-5,7.1968567E-3,1.3894955E-2,2.5725008E-3,5.1794745E-2,5.1794745E-2,5.1794745E-2,-3.955454E-4,1E-5,-2.7892739E-3,1.9306977E-7,1.9306978E-4,1.9306978E-4,3.160958E-4,-1.2933869E-4,7.196857E-5,5.1794746E-7,7.196857E-5,5.1794745E-2,5.1794745E-2,5.1794745E-2,-1.7089843E-4,-7.991374E-4,1E0,1.9306977E-3,7.288218E-4,1E-2,7.1968567E-3,-3.065324E-3,6.1153475E-4,-1.4960469E-2,-2.5812972E-2,5.118013E-4,2.9704482E-3,-1.3439298E-3,3.7275938E-6,-3.1334462E-4,7.1968564E-8,-1.8729598E-3,7.196857E-5,-4.862374E-3,7.196857E-5,5.179475E-4,1E0,2.682696E-4,1E0,1E-5,3.7275938E-6,1E0,1E0,1E0,-5.178809E-3,-9.7405317E-4,3.1451584E-4,-2.2934766E-3,2.3710729E-4,-2.3173094E-4,4.7633174E-4,1E-2,-2.198875E-4,1.3894955E-2,1E-2,1E-2,1.8914045E-5,3.1207502E-4,-7.1766975E-5,1.1626214E-3,-2.0907016E-3,3.4855485E-3,8.063615E-5,-5.562499E-3,2.6058466E-3,2.4326742E-4,5.4303877E-4,1.8574938E-4,1E0,1E0,1.9306977E-7,7.1968564E-8,3.7275937E-3,3.7275937E-3,2.2578049E-4,1E0,2.33742E-4,5.1794745E-2,-2.2096933E-4,1.8776358E-4,-4.1737856E-4,-1.6773731E-3,6.3559413E-4,1E0,-1.7448933E-3,-4.2708815E-4,-5.9849024E-4,-2.6316138E-3,-1.9015075E-4,9.5455354E-4,9.014117E-4,1.3894954E-4,5.179475E-4,6.976095E-4,7.1968564E-8,1.0010004E-3,7.1968567E-3,7.1968567E-3,1E0,1.3894955E-2,5.179475E-4,5.179475E-4,2.6826958E-5,2.6826958E-5,2.3036005E-4,1.9306978E-4,-6.209314E-5,-5.6791306E-4,1.1918843E-4,6.708205E-4,-1.5419893E-4,4.6928262E-4,8.1700284E-4,-1.9239308E-4,2.1670104E-4,-2.6961567E-4,9.782661E-4,2.7905704E-4,4.3463858E-4,-1.5513182E-3,5.487759E-4,-2.542811E-4,2.8665463E-4,9.965802E-4,4.444013E-4,-1.9395123E-4,1.7091037E-4,1.0006548E-3,4.1611076E-4,-1.0862947E-4,-3.3438206E-5,-6.8741443E-4],"split_indices":[0,2,2,0,0,2,1,1,0,0,1,1,2,2,2,0,0,0,2,0,1,2,2,2,2,1,0,0,0,0,0,1,0,2,1,1,0,0,0,0,0,0,0,0,2,0,2,2,2,0,0,0,2,2,0,0,0,0,0,1,0,0,2,0,0,0,0,0,0,0,0,2,0,2,0,2,0,2,2,1,0,1,2,2,1,1,1,0,0,0,0,0,0,0,2,0,0,2,2,0,0,0,0,0,0,0,0,0,0,0,0,1,1,2,2,0,0,0,1,0,0,0,0,0,0,0,1,0,0,0,0,0,0,0,0,0,0,2,0,0,0,1,0,2,2,2,2,0,2,0,0,0,0,0,0,0,0,0,0,0,0,0,0,0,0,0,0,0,0,0,0,0,0,0,0],"split_type":[0,0,0,0,0,0,0,0,0,0,0,0,0,0,0,0,0,0,0,0,0,0,0,0,0,0,0,0,0,0,0,0,0,0,0,0,0,0,0,0,0,0,0,0,0,0,0,0,0,0,0,0,0,0,0,0,0,0,0,0,0,0,0,0,0,0,0,0,0,0,0,0,0,0,0,0,0,0,0,0,0,0,0,0,0,0,0,0,0,0,0,0,0,0,0,0,0,0,0,0,0,0,0,0,0,0,0,0,0,0,0,0,0,0,0,0,0,0,0,0,0,0,0,0,0,0,0,0,0,0,0,0,0,0,0,0,0,0,0,0,0,0,0,0,0,0,0,0,0,0,0,0,0,0,0,0,0,0,0,0,0,0,0,0,0,0,0,0,0,0,0,0,0,0,0],"sum_hessian":[4.5E2,4.2E2,3E1,3.64E2,5.6E1,2.6E1,4E0,2.6E1,3.38E2,4.8E1,8E0,1.6E1,1E1,2E0,2E0,1.3E1,1.3E1,2.86E2,5.2E1,3.6E1,1.2E1,4E0,4E0,8E0,8E0,8E0,2E0,1E0,1E0,1E0,1E0,2.6E1,2.6E2,4.8E1,4E0,4E0,3.2E1,6E0,6E0,2E0,2E0,2E0,2E0,3E0,5E0,1E0,7E0,4E0,4E0,1.3E1,1.3E1,1.56E2,1.04E2,4.4E1,4E0,2E0,2E0,2E0,2E0,4E0,2.8E1,2E0,4E0,4E0,2E0,1E0,1E0,1E0,1E0,1E0,1E0,4E0,1E0,2E0,5E0,2E0,2E0,2E0,2E0,2.6E1,1.3E2,3.2E1,7.2E1,3.6E1,8E0,2E0,2E0,1E0,1E0,1E0,1E0,2E0,2E0,2.4E1,4E0,2E0,2E0,2E0,2E0,3E0,1E0,1E0,1E0,1E0,1E0,1E0,1E0,1E0,1E0,1.3E1,1.3E1,5.2E1,7.8E1,1.6E1,1.6E1,2.4E1,4.8E1,2.4E1,1.2E1,4E0,4E0,1E0,1E0,1E0,1E0,2E0,2E0,1E0,1E0,1E0,1E0,1E0,1E0,2.6E1,2.6E1,3.9E1,3.9E1,1.2E1,4E0,8E0,8E0,6E0,1.8E1,1.2E1,3.6E1,6E0,6E0,2E0,2E0,1E0,1E0,1.3E1,1.3E1,1.3E1,2.6E1,8E0,4E0,4E0,4E0,4E0,4E0,3E0,3E0,1.2E1,6E0,8E0,4E0,2.4E1,1.2E1,4E0,2E0,4E0,2E0,1E0,1E0],"tree_param":{"num_deleted":"0","num_feature":"3","num_nodes":"175","size_leaf_vector":"1"}},{"base_weights":[-1.0361767E-3,2.8709475E-5,-1.5464593E-2,6.346464E-4,-3.8519166E-3,-4.3617045E-3,-7.232727E-2,8.3417824E-4,-5.556952E-4,-5.035157E-4,-2.1654109E-2,-2.44811E-3,-6.9225593E-3,-9.406083E-2,-2.6484618E-2,-1.0594417E-3,1.0094171E-3,3.393572E-4,-9.21607E-3,5.96193E-4,-3.594724E-3,-1.2146115E-2,-2.683128E-2,-4.3322644E-4,-4.1909814E-3,-5.101535E-3,-3.023434E-3,-7.049945E-3,-3.527743E-2,-1.5067198E-2,3.1491192E-3,-2.209885E-5,-5.9086387E-4,2.3287756E-4,1.0858813E-3,6.3748757E-4,-2.4116873E-3,-1.1622071E-2,-3.7380457E-3,-1.5520692E-3,9.0362085E-4,-1.1535628E-3,-5.522353E-3,6.937722E-3,-2.7181247E-2,-4.7791105E-2,3.0723016E-3,-1.0218322E-3,3.1381845E-5,-2.370885E-3,-2.7391165E-3,-1.6946938E-3,-2.123654E-3,2.2804397E-4,-9.330767E-5,1.2705375E-3,7.9943455E-4,7.5589964E-4,7.985035E-5,-6.272396E-5,-3.956755E-3,-4.401988E-3,-8.279443E-4,2.673358E-4,-1.9494564E-3,-1.3672114E-4,-6.393135E-4,1.282124E-3,4.719636E-4,8.2683563E-4,-8.5367117E-4,-2.8859675E-3,-6.778151E-3,2.602172E-3,5.198032E-4,4.848361E-4,-1.2716399E-2,-2.1941025E-2,4.350275E-4,2.5248798E-3,-1.142344E-3,-2.0948053E-5,-3.9476753E-4,1.1783481E-4,-2.6634336E-4,2.0604928E-3,-4.6824017E-3,-1.1624247E-3,2.0678045E-4,1.1681359E-3,1.764493E-3,1.3173331E-3,5.543648E-4,5.3585053E-4,1.120925E-3,1.7763735E-4,-4.483938E-4,-1.8782617E-4,1.5960039E-4,-3.547758E-4,-1.425764E-3,2.294535E-3,-4.9196824E-4,-2.513E-4,1.2624589E-3,7.599682E-4,-5.8637065E-4,1.146108E-4,-4.1026473E-3,-3.1677883E-3,-2.641386E-3,-6.1002374E-5,9.882242E-4,-4.0058795E-4,-1.5254297E-3,1.3967325E-3,7.477512E-4,9.977313E-4,2.3955244E-3,4.3067004E-4,1.5838385E-3,4.9934388E-5,8.004137E-4,2.754789E-4,7.5500284E-4,1.5009472E-3,5.807706E-4,6.1428547E-4,-1.3616085E-3,1.8968583E-4,7.781009E-4,-3.381471E-3,1.340127E-3,2.3922026E-3,-7.7694654E-5,4.0456653E-5,-3.0432345E-4,-1.4831633E-3,-3.6302806E-4,-2.236873E-3,8.113683E-4,1.25202E-3,2.1019073E-3,4.282701E-4,3.802538E-5,1.4395629E-3,4.1336674E-4,3.3997297E-3,1.5714632E-3,1.7797351E-3,-1.004529E-3,6.465362E-4,2.399307E-3,-1.648426E-3,6.73018E-4,1.4561415E-3,5.483901E-4,6.448967E-4,-1.3329301E-4,2.9390198E-4,1.1082462E-3,2.2298694E-3,3.9678812E-4,1.1788408E-3,1.057744E-4,-3.577173E-5,3.122002E-4,-2.8422475E-5,-5.8430136E-4,-1.9285262E-3,4.068643E-4,5.7389145E-4,9.61721E-5,-2.679229E-5,1.0965854E-3,4.256979E-4,-6.1421393E-4,4.265205E-4,1.07806925E-4,3.068294E-4,8.6423336E-4,-4.8282515E-4,5.0476287E-4,5.4616213E-4,9.74238E-5,-1.49631505E-5,3.142953E-4,1.3014853E-3,3.9837958E-4,7.163179E-4,1.3227225E-4,8.947551E-4,-4.8875813E-6,-8.4227324E-4,3.4000873E-4,3.8685117E-4,-2.6638167E-5,9.974492E-4,4.855613E-4,3.3684523E-4,-1.202269E-3,3.9680602E-4,-1.888965E-4,8.2351486E-5,7.289273E-4,3.1641056E-4,-1.4024103E-4,5.489588E-6,2.675629E-4,-1.9497873E-4,1.2499989E-4,-1.9586833E-4,3.5016687E-4,5.882621E-4,1.1250615E-4,2.3095013E-4,9.914965E-4,3.0607582E-4,-2.2104086E-4,-7.974208E-5,6.102205E-4,-1.4710428E-4,1.9999147E-4],"categories":[],"categories_nodes":[],"categories_segments":[],"categories_sizes":[],"default_left":[0,0,0,0,0,0,0,0,0,0,0,0,0,0,0,0,0,0,0,0,0,0,0,0,0,0,0,0,0,0,0,0,0,0,0,0,0,0,0,0,0,0,0,0,0,0,0,0,0,0,0,0,0,0,0,0,0,0,0,0,0,0,0,0,0,0,0,0,0,0,0,0,0,0,0,0,0,0,0,0,0,0,0,0,0,0,0,0,0,0,0,0,0,0,0,0,0,0,0,0,0,0,0,0,0,0,0,0,0,0,0,0,0,0,0,0,0,0,0,0,0,0,0,0,0,0,0,0,0,0,0,0,0,0,0,0,0,0,0,0,0,0,0,0,0,0,0,0,0,0,0,0,0,0,0,0,0,0,0,0,0,0,0,0,0,0,0,0,0,0,0,0,0,0,0,0,0,0,0,0,0,0,0,0,0,0,0,0,0,0,0,0,0,0,0,0,0,0,0,0,0,0,0,0,0,0,0,0,0,0,0,0,0,0,0,0,0,0,0,0,0,0,0],"id":8,"left_children":[1,3,5,7,9,11,13,15,17,19,21,23,25,27,29,31,33,35,37,39,41,43,45,47,49,51,-1,-1,-1,-1,-1,-1,-1,53,55,57,59,61,63,65,67,69,71,73,75,77,79,81,83,-1,85,-1,87,-1,-1,89,91,93,95,97,99,-1,-1,-1,-1,-1,-1,101,103,105,-1,107,109,-1,-1,-1,-1,-1,-1,-1,-1,-1,-1,-1,-1,111,113,-1,-1,115,117,119,121,123,125,-1,127,-1,-1,-1,-1,129,131,-1,133,-1,135,-1,137,139,-1,-1,-1,-1,-1,141,143,145,147,149,151,153,155,157,159,161,163,165,167,-1,-1,169,171,173,175,-1,-1,-1,-1,-1,-1,177,179,-1,181,183,185,187,189,191,193,195,197,199,201,203,205,207,209,211,213,215,217,219,221,-1,-1,-1,-1,-1,-1,-1,-1,-1,-1,-1,-1,-1,-1,-1,-1,-1,-1,-1,-1,-1,-1,-1,-1,-1,-1,-1,-1,-1,-1,-1,-1,-1,-1,-1,-1,-1,-1,-1,-1,-1,-1,-1,-1,-1,-1,-1,-1,-1,-1,-1,-1,-1,-1,-1,-1,-1,-1],"loss_changes":[6.9298875E-3,9.923902E-4,1.9256067E-2,8.715506E-5,3.3868027E-3,1.15364615E-4,2.4904553E-3,1.0493402E-4,4.139565E-4,1.6871517E-4,1.1712499E-4,5.788297E-5,1.1795899E-5,2.2176504E-3,3.16097E-3,2.4078285E-5,1.6788486E-5,4.1725743E-5,2.2456836E-5,2.5838599E-5,5.480311E-5,1.6232161E-3,3.2806979E-3,2.493307E-6,2.6856389E-5,2.6755297E-6,0E0,0E0,0E0,0E0,0E0,0E0,0E0,7.979573E-6,1.2789678E-5,2.911036E-6,1.7898356E-5,4.062653E-5,4.4122124E-5,2.2025524E-6,4.7865433E-6,2.5808764E-5,3.6138517E-6,1.2081669E-5,1.3822468E-3,3.8502044E-3,1.4234881E-4,1.0279005E-6,2.3418997E-6,0E0,8.4264146E-5,0E0,1.7447823E-5,0E0,0E0,5.880196E-6,1.2596443E-5,2.37132E-6,2.700957E-6,1.3382181E-6,1.0026852E-6,0E0,0E0,0E0,0E0,0E0,0E0,3.1662712E-5,1.8656883E-5,1.1131343E-5,0E0,1.7471815E-5,1.3739627E-6,0E0,0E0,0E0,0E0,0E0,0E0,0E0,0E0,0E0,0E0,0E0,0E0,9.047736E-6,1.2908713E-6,0E0,0E0,1.1736687E-5,9.706178E-6,7.1158065E-6,9.020396E-6,1.2185387E-6,1.7968123E-6,0E0,5.6886875E-6,0E0,0E0,0E0,0E0,3.8296603E-6,4.1588508E-5,0E0,1.6840193E-5,0E0,1.0629418E-6,0E0,1.3173558E-6,9.571577E-5,0E0,0E0,0E0,0E0,0E0,6.042421E-6,2.3587374E-5,2.7614124E-6,5.415299E-6,1.9213387E-5,1.7557271E-5,2.7564934E-5,7.2991534E-6,2.0490593E-6,1.7917341E-6,4.7491376E-6,1.8638764E-6,1.0623729E-6,2.0428652E-6,0E0,0E0,5.202478E-5,2.3069797E-6,1.9132549E-5,2.0593237E-5,0E0,0E0,0E0,0E0,0E0,0E0,1.0548458E-5,7.980299E-6,0E0,7.043911E-5,2.3818293E-6,2.1090518E-6,3.961526E-6,7.252711E-6,1.0849737E-5,2.2455612E-5,6.260816E-6,4.012698E-6,5.0263967E-5,1.6912645E-5,1.4289006E-5,1.952369E-5,1.066978E-6,2.259705E-6,6.5500726E-6,3.6408119E-6,3.7345544E-6,3.5787402E-6,4.247176E-6,1.9986005E-6,0E0,0E0,0E0,0E0,0E0,0E0,0E0,0E0,0E0,0E0,0E0,0E0,0E0,0E0,0E0,0E0,0E0,0E0,0E0,0E0,0E0,0E0,0E0,0E0,0E0,0E0,0E0,0E0,0E0,0E0,0E0,0E0,0E0,0E0,0E0,0E0,0E0,0E0,0E0,0E0,0E0,0E0,0E0,0E0,0E0,0E0,0E0,0E0,0E0,0E0,0E0,0E0,0E0,0E0,0E0,0E0,0E0,0E0],"parents":[2147483647,0,0,1,1,2,2,3,3,4,4,5,5,6,6,7,7,8,8,9,9,10,10,11,11,12,12,13,13,14,14,15,15,16,16,17,17,18,18,19,19,20,20,21,21,22,22,23,23,24,24,25,25,33,33,34,34,35,35,36,36,37,37,38,38,39,39,40,40,41,41,42,42,43,43,44,44,45,45,46,46,47,47,48,48,50,50,52,52,55,55,56,56,57,57,58,58,59,59,60,60,67,67,68,68,69,69,71,71,72,72,85,85,86,86,89,89,90,90,91,91,92,92,93,93,94,94,96,96,101,101,102,102,104,104,106,106,108,108,109,109,115,115,116,116,117,117,118,118,119,119,120,120,121,121,122,122,123,123,124,124,125,125,126,126,127,127,128,128,131,131,132,132,133,133,134,134,141,141,142,142,144,144,145,145,146,146,147,147,148,148,149,149,150,150,151,151,152,152,153,153,154,154,155,155,156,156,157,157,158,158,159,159,160,160,161,161,162,162,163,163,164,164],"right_children":[2,4,6,8,10,12,14,16,18,20,22,24,26,28,30,32,34,36,38,40,42,44,46,48,50,52,-1,-1,-1,-1,-1,-1,-1,54,56,58,60,62,64,66,68,70,72,74,76,78,80,82,84,-1,86,-1,88,-1,-1,90,92,94,96,98,100,-1,-1,-1,-1,-1,-1,102,104,106,-1,108,110,-1,-1,-1,-1,-1,-1,-1,-1,-1,-1,-1,-1,112,114,-1,-1,116,118,120,122,124,126,-1,128,-1,-1,-1,-1,130,132,-1,134,-1,136,-1,138,140,-1,-1,-1,-1,-1,142,144,146,148,150,152,154,156,158,160,162,164,166,168,-1,-1,170,172,174,176,-1,-1,-1,-1,-1,-1,178,180,-1,182,184,186,188,190,192,194,196,198,200,202,204,206,208,210,212,214,216,218,220,222,-1,-1,-1,-1,-1,-1,-1,-1,-1,-1,-1,-1,-1,-1,-1,-1,-1,-1,-1,-1,-1,-1,-1,-1,-1,-1,-1,-1,-1,-1,-1,-1,-1,-1,-1,-1,-1,-1,-1,-1,-1,-1,-1,-1,-1,-1,-1,-1,-1,-1,-1,-1,-1,-1,-1,-1,-1,-1],"split_conditions":[1E-1,3.7275937E-3,3.7275937E-3,2.6826957E-2,2.6826957E-2,2.6826958E-5,1E0,1.9306977E-5,1.3894954E-3,3.7275937E-3,1E0,1E0,1.3894954E-3,1E-2,1E-2,1E0,3.727594E-5,5.179475E-4,1E0,1.9306977E-5,1E-2,5.1794745E-2,1E-2,1.9306977E-7,2.6826958E-8,5.179475E-4,-3.023434E-3,-7.049945E-3,-3.527743E-2,-1.5067198E-2,3.1491192E-3,-2.209885E-5,-5.9086387E-4,1E0,1.9306977E-3,7.196857E-5,5.1794745E-2,5.1794745E-2,5.1794745E-2,1E0,1E0,1E0,1E0,1E-2,1E-2,5.1794745E-2,5.1794745E-2,2.6826958E-8,1E-5,-2.370885E-3,1.9306977E-7,-1.6946938E-3,1E0,2.2804397E-4,-9.330767E-5,5.179475E-4,5.1794746E-7,3.7275938E-6,1E0,1E0,1E0,-4.401988E-3,-8.279443E-4,2.673358E-4,-1.9494564E-3,-1.3672114E-4,-6.393135E-4,5.179475E-4,1.3894954E-4,7.1968567E-3,-8.5367117E-4,7.1968567E-3,1.3894955E-2,2.602172E-3,5.198032E-4,4.848361E-4,-1.2716399E-2,-2.1941025E-2,4.350275E-4,2.5248798E-3,-1.142344E-3,-2.0948053E-5,-3.9476753E-4,1.1783481E-4,-2.6634336E-4,7.1968564E-8,5.1794746E-7,-1.1624247E-3,2.0678045E-4,1E-5,2.682696E-4,3.7275937E-3,1E-5,1E0,5.1794745E-2,1.7763735E-4,5.1794745E-2,-1.8782617E-4,1.5960039E-4,-3.547758E-4,-1.425764E-3,3.727594E-5,1E-3,-2.513E-4,1E-2,7.599682E-4,1.3894955E-2,1.146108E-4,1.3894955E-2,7.1968567E-3,-2.641386E-3,-6.1002374E-5,9.882242E-4,-4.0058795E-4,-1.5254297E-3,3.7275938E-6,2.682696E-4,1E0,5.179475E-4,7.1968564E-8,7.1968564E-8,3.7275937E-3,3.7275937E-3,1.9306977E-7,1.9306977E-7,1E0,1E-5,1.9306978E-4,1.9306978E-4,1.8968583E-4,7.781009E-4,1E-2,1E-2,5.179475E-4,1E-3,4.0456653E-5,-3.0432345E-4,-1.4831633E-3,-3.6302806E-4,-2.236873E-3,8.113683E-4,1E-3,2.682696E-4,4.282701E-4,1E0,1.3894954E-4,1.3894954E-4,1E0,1.3894954E-3,1E0,1.9306977E-7,1E0,7.1968567E-3,1E0,1.3894955E-2,1E0,5.179475E-4,2.6826958E-8,5.1794745E-2,5.1794745E-2,5.1794746E-7,2.6826958E-5,2.6826958E-5,1E0,2.6826958E-5,-3.577173E-5,3.122002E-4,-2.8422475E-5,-5.8430136E-4,-1.9285262E-3,4.068643E-4,5.7389145E-4,9.61721E-5,-2.679229E-5,1.0965854E-3,4.256979E-4,-6.1421393E-4,4.265205E-4,1.07806925E-4,3.068294E-4,8.6423336E-4,-4.8282515E-4,5.0476287E-4,5.4616213E-4,9.74238E-5,-1.49631505E-5,3.142953E-4,1.3014853E-3,3.9837958E-4,7.163179E-4,1.3227225E-4,8.947551E-4,-4.8875813E-6,-8.4227324E-4,3.4000873E-4,3.8685117E-4,-2.6638167E-5,9.974492E-4,4.855613E-4,3.3684523E-4,-1.202269E-3,3.9680602E-4,-1.888965E-4,8.2351486E-5,7.289273E-4,3.1641056E-4,-1.4024103E-4,5.489588E-6,2.675629E-4,-1.9497873E-4,1.2499989E-4,-1.9586833E-4,3.5016687E-4,5.882621E-4,1.1250615E-4,2.3095013E-4,9.914965E-4,3.0607582E-4,-2.2104086E-4,-7.974208E-5,6.102205E-4,-1.4710428E-4,1.9999147E-4],"split_indices":[0,2,2,0,0,2,1,0,2,0,1,1,2,2,2,1,0,2,1,0,2,0,2,2,2,2,0,0,0,0,0,0,0,1,0,2,0,0,0,1,1,1,1,2,2,0,0,2,2,0,2,0,1,0,0,2,2,2,1,1,1,0,0,0,0,0,0,0,0,0,0,0,0,0,0,0,0,0,0,0,0,0,0,0,0,2,2,0,0,2,0,0,2,1,0,0,0,0,0,0,0,0,0,0,2,0,0,0,0,0,0,0,0,0,0,2,0,1,0,2,2,0,0,2,2,1,2,2,2,0,0,2,2,0,0,0,0,0,0,0,0,0,0,0,1,0,0,1,2,1,2,1,0,1,0,1,2,2,0,0,2,2,2,1,2,0,0,0,0,0,0,0,0,0,0,0,0,0,0,0,0,0,0,0,0,0,0,0,0,0,0,0,0,0,0,0,0,0,0,0,0,0,0,0,0,0,0,0,0,0,0,0,0,0,0,0,0,0,0,0,0,0,0],"split_type":[0,0,0,0,0,0,0,0,0,0,0,0,0,0,0,0,0,0,0,0,0,0,0,0,0,0,0,0,0,0,0,0,0,0,0,0,0,0,0,0,0,0,0,0,0,0,0,0,0,0,0,0,0,0,0,0,0,0,0,0,0,0,0,0,0,0,0,0,0,0,0,0,0,0,0,0,0,0,0,0,0,0,0,0,0,0,0,0,0,0,0,0,0,0,0,0,0,0,0,0,0,0,0,0,0,0,0,0,0,0,0,0,0,0,0,0,0,0,0,0,0,0,0,0,0,0,0,0,0,0,0,0,0,0,0,0,0,0,0,0,0,0,0,0,0,0,0,0,0,0,0,0,0,0,0,0,0,0,0,0,0,0,0,0,0,0,0,0,0,0,0,0,0,0,0,0,0,0,0,0,0,0,0,0,0,0,0,0,0,0,0,0,0,0,0,0,0,0,0,0,0,0,0,0,0,0,0,0,0,0,0,0,0,0,0,0,0,0,0,0,0,0,0],"sum_hessian":[4.5E2,4.2E2,3E1,3.64E2,5.6E1,2.6E1,4E0,3.12E2,5.2E1,4.8E1,8E0,1.6E1,1E1,2E0,2E0,2.6E1,2.86E2,4.8E1,4E0,3.6E1,1.2E1,4E0,4E0,8E0,8E0,8E0,2E0,1E0,1E0,1E0,1E0,1.3E1,1.3E1,2.6E1,2.6E2,4.4E1,4E0,2E0,2E0,4E0,3.2E1,6E0,6E0,2E0,2E0,2E0,2E0,3E0,5E0,1E0,7E0,6E0,2E0,1.3E1,1.3E1,1.56E2,1.04E2,3.6E1,8E0,2E0,2E0,1E0,1E0,1E0,1E0,2E0,2E0,1.6E1,1.6E1,3E0,3E0,3E0,3E0,1E0,1E0,1E0,1E0,1E0,1E0,1E0,1E0,1E0,2E0,4E0,1E0,2E0,5E0,1E0,1E0,1.32E2,2.4E1,3.2E1,7.2E1,2.4E1,1.2E1,4E0,4E0,1E0,1E0,1E0,1E0,1E1,6E0,6E0,1E1,1E0,2E0,1E0,2E0,2E0,1E0,1E0,1E0,1E0,4E0,8.4E1,4.8E1,1.2E1,1.2E1,8E0,2.4E1,2.4E1,4.8E1,1.2E1,1.2E1,6E0,6E0,2E0,2E0,2E0,8E0,2E0,4E0,5E0,5E0,1E0,1E0,1E0,1E0,1E0,1E0,7.2E1,1.2E1,2.4E1,2.4E1,6E0,6E0,4E0,8E0,4E0,4E0,1.2E1,1.2E1,6E0,1.8E1,1.2E1,3.6E1,6E0,6E0,6E0,6E0,3E0,3E0,2E0,4E0,1E0,1E0,1E0,1E0,1E0,1E0,2E0,2E0,2E0,3E0,3E0,2E0,6E1,1.2E1,6E0,6E0,1.2E1,1.2E1,4E0,2E0,4E0,2E0,2E0,2E0,4E0,4E0,2E0,2E0,2E0,2E0,6E0,6E0,4E0,8E0,3E0,3E0,1.2E1,6E0,6E0,6E0,2.4E1,1.2E1,2E0,4E0,3E0,3E0,3E0,3E0,2E0,4E0,2E0,1E0,2E0,1E0,1E0,1E0,2E0,2E0],"tree_param":{"num_deleted":"0","num_feature":"3","num_nodes":"223","size_leaf_vector":"1"}},{"base_weights":[-9.414509E-4,-5.9760947E-5,-1.2885E-2,4.4918078E-4,-3.3177251E-3,-3.4090413E-3,-6.1478175E-2,6.086196E-4,-5.0088594E-4,-4.7870193E-4,-1.8405994E-2,-1.9450923E-3,-5.3615947E-3,-7.995171E-2,-2.2511909E-2,-7.6430594E-4,7.356592E-4,2.5757845E-4,-7.83366E-3,3.006061E-5,-4.9618245E-3,-1.0324192E-2,-2.2806596E-2,-3.6595264E-4,-3.3081109E-3,-3.8655666E-3,-2.4187446E-3,-5.9924577E-3,-2.9985815E-2,-1.2807115E-2,2.6767552E-3,-1.5938707E-5,-4.262669E-4,1.6799018E-4,7.91565E-4,5.082461E-4,-2.0499467E-3,-9.878755E-3,-3.1773448E-3,4.1653338E-4,-1.5621119E-3,-3.781617E-4,-2.1027506E-3,5.897065E-3,-2.3104051E-2,-4.0622454E-2,2.6114583E-3,-2.4576636E-4,-2.7815502E-6,-2.015251E-3,-2.0422488E-3,-4.949689E-3,-2.0083308E-3,1.6451649E-4,-6.732217E-5,9.2533627E-4,5.840063E-4,6.088276E-4,3.8272803E-5,-1.5997888E-5,-1.0089756E-3,-3.7416907E-3,-7.037491E-4,2.2723676E-4,-1.657042E-3,-1.2416482E-3,6.551508E-4,3.5481452E-4,-3.166616E-3,2.211848E-3,4.4183136E-4,4.1211248E-4,-1.0808936E-2,-1.8649874E-2,3.6976935E-4,2.1461518E-3,-9.7099546E-4,8.95536E-5,-2.2638739E-4,1.751403E-3,-1.0796101E-3,3.7644904E-3,-1.2013972E-2,-9.224852E-3,5.877634E-3,8.338936E-4,1.3747978E-3,9.89746E-4,3.9258966E-4,1.2522483E-4,9.300938E-4,4.50027E-4,-3.8113593E-4,-1.0937452E-4,-5.114496E-4,1.5612443E-4,8.085942E-4,1.5119115E-3,-2.7616622E-4,-4.0087304E-3,-1.268963E-3,-5.1856045E-5,8.399874E-4,-1.5228958E-3,3.2169165E-3,-4.418224E-3,-9.880633E-4,3.2274128E-4,-4.4739246E-3,2.4691701E-3,1.7576516E-4,9.977671E-4,5.326052E-4,7.709402E-4,1.8729017E-3,3.4453472E-4,1.1824322E-3,1.3128141E-4,7.0534874E-4,1.2490919E-3,4.782251E-4,-8.479754E-5,8.348425E-4,1.56641E-4,-1.1573633E-3,2.2573472E-4,-1.4142753E-4,1.1357298E-3,4.1925907E-4,6.459743E-4,3.438592E-5,9.741783E-5,-1.9013465E-3,-1.2606919E-3,6.8965857E-4,1.2637391E-3,7.0859113E-4,-5.7593675E-4,9.076982E-4,1.0996291E-3,3.3211708E-4,2.7197837E-3,1.1943115E-3,1.4237761E-3,-8.036137E-4,6.4129033E-4,6.07182E-4,-9.165623E-4,4.9886206E-4,1.6890831E-3,3.229904E-4,1.15792755E-4,2.2712548E-3,1.1868278E-3,-1.2774469E-5,-5.941898E-4,5.560309E-4,6.5706077E-4,-2.8138162E-4,-2.4157764E-5,-4.966557E-4,6.374436E-4,-1.5599388E-5,-4.660402E-4,1.2446642E-3,3.086261E-4,6.975813E-4,-7.630587E-6,3.1914774E-4,-6.737607E-4,3.5288167E-4,4.2029392E-4,1.8446519E-4,4.1508436E-4,7.793308E-5,-1.1372566E-5,2.5143623E-4,1.0411919E-3,3.187001E-4,5.44399E-4,1.005292E-4,7.157981E-4,-3.910065E-6,-6.7381863E-4,2.7201176E-4,4.012744E-4,-5.7204565E-5,3.0927363E-4,-8.133829E-4,2.757328E-4,-1.0463379E-4,-7.6643235E-5,9.887482E-4,3.4637496E-4,-1.6003435E-4,8.42768E-4,1.7929674E-4,1.538694E-5,5.186856E-4,-1.9987822E-4,1.1337519E-4,-8.622766E-4,3.2162908E-4,8.49849E-4,-1.9640029E-4],"categories":[],"categories_nodes":[],"categories_segments":[],"categories_sizes":[],"default_left":[0,0,0,0,0,0,0,0,0,0,0,0,0,0,0,0,0,0,0,0,0,0,0,0,0,0,0,0,0,0,0,0,0,0,0,0,0,0,0,0,0,0,0,0,0,0,0,0,0,0,0,0,0,0,0,0,0,0,0,0,0,0,0,0,0,0,0,0,0,0,0,0,0,0,0,0,0,0,0,0,0,0,0,0,0,0,0,0,0,0,0,0,0,0,0,0,0,0,0,0,0,0,0,0,0,0,0,0,0,0,0,0,0,0,0,0,0,0,0,0,0,0,0,0,0,0,0,0,0,0,0,0,0,0,0,0,0,0,0,0,0,0,0,0,0,0,0,0,0,0,0,0,0,0,0,0,0,0,0,0,0,0,0,0,0,0,0,0,0,0,0,0,0,0,0,0,0,0,0,0,0,0,0,0,0,0,0,0,0,0,0,0,0,0,0,0,0,0,0,0,0,0,0,0,0],"id":9,"left_children":[1,3,5,7,9,11,13,15,17,19,21,23,25,27,29,31,33,35,37,39,41,43,45,47,49,51,-1,-1,-1,-1,-1,-1,-1,53,55,57,59,61,63,65,67,-1,-1,69,71,73,75,-1,77,-1,79,81,83,-1,-1,85,87,89,91,-1,-1,-1,-1,-1,-1,93,95,97,99,-1,-1,-1,-1,-1,-1,-1,-1,-1,-1,101,-1,103,105,107,109,111,113,115,117,-1,119,121,123,-1,-1,125,127,129,-1,131,133,-1,-1,-1,-1,-1,-1,-1,-1,-1,-1,135,137,139,141,143,145,147,149,151,153,155,157,-1,159,-1,-1,161,163,-1,-1,-1,-1,-1,-1,165,167,169,171,173,175,177,179,181,183,-1,185,187,189,191,193,-1,195,197,-1,-1,-1,-1,-1,-1,-1,-1,199,201,203,-1,-1,-1,-1,-1,-1,-1,-1,-1,-1,-1,-1,-1,-1,-1,-1,-1,-1,-1,-1,-1,-1,-1,-1,-1,-1,-1,-1,-1,-1,-1,-1,-1,-1,-1,-1,-1,-1,-1,-1],"loss_changes":[4.748489E-3,6.995562E-4,1.4064893E-2,5.559416E-5,2.432838E-3,6.674905E-5,1.799358E-3,5.5154436E-5,2.9678512E-4,1.1191054E-4,8.462346E-5,3.538013E-5,1.3280602E-5,1.6022511E-3,2.2838018E-3,1.2532082E-5,8.9752575E-6,2.9384559E-5,1.6224803E-5,2.834058E-5,2.90537E-5,1.1727731E-3,2.3703058E-3,1.4792475E-6,2.5123569E-5,8.180621E-6,0E0,0E0,0E0,0E0,0E0,0E0,0E0,4.153277E-6,6.706352E-6,2.103875E-6,1.29315085E-5,2.9353105E-5,3.187843E-5,1.5453294E-5,2.8805007E-5,0E0,0E0,8.729119E-6,9.986736E-4,2.7817711E-3,1.028475E-4,0E0,1.5844172E-6,0E0,5.353984E-5,3.5302364E-4,3.3876643E-4,0E0,0E0,5.3062686E-6,7.766295E-6,1.8870433E-6,1.7257613E-6,0E0,0E0,0E0,0E0,0E0,0E0,1.409664E-6,2.400645E-6,8.770422E-6,2.9032708E-6,0E0,0E0,0E0,0E0,0E0,0E0,0E0,0E0,0E0,0E0,6.5370505E-6,0E0,2.3899165E-4,2.2481749E-5,1.9182108E-4,3.253125E-5,6.0352177E-6,6.075701E-6,3.695277E-6,5.873436E-6,0E0,1.2765413E-6,1.0998366E-6,4.110026E-6,0E0,0E0,3.7227321E-6,2.7079695E-6,2.4415963E-6,0E0,3.2337106E-5,4.1057483E-5,0E0,0E0,0E0,0E0,0E0,0E0,0E0,0E0,0E0,0E0,5.6420977E-6,2.0897287E-5,1.5098649E-6,4.2226457E-6,1.229633E-5,1.2439072E-5,1.6249087E-5,1.18670305E-5,5.299068E-6,2.6338523E-6,1.469469E-5,9.262545E-6,0E0,1.4759862E-6,0E0,0E0,1.48370145E-5,1.00795605E-5,0E0,0E0,0E0,0E0,0E0,0E0,8.333991E-6,1.1239381E-5,4.0680665E-5,4.482834E-6,1.3101098E-6,1.3424121E-6,2.5355548E-6,4.189047E-6,6.9437156E-6,1.4371756E-5,0E0,1.0161957E-5,4.124184E-5,1.1363354E-5,2.8961706E-5,1.8421108E-5,0E0,1.0220956E-6,1.7581301E-6,0E0,0E0,0E0,0E0,0E0,0E0,0E0,0E0,2.044114E-6,2.9010633E-5,2.2969736E-5,0E0,0E0,0E0,0E0,0E0,0E0,0E0,0E0,0E0,0E0,0E0,0E0,0E0,0E0,0E0,0E0,0E0,0E0,0E0,0E0,0E0,0E0,0E0,0E0,0E0,0E0,0E0,0E0,0E0,0E0,0E0,0E0,0E0,0E0,0E0,0E0,0E0,0E0,0E0,0E0],"parents":[2147483647,0,0,1,1,2,2,3,3,4,4,5,5,6,6,7,7,8,8,9,9,10,10,11,11,12,12,13,13,14,14,15,15,16,16,17,17,18,18,19,19,20,20,21,21,22,22,23,23,24,24,25,25,33,33,34,34,35,35,36,36,37,37,38,38,39,39,40,40,43,43,44,44,45,45,46,46,48,48,50,50,51,51,52,52,55,55,56,56,57,57,58,58,65,65,66,66,67,67,68,68,79,79,81,81,82,82,83,83,84,84,85,85,86,86,87,87,88,88,90,90,91,91,92,92,95,95,96,96,97,97,99,99,100,100,111,111,112,112,113,113,114,114,115,115,116,116,117,117,118,118,119,119,120,120,121,121,122,122,124,124,127,127,128,128,135,135,136,136,137,137,138,138,139,139,140,140,141,141,142,142,143,143,144,144,146,146,147,147,148,148,149,149,150,150,152,152,153,153,162,162,163,163,164,164],"right_children":[2,4,6,8,10,12,14,16,18,20,22,24,26,28,30,32,34,36,38,40,42,44,46,48,50,52,-1,-1,-1,-1,-1,-1,-1,54,56,58,60,62,64,66,68,-1,-1,70,72,74,76,-1,78,-1,80,82,84,-1,-1,86,88,90,92,-1,-1,-1,-1,-1,-1,94,96,98,100,-1,-1,-1,-1,-1,-1,-1,-1,-1,-1,102,-1,104,106,108,110,112,114,116,118,-1,120,122,124,-1,-1,126,128,130,-1,132,134,-1,-1,-1,-1,-1,-1,-1,-1,-1,-1,136,138,140,142,144,146,148,150,152,154,156,158,-1,160,-1,-1,162,164,-1,-1,-1,-1,-1,-1,166,168,170,172,174,176,178,180,182,184,-1,186,188,190,192,194,-1,196,198,-1,-1,-1,-1,-1,-1,-1,-1,200,202,204,-1,-1,-1,-1,-1,-1,-1,-1,-1,-1,-1,-1,-1,-1,-1,-1,-1,-1,-1,-1,-1,-1,-1,-1,-1,-1,-1,-1,-1,-1,-1,-1,-1,-1,-1,-1,-1,-1,-1,-1],"split_conditions":[1E-1,3.7275937E-3,3.7275937E-3,2.6826957E-2,2.6826957E-2,2.6826958E-5,1E0,1.9306977E-5,1.3894954E-3,1.3894955E-2,1E0,1E0,1.3894954E-3,1E-2,1E-2,1E0,3.727594E-5,5.179475E-4,1E0,3.7275937E-3,1E0,5.1794745E-2,1E-2,1.9306977E-7,2.6826958E-8,1E0,-2.4187446E-3,-5.9924577E-3,-2.9985815E-2,-1.2807115E-2,2.6767552E-3,-1.5938707E-5,-4.262669E-4,1E0,1.9306977E-3,7.196857E-5,5.1794745E-2,5.1794745E-2,5.1794745E-2,1.9306977E-5,1E-2,-3.781617E-4,-2.1027506E-3,1E-2,1E-2,5.1794745E-2,5.1794745E-2,-2.4576636E-4,1E-5,-2.015251E-3,1.9306977E-7,1.9306978E-4,1.9306978E-4,1.6451649E-4,-6.732217E-5,5.179475E-4,5.1794746E-7,3.7275938E-6,1E0,-1.5997888E-5,-1.0089756E-3,-3.7416907E-3,-7.037491E-4,2.2723676E-4,-1.657042E-3,1E0,7.196857E-5,1E0,7.1968567E-3,2.211848E-3,4.4183136E-4,4.1211248E-4,-1.0808936E-2,-1.8649874E-2,3.6976935E-4,2.1461518E-3,-9.7099546E-4,8.95536E-5,-2.2638739E-4,7.1968564E-8,-1.0796101E-3,7.196857E-5,5.179475E-4,7.196857E-5,5.179475E-4,1E-5,2.682696E-4,3.7275937E-3,7.196857E-5,1.2522483E-4,1E0,5.1794745E-2,5.1794745E-2,-1.0937452E-4,-5.114496E-4,1E0,5.179475E-4,7.1968567E-3,-2.7616622E-4,1E0,1E0,-5.1856045E-5,8.399874E-4,-1.5228958E-3,3.2169165E-3,-4.418224E-3,-9.880633E-4,3.2274128E-4,-4.4739246E-3,2.4691701E-3,1.7576516E-4,1E0,2.6826958E-5,1E0,5.179475E-4,7.1968564E-8,7.1968567E-3,3.7275937E-3,3.7275937E-3,2.6826958E-5,1E-5,1.9306978E-4,1.9306978E-4,1.56641E-4,1.9306978E-4,2.2573472E-4,-1.4142753E-4,1E0,1E0,6.459743E-4,3.438592E-5,9.741783E-5,-1.9013465E-3,-1.2606919E-3,6.8965857E-4,3.7275938E-6,1.3894954E-4,1E0,7.196857E-5,1.3894954E-4,1.3894954E-4,1E0,1.3894954E-3,1E0,1.9306977E-7,6.4129033E-4,1E0,1E0,1.3894955E-2,1E0,1E0,1.15792755E-4,5.1794745E-2,5.1794745E-2,-1.2774469E-5,-5.941898E-4,5.560309E-4,6.5706077E-4,-2.8138162E-4,-2.4157764E-5,-4.966557E-4,6.374436E-4,1.3894954E-4,1E-3,1E-2,3.086261E-4,6.975813E-4,-7.630587E-6,3.1914774E-4,-6.737607E-4,3.5288167E-4,4.2029392E-4,1.8446519E-4,4.1508436E-4,7.793308E-5,-1.1372566E-5,2.5143623E-4,1.0411919E-3,3.187001E-4,5.44399E-4,1.005292E-4,7.157981E-4,-3.910065E-6,-6.7381863E-4,2.7201176E-4,4.012744E-4,-5.7204565E-5,3.0927363E-4,-8.133829E-4,2.757328E-4,-1.0463379E-4,-7.6643235E-5,9.887482E-4,3.4637496E-4,-1.6003435E-4,8.42768E-4,1.7929674E-4,1.538694E-5,5.186856E-4,-1.9987822E-4,1.1337519E-4,-8.622766E-4,3.2162908E-4,8.49849E-4,-1.9640029E-4],"split_indices":[0,2,2,0,0,2,1,0,2,0,1,1,2,2,2,1,0,2,1,0,1,0,2,2,2,1,0,0,0,0,0,0,0,1,0,2,0,0,0,0,2,0,0,2,2,0,0,0,2,0,2,2,2,0,0,2,2,2,1,0,0,0,0,0,0,1,0,1,0,0,0,0,0,0,0,0,0,0,0,2,0,2,2,2,2,2,0,0,2,0,1,0,0,0,0,1,0,0,0,1,1,0,0,0,0,0,0,0,0,0,0,1,2,1,0,2,0,0,0,2,2,2,2,0,2,0,0,1,1,0,0,0,0,0,0,2,0,1,2,0,0,1,2,1,2,0,1,1,0,1,1,0,0,0,0,0,0,0,0,0,0,0,0,0,2,0,0,0,0,0,0,0,0,0,0,0,0,0,0,0,0,0,0,0,0,0,0,0,0,0,0,0,0,0,0,0,0,0,0,0,0,0,0,0,0],"split_type":[0,0,0,0,0,0,0,0,0,0,0,0,0,0,0,0,0,0,0,0,0,0,0,0,0,0,0,0,0,0,0,0,0,0,0,0,0,0,0,0,0,0,0,0,0,0,0,0,0,0,0,0,0,0,0,0,0,0,0,0,0,0,0,0,0,0,0,0,0,0,0,0,0,0,0,0,0,0,0,0,0,0,0,0,0,0,0,0,0,0,0,0,0,0,0,0,0,0,0,0,0,0,0,0,0,0,0,0,0,0,0,0,0,0,0,0,0,0,0,0,0,0,0,0,0,0,0,0,0,0,0,0,0,0,0,0,0,0,0,0,0,0,0,0,0,0,0,0,0,0,0,0,0,0,0,0,0,0,0,0,0,0,0,0,0,0,0,0,0,0,0,0,0,0,0,0,0,0,0,0,0,0,0,0,0,0,0,0,0,0,0,0,0,0,0,0,0,0,0,0,0,0,0,0,0],"sum_hessian":[4.5E2,4.2E2,3E1,3.64E2,5.6E1,2.6E1,4E0,3.12E2,5.2E1,4.8E1,8E0,1.6E1,1E1,2E0,2E0,2.6E1,2.86E2,4.8E1,4E0,4.4E1,4E0,4E0,4E0,8E0,8E0,8E0,2E0,1E0,1E0,1E0,1E0,1.3E1,1.3E1,2.6E1,2.6E2,4.4E1,4E0,2E0,2E0,3.6E1,8E0,2E0,2E0,2E0,2E0,2E0,2E0,3E0,5E0,1E0,7E0,4E0,4E0,1.3E1,1.3E1,1.56E2,1.04E2,3.6E1,8E0,2E0,2E0,1E0,1E0,1E0,1E0,4E0,3.2E1,4E0,4E0,1E0,1E0,1E0,1E0,1E0,1E0,1E0,1E0,4E0,1E0,2E0,5E0,2E0,2E0,2E0,2E0,1.32E2,2.4E1,3.2E1,7.2E1,2.4E1,1.2E1,4E0,4E0,2E0,2E0,8E0,2.4E1,2E0,2E0,2E0,2E0,1E0,1E0,1E0,1E0,1E0,1E0,1E0,1E0,1E0,1E0,8.4E1,4.8E1,1.2E1,1.2E1,8E0,2.4E1,4E1,3.2E1,6E0,6E0,2E0,2E0,2E0,2E0,4E0,4E0,1.2E1,1.2E1,1E0,1E0,1E0,1E0,1E0,1E0,4.2E1,4.2E1,1.2E1,3.6E1,6E0,6E0,4E0,8E0,4E0,4E0,8E0,1.6E1,1E1,3E1,8E0,2.4E1,4E0,2E0,2E0,4E0,1E0,1E0,1E0,1E0,1E0,1E0,6E0,6E0,6E0,6E0,3.6E1,6E0,1.4E1,2.8E1,6E0,6E0,1.2E1,2.4E1,4E0,2E0,4E0,2E0,2E0,2E0,4E0,4E0,2E0,2E0,2E0,2E0,8E0,8E0,5E0,5E0,2E1,1E1,4E0,4E0,1.2E1,1.2E1,1E0,1E0,1E0,1E0,2E0,4E0,2E0,4E0,3E0,3E0],"tree_param":{"num_deleted":"0","num_feature":"3","num_nodes":"205","size_leaf_vector":"1"}},{"base_weights":[-8.46808E-4,-1.08956585E-4,-1.083999E-2,3.16929E-4,-2.8342071E-3,-2.7687948E-3,-5.2256446E-2,4.127151E-4,-8.071003E-4,-4.2334624E-4,-1.5645094E-2,-1.5197572E-3,-4.447417E-3,-6.795895E-2,-1.9135127E-2,-5.322981E-4,4.8687682E-4,3.9548398E-4,-6.6586016E-3,2.9501237E-4,-2.4353403E-3,-8.775568E-3,-1.93856E-2,-8.960167E-5,-2.5719802E-3,-3.285739E-3,-1.9349933E-3,-5.0935866E-3,-2.5487943E-2,-1.0886045E-2,2.2752376E-3,-5.3066474E-6,-3.0178842E-4,5.3025177E-4,-3.4012795E-5,7.655734E-4,-1.2379885E-3,-8.396943E-3,-2.7007263E-3,-2.9799342E-4,4.812732E-4,-5.2246026E-4,-4.0003145E-3,5.012492E-3,-1.963844E-2,-3.452909E-2,2.2197564E-3,-1.712966E-3,-1.466006E-3,-4.2072413E-3,-1.7070889E-3,2.5613088E-4,5.837857E-4,5.5382366E-4,-2.4961233E-3,-4.7319278E-5,3.436232E-4,4.3068329E-4,-2.4939973E-3,-3.1804384E-3,-5.981863E-4,1.9315482E-4,-1.4084816E-3,5.798751E-4,-1.8687248E-4,6.272644E-4,-4.6247095E-4,-2.0677E-3,-4.9328506E-3,1.8800676E-3,3.75554E-4,3.502965E-4,-9.187594E-3,-1.5852392E-2,3.1430126E-4,1.824233E-3,-8.2534255E-4,1.4886856E-3,-2.6990175E-3,3.1998158E-3,-1.0211885E-2,-7.84113E-3,4.9959817E-3,1.7460537E-4,-2.4000406E-5,1.0179975E-3,4.705206E-4,4.0286782E-4,2.8916667E-4,-2.5959016E-4,-9.884716E-4,1.0044158E-3,-8.106083E-4,-1.43542E-3,3.131211E-4,1.1866623E-4,7.4992294E-4,2.2428633E-4,-3.177226E-4,5.49075E-4,-1.1514426E-4,8.2808736E-5,-8.822859E-4,-2.2887588E-3,-1.929769E-3,-4.4077635E-5,7.1398617E-4,-1.7855466E-4,-9.002245E-4,-1.294461E-3,2.734378E-3,-3.7554952E-3,-8.398533E-4,2.743274E-4,-3.8028362E-3,2.098793E-3,1.4939904E-4,4.667037E-4,4.395962E-4,-2.8071403E-5,5.4149266E-4,-2.2425056E-4,4.772226E-4,1.7156126E-4,-1.0748148E-4,3.2465567E-4,1.1070154E-3,-1.6161472E-3,5.8620574E-4,-2.6597887E-5,2.8021107E-4,-1.5191115E-3,4.3953842E-4,7.4069353E-4,4.5634943E-4,1.9440868E-4,1.0039688E-3,-2.2220612E-4,5.5710674E-4,4.4649243E-4,-4.058679E-4,-6.8955857E-4,5.5353646E-4,2.6196722E-4,1.6393265E-5,3.5367968E-5,1.6166273E-4,2.6501418E-4,-1.7054876E-5,4.7393443E-4,2.8049946E-5,1.350173E-4,-5.1502587E-4,1.343608E-4,-3.1700137E-4],"categories":[],"categories_nodes":[],"categories_segments":[],"categories_sizes":[],"default_left":[0,0,0,0,0,0,0,0,0,0,0,0,0,0,0,0,0,0,0,0,0,0,0,0,0,0,0,0,0,0,0,0,0,0,0,0,0,0,0,0,0,0,0,0,0,0,0,0,0,0,0,0,0,0,0,0,0,0,0,0,0,0,0,0,0,0,0,0,0,0,0,0,0,0,0,0,0,0,0,0,0,0,0,0,0,0,0,0,0,0,0,0,0,0,0,0,0,0,0,0,0,0,0,0,0,0,0,0,0,0,0,0,0,0,0,0,0,0,0,0,0,0,0,0,0,0,0,0,0,0,0,0,0,0,0,0,0,0,0,0,0,0,0,0,0,0,0,0,0,0,0,0,0,0,0],"id":10,"left_children":[1,3,5,7,9,11,13,15,17,19,21,23,25,27,29,31,33,35,37,39,41,43,45,-1,47,49,-1,-1,-1,-1,-1,-1,-1,51,53,55,57,59,61,-1,63,65,67,69,71,73,75,-1,77,79,81,83,85,87,89,-1,-1,91,93,-1,-1,-1,-1,95,97,99,-1,101,103,-1,-1,-1,-1,-1,-1,-1,-1,105,107,109,111,113,115,-1,-1,117,119,-1,121,-1,-1,-1,-1,-1,-1,123,125,-1,-1,-1,-1,-1,-1,127,-1,-1,-1,-1,-1,-1,-1,-1,-1,-1,-1,-1,-1,-1,129,131,133,-1,135,-1,-1,137,139,-1,-1,-1,-1,141,-1,143,145,147,149,151,-1,-1,153,-1,-1,-1,-1,-1,-1,-1,-1,-1,-1,-1,-1,-1,-1],"loss_changes":[3.32426E-3,4.8952975E-4,1.0218002E-2,3.9631337E-5,1.7538369E-3,4.9850903E-5,1.300036E-3,2.3877405E-5,2.0670415E-4,7.153979E-5,6.11397E-5,2.1074338E-5,4.3966866E-6,1.1576274E-3,1.6500446E-3,6.075993E-6,7.089817E-6,1.6061043E-5,1.1722863E-5,9.3567305E-6,3.6826896E-5,8.4732706E-4,1.7125488E-3,0E0,2.2863256E-5,5.9104277E-6,0E0,0E0,0E0,0E0,0E0,0E0,0E0,4.091482E-6,3.756537E-5,7.545479E-6,1.1553455E-5,2.120767E-5,2.3032215E-5,0E0,2.2824179E-6,9.16884E-6,2.4159744E-6,6.306873E-6,7.215416E-4,2.009828E-3,7.430729E-5,0E0,3.316334E-5,2.5505986E-4,2.447587E-4,5.4140773E-6,1.1373646E-5,3.997164E-6,3.6622732E-6,0E0,0E0,3.6464353E-5,2.9306046E-5,0E0,0E0,0E0,0E0,2.1854084E-6,4.8671263E-6,5.567728E-6,0E0,8.998459E-6,1.1389347E-6,0E0,0E0,0E0,0E0,0E0,0E0,0E0,0E0,4.722981E-6,2.0227562E-6,1.7267135E-4,1.6243255E-5,1.3859039E-4,2.3503853E-5,0E0,0E0,1.455492E-5,6.844719E-6,0E0,3.670903E-6,0E0,0E0,0E0,0E0,0E0,0E0,2.1502387E-6,2.8296545E-6,0E0,0E0,0E0,0E0,0E0,0E0,4.9964056E-5,0E0,0E0,0E0,0E0,0E0,0E0,0E0,0E0,0E0,0E0,0E0,0E0,0E0,0E0,6.612591E-6,5.78862E-5,2.5283261E-6,0E0,2.0393863E-6,0E0,0E0,9.630563E-6,6.9494226E-6,0E0,0E0,0E0,0E0,3.8328886E-5,0E0,4.4074823E-6,3.3161868E-6,1.9544284E-6,2.4735887E-6,9.815204E-6,0E0,0E0,2.1400954E-6,0E0,0E0,0E0,0E0,0E0,0E0,0E0,0E0,0E0,0E0,0E0,0E0,0E0,0E0],"parents":[2147483647,0,0,1,1,2,2,3,3,4,4,5,5,6,6,7,7,8,8,9,9,10,10,11,11,12,12,13,13,14,14,15,15,16,16,17,17,18,18,19,19,20,20,21,21,22,22,24,24,25,25,33,33,34,34,35,35,36,36,37,37,38,38,40,40,41,41,42,42,43,43,44,44,45,45,46,46,48,48,49,49,50,50,51,51,52,52,53,53,54,54,57,57,58,58,63,63,64,64,65,65,67,67,68,68,77,77,78,78,79,79,80,80,81,81,82,82,85,85,86,86,88,88,95,95,96,96,103,103,118,118,119,119,120,120,122,122,125,125,126,126,131,131,133,133,134,134,135,135,136,136,137,137,140,140],"right_children":[2,4,6,8,10,12,14,16,18,20,22,24,26,28,30,32,34,36,38,40,42,44,46,-1,48,50,-1,-1,-1,-1,-1,-1,-1,52,54,56,58,60,62,-1,64,66,68,70,72,74,76,-1,78,80,82,84,86,88,90,-1,-1,92,94,-1,-1,-1,-1,96,98,100,-1,102,104,-1,-1,-1,-1,-1,-1,-1,-1,106,108,110,112,114,116,-1,-1,118,120,-1,122,-1,-1,-1,-1,-1,-1,124,126,-1,-1,-1,-1,-1,-1,128,-1,-1,-1,-1,-1,-1,-1,-1,-1,-1,-1,-1,-1,-1,130,132,134,-1,136,-1,-1,138,140,-1,-1,-1,-1,142,-1,144,146,148,150,152,-1,-1,154,-1,-1,-1,-1,-1,-1,-1,-1,-1,-1,-1,-1,-1,-1],"split_conditions":[1E-1,3.7275937E-3,3.7275937E-3,1.3894954E-3,2.6826957E-2,2.6826958E-5,1E0,1.9306977E-5,2.6826957E-2,3.7275937E-3,1E0,1E0,1.3894954E-3,1E-2,1E-2,1E0,5.1794745E-2,